4921 64
4935 0.28680477 0.065539196 0.0734799 -0.057777107 -0.15465756 0.023781199 0.17012037 -0.058316115 -0.11939706 -0.033801343 -0.081808954 0.041318785 -0.04124593 -0.041201077 -0.018114092 0.23808151 0.1643399 -0.19366068 0.055398006 0.007289024 -0.040690392 -0.25496176 0.09460459 -0.05005838 0.14464636 0.01455459 0.17131132 0.28072575 0.06494145 -0.20932424 -0.13941203 -0.036614884 -0.13202721 0.14415076 0.05597508 -0.0397041 -0.048939463 0.21835895 0.08719652 0.037993796 0.03733122 0.12568809 0.047664296 -0.037327666 0.048454437 0.06772464 -0.06904526 -0.20408209 -0.057405498 0.19755678 -0.12680575 0.24555118 -0.009292105 0.17945915 0.082716495 -0.061568175 -0.14357315 0.08813846 0.26210108 0.03189708 0.16831456 -0.12728311 -0.047033843 0.12865351
3301 0.2250991 0.011124873 0.115654916 -0.17487021 -0.09953689 0.0556844 0.20073977 -0.07326768 -0.0023528105 -0.017451981 -0.013548394 0.0014050356 -0.112663634 -0.04976869 0.09072781 0.38888565 0.19548658 -0.2566372 0.01988387 -0.08200826 -0.16722836 -0.16763975 0.16384198 0.026068784 0.270128 -0.09073325 0.22805898 0.28912586 -0.051368967 -0.10586245 -0.08350861 0.11576817 -0.10056476 0.13196972 0.03033511 -0.032990824 -0.14569864 0.13851525 -0.020024184 -0.064653054 -0.07679919 0.10791742 0.15929483 0.006672954 0.021740125 0.01768528 -0.1446563 -0.18196549 -0.15992153 0.26248753 -0.15958129 0.34071577 0.006949649 0.28447908 -0.004224874 0.057687394 -0.22606291 0.17447157 0.28066644 0.080038875 0.100700185 -0.15133002 -0.024231343 0.14048305
1532 0.1805712 0.06590958 -0.058999766 -0.16427144 -0.16897362 -0.0107291695 0.26154423 -0.19243154 -0.034098487 -0.01963629 -0.10793693 -0.05378685 -0.061546985 -0.12808399 0.066154085 0.18748121 0.21467058 -0.2465926 -0.029335564 0.02176974 -0.036890313 -0.343425 0.0863248 -0.04048461 0.10089121 0.038235944 0.08791053 0.20358954 -0.13325405 -0.20248444 -0.02299612 -0.13270783 -0.24369156 0.16313574 -0.007521377 -0.20402537 -0.036543977 0.17157759 -0.011521332 -0.16266693 0.030942755 0.06384103 0.06695165 0.012540674 -0.032849647 0.1428229 -0.084353045 -0.023420325 -0.16843843 0.12425572 -0.11198851 0.27248877 0.071161635 0.09135425 0.15845269 -0.022525137 -0.10546558 0.042035807 0.3440814 -0.031429406 0.045178574 -0.1123788 -0.06006623 0.073065765
2699 0.20928605 0.07652974 0.076232076 -0.15727341 -0.13782762 -0.11162991 0.1743239 0.10609476 -0.06060783 -0.1023938 -0.04208139 -0.07067619 0.05431496 -0.10915883 -0.11483084 0.047453053 0.12819672 -0.32611436 -0.19480607 -0.05514805 -0.050735667 -0.19526835 0.046417907 -0.092458434 0.17149688 -0.21470645 0.15540746 0.2687541 -0.12588027 -0.34178975 -0.15393195 -0.09928494 -0.1492488 0.195768 0.03785752 -0.018679269 0.027176995 0.057584282 0.28413555 -0.0090347985 0.012952473 0.08302309 0.14883082 0.042710055 -0.055794872 0.063881814 0.01246295 0.006026889 0.03928835 0.23246732 0.07432311 0.16166802 0.20153983 0.1698095 0.011393287 -0.063603655 -0.18271856 0.30603328 0.19182399 0.042150863 0.05895687 0.029642185 -0.10330775 0.10461023
2159 0.15206826 0.18322562 0.18422547 0.049544327 -0.081637055 -0.13365105 0.25723112 -0.03646511 -0.029445447 0.13522749 0.03343939 -0.17849725 -0.02561618 0.118662655 -0.079581454 0.058743916 0.29097903 -0.06883653 0.06650941 -0.057263114 -0.0095129665 -0.14509463 0.1974704 0.13381949 0.045417327 -0.21459562 0.18799308 0.35826868 -0.03075757 0.07352341 -0.19719082 0.109478444 -0.24376431 0.23400378 0.061883982 -0.042773858 -0.050143328 0.17917544 -0.05952585 0.106805556 0.025472738 0.12070557 0.042962674 0.03177302 0.023043457 -0.017345505 -0.1560167 -0.07236218 -0.122557774 -0.056070898 -0.10629759 0.2389332 0.23479927 0.09539363 -0.09868457 -0.022959558 -0.26095292 -0.05336077 0.2308738 0.008187036 0.1477525 -0.025631182 -0.15815751 0.08483891
3326 0.11207146 0.03799175 0.026804445 -0.19259939 -0.10857037 -0.00401872 0.28989074 -0.1292525 -0.037519105 0.050276842 -0.05052016 -0.0057742535 -0.09144008 -0.29088297 -0.005752687 0.15177915 0.3130527 -0.25546503 -0.16473065 -0.0019341012 -0.04840487 -0.24360307 0.053625815 -0.006692599 0.10615472 -0.08451528 0.1728111 0.10056797 -0.16117425 -0.20374905 -0.11617028 -0.013080638 -0.27399015 0.10904068 -0.12857983 -0.13693663 -0.12135163 0.03138614 -0.03484273 -0.090432286 -0.055258896 0.12845977 0.059666183 0.042279895 -0.10659455 0.09974784 -0.06698215 -0.09837124 -0.19852473 0.28272012 -0.20755258 0.36460575 -0.03795725 0.13340047 0.088412285 -0.029287323 -0.17429896 0.1886271 0.23453653 0.08621616 0.089747384 -0.19589873 -0.022318376 0.06857829
3352 0.20087118 0.0009851076 0.09825391 -0.1344951 -0.057284687 -0.034209866 0.22640845 -0.14217502 -0.06143957 0.007752659 0.039548315 0.07505696 -0.10626596 -0.13595432 0.10888702 0.28029448 0.26618475 -0.2893841 -0.10467662 0.072510034 -0.04393167 -0.3456636 0.111750394 -0.045403473 0.15727843 -0.010711302 0.049668774 0.23845527 -0.09702606 -0.19760314 -0.08633901 0.09772826 -0.12130348 0.02272599 -0.09496574 -0.13355534 -0.10715078 -0.010843378 -0.08091965 -0.11130387 -0.09099163 0.22246867 0.030198222 0.005855093 -0.06144859 0.13267933 -0.10217274 -0.13609564 -0.24595086 0.27456674 -0.2257479 0.3783741 -0.057985466 0.21263586 0.017322922 -0.011419279 -0.20736155 0.19863743 0.25561872 -0.0018002705 0.19308594 -0.3182643 0.008557985 0.07819212
1948 0.037646707 -0.08489533 0.07787458 -0.024115225 -0.21850109 0.01905154 0.23157766 -0.1541595 -0.057180893 -0.054105707 -0.024397919 -0.140141 -0.16073108 -0.011718234 -0.061367817 0.24677253 0.16486464 -0.33854106 -0.14130296 0.049380455 -0.17579247 -0.22192532 0.08972271 0.071112394 0.25362754 -0.11474983 0.18166086 0.34371877 -0.19585395 -0.14815113 -0.2305458 0.0992429 -0.075390354 0.018788174 0.0799189 -0.078832395 0.10987708 0.12299315 0.023628851 -0.10339143 0.051979013 0.1921563 0.073324144 0.022733783 -0.03050113 0.051031522 -0.28901744 -0.28499013 -0.09801659 -0.02970979 -0.25937453 0.40803605 0.045733605 0.13849396 -0.080944106 -0.071626484 -0.24356227 0.055538673 0.11352184 -0.07315104 0.21998325 -0.0944844 -0.1304171 0.011414069
4089 0.081269726 0.01416014 0.012067795 -0.13428894 -0.096488185 0.031575818 0.16717798 -0.22800623 -0.005956799 0.05356033 -0.11046654 -0.050378557 -0.096149005 -0.16915518 0.13508308 0.23793803 0.11557262 -0.25615638 -0.0068675093 -0.07082353 -0.0548819 -0.26230887 0.07207449 -0.10914998 0.21493676 0.049688436 0.110229656 0.19126889 -0.18754731 -0.11872422 -0.11885691 0.1753996 -0.18233998 -0.009028699 -0.026579535 -0.077984974 -0.15863751 0.10112682 -0.08906581 -0.10762487 -0.2230795 0.18990645 0.07084302 0.065313116 0.10608086 0.16344716 -0.079313606 -0.10248696 -0.2229666 0.30680645 -0.17703496 0.46895564 -0.03964634 0.26865104 0.17848119 0.08354516 -0.24536093 0.28766054 0.3959169 -0.04259338 0.17238083 -0.23397988 -0.11599483 0.061528847
4871 0.15434717 0.0379919 0.14483169 -0.07044615 -0.054206695 0.11827707 0.21842577 0.020235153 0.08660591 -0.049799394 -0.05976654 -0.008104526 0.0048435456 -0.07286269 -0.047714245 0.10716275 0.19404605 -0.26566914 -0.016144888 -0.030852035 -0.24429469 -0.314091 -0.0846047 0.17281176 0.19778612 -0.12901416 0.21218291 0.25049654 -0.21698862 0.060628057 -0.09184875 0.17819385 0.021657087 0.093232796 0.13589798 -0.16994368 -0.062840395 0.13736436 -0.12344287 -0.27369717 -0.04816174 0.30982146 0.30299786 -0.18389213 0.04280897 -0.06581986 -0.12417062 -0.066110395 -0.28222778 0.24872066 -0.13864477 0.30450183 -0.05129211 0.06931629 -0.04934862 0.061681326 -0.28975198 0.18044934 0.2921686 -0.084448755 0.059733175 0.047886983 -0.09436891 0.15901378
4911 0.20009692 0.20939258 0.14699386 0.09541724 -0.24121863 0.06148383 0.3367437 0.10611195 -0.16507657 0.07563606 -0.0041861306 -0.06504075 -0.0058687446 -0.017065391 0.10276475 0.38280913 0.35470855 -0.0033341562 0.13726412 -0.1523368 0.21258634 -0.15451822 0.15339714 0.27993107 0.264216 -0.120340675 0.18194883 0.15901159 0.018146634 0.13145545 -0.26255652 0.38796088 -0.09880166 0.1984078 -0.0836088 -0.22645122 -0.12798685 -0.011551849 0.089487985 0.020247791 0.103144616 0.07222316 0.18746972 0.082789734 0.10559718 -0.057854086 -0.16440244 -0.19179381 -0.14723518 -0.07589922 -0.17921698 0.24510998 0.07762007 0.08760048 -0.11903411 0.0063673584 -0.29066542 0.301522 0.21243632 0.043582033 0.23890989 -0.24552697 -0.24171898 0.16380572
4300 -0.105890565 -0.047733963 0.094992556 -0.17109674 -0.0862088 -0.012869416 0.21510437 -0.2059975 -0.01599681 -0.005780382 0.019044723 -0.05948089 -0.23804513 -0.10822062 0.12313593 0.35226497 0.11949808 -0.24962853 -0.07207977 -0.08571616 -0.04254332 -0.4059917 0.18438628 -0.028067457 0.10260304 -0.007553303 -0.06535983 0.38690916 0.05792043 -0.079330355 -0.070862666 0.15188316 -0.31903103 -0.15095866 -0.022619281 0.033427104 -0.11325455 0.097352535 -0.06687225 -0.006238002 -0.10012771 0.25459418 0.0498329 -0.14655772 -0.07401935 0.12708013 -0.18649872 -0.04717032 -0.30486208 0.17928047 -0.3430121 0.45330176 -0.13755657 0.34388176 0.08805955 0.17168848 -0.23806596 0.17938702 0.395222 0.11942828 0.19759442 -0.42442936 -0.026193522 0.2259454
3753 0.12833896 0.18281993 0.11534221 0.00048553516 -0.37229323 0.06352036 0.37684143 0.22890408 -0.19442724 -0.0880405 -0.28469354 -0.28349957 0.27279565 -0.20386513 -0.24703206 -0.13144042 0.059598673 -0.34289506 -0.38891542 -0.00035506143 0.26526326 -0.38544187 -0.051826037 -0.100150876 0.010120409 -0.09867002 0.0022518605 0.23795702 -0.089650825 -0.36425298 -0.2210427 -0.15333405 -0.2748208 0.2631225 -0.071820565 0.07337203 0.05374574 0.12171804 0.05715783 -0.13400397 0.0064673414 0.16386081 0.2040799 0.112623654 -0.18880059 0.25463435 0.034183472 0.0014999332 0.060276233 0.040890917 0.207916 -0.07718073 0.35452127 -0.118586905 0.07985947 -0.001815881 -0.16974247 0.033757582 -0.032332942 -0.06440128 -0.4362238 0.53832924 -0.08750715 0.16573225
4463 -0.049971398 0.15763845 -0.09452623 -0.001901239 -0.09296087 -0.1712658 0.111725554 0.009390192 -0.11129901 -0.16007581 -0.2315343 0.07978175 0.06637381 0.14230515 -0.4678942 -0.14110723 0.1168886 -0.14402626 -0.15101907 0.13055842 0.26939195 -0.51666975 -0.1981151 -0.02989217 0.40153095 -0.0146483015 -0.06289283 0.37313172 -0.27166036 -0.14594267 -0.24932937 0.011264189 -0.20366131 0.21731424 -0.13699076 0.06559626 0.2830743 0.08974867 -0.05892867 -0.033869203 -0.032436065 0.27845973 0.013835377 -0.0615541 -0.07734747 0.07065442 0.026574176 -0.07294254 0.051679626 0.14580001 0.18831882 0.18648662 0.28820094 -0.11528058 -0.005226434 -0.27161878 -0.33710435 0.021855664 0.25772148 0.20979235 -0.020413995 -0.042572934 -0.16135748 0.024979647
4920 0.066897586 0.17302033 0.15919986 -0.13273002 -0.1494781 0.06443885 0.2350398 0.026659032 -0.00094679446 0.23117101 0.11105571 -0.18751658 0.09758211 0.28326473 0.06762293 -0.03682343 0.30241072 -0.17158689 -0.005034564 -0.31994793 -0.09071841 -0.24064147 0.0919983 0.19747119 0.11485968 -0.30471978 0.20312934 0.20634742 -0.34448218 0.17969544 -0.3915957 0.197839 -0.22132184 0.37732014 -0.22999558 -0.11471148 0.17017804 0.35498297 -0.21540302 0.15605427 0.051511116 0.18224482 -0.025509097 0.01495241 0.21358645 0.018135933 -0.23683217 0.05391946 -0.17993598 -0.08690638 -0.13076527 0.38105613 0.0624279 -0.008761292 -0.30488425 -0.039946597 -0.33186474 0.051449187 0.23949625 0.091785826 0.10903077 -0.033445325 -0.11823202 -0.1262296
3189 0.09520569 0.08574277 0.1440626 -0.027539501 -0.31953737 -0.0738086 0.39956278 -0.059443545 -0.061986998 -0.032977927 -0.24081741 -0.2557556 0.2036678 0.021794908 -0.31367457 -0.33142856 0.16265136 -0.43041766 -0.48418835 -0.10547373 0.012881602 -0.2548584 -0.050806373 -0.19042607 -0.06466553 -0.22856587 0.17050481 0.310357 -0.13052732 -0.4230195 -0.17607562 -0.21002449 -0.35561052 0.2655632 0.038859814 0.009666121 0.09548963 0.22337419 0.14976013 0.0072565773 -0.19527286 0.12220917 0.0238969 0.19072182 -0.14822757 0.091041185 0.04780945 -0.006871695 0.44373977 0.0375327 0.12093925 -0.037381 0.3053393 0.1670661 -0.26943517 -0.27738327 -0.049538456 0.258889 0.02977263 -0.12547426 -0.108160496 0.13356212 0.068298884 -0.0170934
4235 -0.2418934 -0.15854493 0.05162885 -0.09290838 -0.0126159275 0.17504644 0.43739 -0.11965739 -0.1255104 0.14884262 -0.06807276 -0.07706487 0.2827989 -0.2036776 -0.12383166 -0.28664628 0.02987511 -0.43376625 -0.4465661 0.13249177 0.20109263 -0.34489244 0.16332616 -0.123275496 -0.15328169 -0.1613754 0.43934903 0.47422963 0.10519591 -0.18870384 -0.06879483 -0.5918536 -0.17845775 0.32030976 -0.13148187 0.23566322 -0.09081524 0.22483602 0.3206354 0.115993656 -0.1605417 0.19111028 0.066046596 0.061301004 -0.08339797 -0.023725912 0.1356378 -0.13056363 0.09157417 0.19741282 0.08606774 0.08981846 0.40187404 0.08207379 -0.0746505 -0.22540261 -0.13254523 0.20912796 0.1413973 -0.062126286 -0.09032343 0.32699725 0.052182995 -0.028794663
2080 0.0071861735 0.1610224 0.13638346 -0.18421021 -0.15195686 -0.18502615 0.26596814 -0.03889178 -0.07860387 -0.095320515 0.10856709 0.071030326 -0.04627278 0.02848855 0.050402608 0.21493411 0.21544193 -0.40215445 -0.12735651 -0.22254892 -0.13998124 -0.21991333 0.17953598 0.053869754 0.20481758 -0.32332304 -0.033081695 0.44414213 -0.25472578 -0.19078143 -0.0011425201 0.393746 -0.06631185 0.03589721 0.046002857 -0.02369004 -0.11088191 0.21849555 0.1693157 -0.038422257 -0.17578806 0.07993354 0.01916761 -0.12711029 -0.17663416 -0.10315114 -0.33097467 -0.087421216 -0.21345179 0.13454373 -0.30345234 0.39777744 0.05101089 0.34352612 0.09901024 0.10767404 -0.16974491 0.12822072 0.1018043 0.32769513 0.24539302 0.019757915 0.06485874 -0.05883475
2 -0.24009795 0.21895404 0.0016896633 -0.23073559 -0.08792019 -0.184907 0.37243268 -0.40668708 -0.018982485 -0.08246664 -0.02414505 -0.2044985 -0.06449218 0.065738544 0.0043847896 0.22130398 0.1342178 -0.35888338 -0.23029983 -0.2692541 -0.09248565 -0.33765543 -0.02218815 0.023046872 0.050485898 0.03727753 0.004571335 0.3217346 0.054928485 0.025097061 -0.016434219 0.060295384 -0.21374238 -0.010623027 -0.09190821 -0.10501507 -0.053765457 0.06710954 -0.11453966 -0.21549408 -0.11419937 0.13408145 0.002168327 -0.14773284 -0.18143818 0.14392072 -0.12636264 0.12896149 -0.28471124 0.08708287 -0.43042508 0.57693607 0.1355171 0.14654434 0.030654026 0.14114103 -0.07331236 0.18734062 0.12457984 -0.013910802 0.08708062 0.0013129566 0.029770944 -0.09357239
4964 0.24808745 0.53829396 0.0818102 -0.053751476 -0.05193955 -0.06911029 0.0645904 -0.062007226 -0.12351281 0.094786145 -0.17731182 -0.044511534 0.25245097 -0.36934975 -0.065066375 0.13646509 0.29174757 0.026356675 0.0049042585 0.21190315 0.1819544 -0.29554397 -0.009074649 -0.099690676 -0.08157401 -0.26378173 -0.08410581 -0.05912071 0.05991797 -0.5175883 -0.29657903 -0.10565018 -0.17309077 -0.066678435 0.24082832 -0.040561423 -0.07042324 -0.055149756 0.061994057 -0.034933504 0.14894563 0.2742019 -0.09093127 -0.21767832 0.033467602 0.26720732 0.15428637 0.009257331 -0.037371576 0.19882141 0.2842321 0.10475837 0.13938835 -0.22852775 0.041702796 -0.2913251 -0.21018517 0.18042965 -0.17879815 0.12818137 -0.09554371 -0.05981195 0.17428222 0.07973888
4766 0.18405822 0.1350389 -0.10601151 -0.3321138 -0.2784819 0.17322384 0.6052756 0.50300604 -0.20004606 0.23437071 0.23529242 -0.08288096 0.012582952 -0.10957167 -0.19154315 -0.24190842 0.23464766 -0.30504176 0.11193446 -0.118640125 -0.07836201 -0.3082983 -0.019636866 -0.07221591 0.124969356 -0.053221993 0.12858085 0.0079750735 -0.034227133 -0.24137379 -0.3153577 -0.07873826 0.003086537 -0.3447446 -0.30103177 -0.50840974 -0.33677286 -0.07983223 0.12699887 -0.22940132 0.1722199 0.5244738 0.4394091 -0.4212926 0.09585132 -0.011603079 0.009315438 -0.5253794 -0.34683034 -0.11366977 0.2735293 -0.13566758 0.030704442 -0.07329833 -0.049954258 -0.015931135 0.2662548 0.2557584 0.40049872 -0.12254357 -0.17190546 0.041598666 -0.122917354 -0.29134068
4949 -0.105972484 -0.19914466 0.061916683 -0.24502634 -0.122583054 -0.025331661 0.32799092 -0.26699683 -0.3077691 0.039251078 -0.17828621 -0.04553786 -0.33910686 -0.21964057 0.07085185 0.20678997 0.17378496 -0.04931906 0.0014175669 -0.15762696 0.07887819 0.0067868605 0.17425399 -0.06483403 0.23333368 -0.15458518 -0.190933 0.40134823 -0.11595115 -0.04380884 -0.008557219 0.14867672 -0.12945652 -0.14237486 0.09991146 -0.072394885 -0.25719783 0.09582421 -0.30284843 -0.21567847 -0.019315911 0.20964275 0.07667205 -0.11621152 -0.03898771 0.0680816 -0.048764467 -0.27185723 -0.32025817 0.31616646 -0.38203564 0.60010546 0.07607569 0.14427383 0.07608916 0.09260549 -0.26911092 0.21943158 0.09912378 0.1859969 0.21253735 -0.31011775 0.16968408 0.15588541
3778 0.11977515 0.1417507 0.093195714 0.0053311647 -0.32102644 -0.068330914 0.32122087 0.20541087 -0.31295127 -0.27958414 -0.20559292 -0.2068436 0.3653857 -0.19131853 -0.16504903 -0.103857376 0.07899818 -0.34434187 -0.44982088 0.030913463 0.2747872 -0.23067829 0.07387062 0.01221515 -0.093212456 -0.025024569 -0.035100322 0.25366184 -0.008325797 -0.42153716 -0.29440716 -0.07246734 -0.4320134 0.18464257 0.073690265 0.1783473 0.19746739 0.120263666 0.14968538 -0.29931208 -0.06612646 0.0985271 0.30975866 0.1594471 -0.27344736 0.31258348 0.0851212 -0.0075754 0.049072713 0.15847033 0.21852034 -0.15677825 0.28293586 0.030369863 0.03251894 -0.17099169 -0.16892324 0.22015223 -0.11571736 -0.06306687 -0.2752762 0.5105852 -0.007211978 0.11573122
4953 0.407064 0.2269658 0.17418675 0.18760754 -0.3387003 -0.13123065 0.21240935 0.12719528 0.21396318 -0.08065082 0.018999785 -0.123468466 0.20648764 0.02046879 -0.044242408 -0.33525917 0.3021622 -0.22916637 0.011758697 0.042372987 0.22706106 0.013357026 0.2302119 0.06185065 -0.0041683675 -0.5322935 -0.09626983 0.35005692 -0.20974007 -0.3274138 -0.17612202 0.12874119 -0.18079908 -0.17413512 0.23182423 -0.030033857 0.0994388 0.1494518 0.1251394 0.02886156 0.11951207 0.30032322 0.18322761 0.17581955 -0.19108193 0.031605724 0.22683287 -0.29720396 0.05148205 -0.14332372 -0.24485758 0.0055517573 0.52003264 -0.030152073 -0.14317659 -0.041894812 0.07690506 -0.027511666 -0.008929232 0.054793358 -0.078101575 0.23133121 -0.058975276 -0.021139251
1594 -0.10794258 0.14856867 0.19924618 -0.14347695 -0.030421855 -0.11965837 0.15229115 -0.17500538 0.05726538 0.012234547 0.053170998 0.018268358 -0.20135227 0.059663527 0.06368691 0.21565647 0.2272194 -0.32284462 -0.11629049 -0.22842629 -0.32897872 -0.18620932 0.19141924 0.16704637 0.16235925 -0.25080106 -0.002051198 0.35934973 0.047323912 0.17627908 -0.11610334 0.3618845 -0.09700445 0.23107757 -0.048071247 -0.19192646 -0.22360884 0.2732902 -0.01868487 0.16203026 -0.11966886 0.07430401 0.29687074 -0.012595404 -0.027602924 -0.093696065 -0.2898817 -0.021935036 -0.29025668 0.0222991 -0.15997048 0.43837446 -0.028609393 0.25201446 0.08817929 -0.18081644 -0.38332844 0.31665456 0.11596434 0.12119919 0.19712244 0.09478567 -0.023882143 0.03965846
687 0.04021932 -0.14272423 0.19558352 -0.14146467 -0.1024159 -0.14579514 0.5424569 -0.09435997 -0.015087866 -0.113198 -0.017883414 -0.05248546 0.31528586 -0.08198992 -0.10482562 -0.133013 0.092556104 -0.19047867 -0.41884962 0.052099302 0.21248601 -0.13792193 -0.21052435 -0.28757724 -0.07012952 -0.12173004 0.21756083 0.16301292 -0.40515283 -0.48696354 -0.31124842 0.111050636 -0.32841018 0.14101677 0.19457959 0.07546865 0.31423312 0.05377128 0.4106571 0.07556598 -0.40643644 0.27201152 0.099765465 -0.17827852 -0.09474195 0.19250782 -0.023746628 0.08086719 0.15879716 0.28310797 0.20098592 -0.08383306 0.21010366 0.19544095 -0.36297157 -0.21746765 -0.25975326 0.29777905 0.2978288 -0.10655834 -0.10098741 -0.06703868 -0.09770266 -0.17765826
4632 -0.18033135 0.07880797 -0.17154351 -0.2590728 0.04857099 -0.15291858 0.45465943 -0.1654637 0.07549255 -0.193901 0.06650397 -0.19605279 -0.08247104 -0.23600604 -0.009946032 0.3379299 0.048059776 -0.29343584 -0.14976741 -0.23861375 -0.18432422 -0.34516534 0.0022970312 -0.107280396 0.20025912 -0.14769523 -0.055550788 0.26372746 -0.32311857 -0.013879836 -0.23361893 0.07591555 0.016666153 -0.16586037 -0.05159075 -0.29922846 -0.0310349 0.011905128 -0.068878785 -0.2811743 -0.0833903 0.12247578 -0.07623932 -0.10614807 -0.25201976 0.034576237 -0.28156328 0.15480293 -0.3016812 0.09991805 -0.47500432 0.5412705 0.28299448 0.21901636 0.19739963 0.101294294 -0.230146 0.02668683 0.21242209 -0.05862191 0.29579872 0.15549673 -0.095994 0.05669723
365 0.3377885 -0.01957008 -0.051413648 0.29298955 0.06745538 -0.1804032 0.24648215 -0.20763126 -0.094978034 0.44206917 -0.11976641 -0.022787107 -0.15699542 0.22423907 0.28100216 0.052516572 0.295273 0.062293343 -0.01465919 -0.116742015 0.005804818 0.06374194 0.2920589 0.01787622 0.27387458 -0.19985956 0.35501522 0.52380645 0.24817657 -0.06417992 -0.48805323 0.12786946 -0.3048148 0.23945844 0.011815097 -0.1757168 -0.090081476 0.30611548 -0.0010109986 0.081471495 -0.0074741757 -0.086676866 -0.1886694 -0.52683955 -0.070705004 -0.0033452262 -0.29715544 -0.0144366445 0.37238723 0.15015692 -0.39447245 0.25598142 0.31036496 0.042459387 0.06512216 -0.39338595 0.37148273 0.025448743 0.37424418 -0.21166703 0.054637853 -0.09952139 0.33194095 -0.20179872
3431 0.050110083 -0.0056654625 -0.023569364 -0.102244884 0.114317514 -0.053725265 0.68403566 0.42305762 -0.21394686 -0.004812216 -0.21477243 0.0033942268 0.071964085 -0.25450444 -0.16243644 -0.17576082 0.35695672 -0.30209368 -0.1848786 -0.11237931 0.39931628 -0.2474258 -0.04254412 -0.029258007 -0.00976807 -0.28689167 -0.1021897 0.43645594 -0.1573598 -0.3858021 -0.23941661 -0.0010495001 -0.24863128 0.17967583 0.124523155 0.13191816 0.009824108 -0.055891346 0.28454542 -0.4148937 -0.08115145 0.16931626 0.21962513 0.005067439 -0.11812099 0.17268685 0.08597061 0.010203473 0.42026404 0.110302255 0.2865881 0.12241094 0.0318715 0.16260403 -0.009773931 -0.21082453 0.0143346 0.15672797 0.0461288 -0.056855395 -0.50062716 0.38796413 0.17565611 0.027820246
4838 0.118175186 0.18362133 -0.2690898 0.07935224 -0.42609933 0.1928782 0.073480606 -0.32891086 -0.15632705 0.23165898 0.0074203527 -0.06612873 -0.018624732 -0.043770872 -0.08638726 0.24581273 0.15043694 -0.010905326 0.048668656 0.20804158 0.21268106 0.002508886 0.4457504 0.12356204 -0.079549335 -0.30751702 -0.057022873 0.51176375 -0.10350299 0.21589914 0.0127883125 0.5550074 -0.22615007 -0.15982763 -0.17683437 -0.23791511 -0.073909245 0.3271141 0.4143384 0.045936946 0.2021431 -0.072358556 0.07832421 -0.0014054043 0.05890153 0.2360008 -0.056367196 -0.10660739 -0.23261587 -0.13728392 -0.2742612 0.31597918 0.26328987 0.20100732 -0.11363976 -0.032633003 -0.30436417 -0.04003318 -0.006451874 0.022880796 0.031122817 0.06825135 0.12117622 -0.3662593
4919 0.41337502 0.47425517 0.102661 0.08175202 0.23841174 0.160747 -0.043101765 0.007228313 0.0183537 0.037075337 -0.2488366 -0.084148504 0.31631047 -0.12068929 -0.21183938 -0.04905906 0.4279356 -0.11033226 0.3663373 0.14169715 0.23618671 -0.21371505 0.030867409 0.25563866 0.10546342 -0.3316666 0.09265408 0.18531227 0.41432065 -0.21439476 -0.1176817 0.044147458 -0.14748123 0.33423162 0.10832547 -0.142313 0.3221579 0.16542459 0.24940237 0.17038797 0.22228174 0.3200139 -0.15833229 -0.012911047 0.028740926 0.12824917 0.061736684 0.10183765 -0.235622 0.10713707 0.027757365 0.057992678 -0.045404248 -0.0704015 -0.29068387 -0.31621036 -0.17771117 0.21729162 0.19501129 0.16693625 0.38858557 0.2813929 0.2388196 0.06176458
72 -0.35265443 0.20779224 0.09944536 -0.22650516 -0.18561627 -0.19539045 0.087530695 -0.374093 0.24168228 -0.09901547 0.11020802 -0.15357539 -0.020201176 -0.041536227 0.18232235 0.4589681 0.24211587 -0.37887642 -0.17262337 -0.18520902 -0.11848634 -0.58792615 0.2490767 -0.07009807 0.068267554 -0.27969012 0.11545992 0.13327998 -0.11712546 -0.21688998 0.2263813 0.29161173 -0.15695883 -0.28565973 0.1543496 -0.24790648 -0.3381544 0.12660508 -0.0056206775 0.28200117 -0.26567778 0.31782728 0.28374717 -0.09024227 0.09689343 0.0962459 -0.22085638 0.08795301 -0.061573748 0.21590056 -0.31490996 0.40348792 -0.07289695 0.31954178 0.20146693 0.0675851 -0.13945639 -0.07632387 0.269135 0.17505446 0.043815225 0.0037632752 -0.12220284 -0.014389072
4814 -0.015295635 -0.03173459 0.16260524 -0.112650335 -0.11530442 -0.07368475 0.571959 0.04274716 -0.08977804 -0.39097545 -0.14092113 -0.08757859 0.49888968 -0.20977822 -0.23975198 -0.08764593 0.3423577 -0.4618272 -0.62027156 -0.05129382 -0.065312564 -0.2611281 -0.09570437 -0.069172695 -0.22609726 -0.2769779 0.033032376 0.24669568 -0.115015276 -0.2607539 -0.3057206 -0.0010871643 -0.1557687 0.16755904 -0.09672289 -0.13531475 0.09038952 0.0142655475 0.07293847 -0.22911598 -0.24517696 0.097012825 0.20870046 0.19146252 -0.13193679 0.070992306 -0.007467645 -0.0042595016 0.18828128 0.061892733 0.16534293 0.08185091 0.08060287 0.074625626 -0.081821635 -0.32711565 -0.08330334 0.15503988 -0.10413391 0.023304218 -0.06601647 0.209839 0.08146975 -0.10753491
3074 -0.15130824 0.0136168655 -0.0651899 -0.13296281 -0.0019182409 0.09419712 0.04177641 -0.2889767 0.07844937 -0.24420495 0.11555777 -0.121040694 -0.2172127 -0.1727189 -0.06271216 0.2347702 0.033183113 -0.15493046 -0.066479355 -0.15587017 -0.006175023 -0.35328743 0.22289021 0.10859271 0.27020895 -0.23038839 -0.13576445 0.43457705 -0.0373898 -0.14243811 -0.14312558 0.5794348 -0.34814307 -0.14433463 0.1071919 -0.20788004 -0.080465674 0.06875051 0.1667891 -0.16917595 -0.19779703 0.08516413 0.0045924955 -0.24790438 -0.18913518 -0.014824064 -0.30424058 -0.09951611 -0.16284464 0.025865775 -0.16927336 0.69148815 -0.04211418 0.27611753 -0.014923879 -0.17806882 -0.25731844 -0.049685713 0.4157596 0.12292808 0.33328965 -0.34319603 -0.110909104 0.15679853
4965 0.3405976 0.15530324 0.110995375 0.15168071 -0.04625588 -0.24703535 0.026059015 0.09650316 -0.054691773 0.028857453 -0.051573005 0.09907131 0.22155145 -0.3335928 -0.2564291 -0.2427914 0.024969367 0.12569034 -0.15586124 -0.03301682 0.19435564 -0.35343453 0.25805962 -0.0025557547 0.17456116 -0.42983803 0.1548287 0.123898536 0.26516917 -0.11847865 -0.09141908 -0.2608505 -0.20529649 0.038053174 0.28909907 -0.5615202 0.09863902 0.43303645 -0.4007266 -0.041129895 0.30311334 -0.02564581 0.14769953 -0.27085528 0.017366719 0.31119058 0.27099127 0.30489653 -0.49270847 0.027101284 0.42154494 0.121168904 0.20423874 0.33235362 -0.18624775 -0.13971621 -0.28051624 -0.24058142 0.0034257902 0.0315095 0.00828165 -0.02094122 0.067519784 -0.08198205
4696 0.06693125 0.46474186 -0.04677037 -0.04363755 -0.04642177 -0.07292523 0.21327369 0.08007648 -0.22607858 -0.28133827 -0.20324901 -0.24128108 0.20625436 -0.024837732 -0.09137402 -0.005524266 -0.044938065 -0.24058147 -0.7007937 -0.0948084 0.26224542 -0.34829023 0.19370918 0.03809751 0.108536296 -0.12571986 0.15650961 0.2406427 -0.527364 -0.34621763 -0.19802417 -0.038259767 -0.4108813 0.13150977 0.105211325 0.16225289 0.2921455 0.096756876 0.43027335 -0.37354717 -0.3621158 0.13555212 0.3487042 0.22472838 -0.0279564 -0.0008424809 0.04796194 -0.040017657 0.31559926 0.07244687 0.079403855 -0.12989362 0.2029841 -0.13221979 0.07198045 -0.34781933 -0.3187552 0.37863353 0.13701873 -0.33932564 -0.028800396 0.18409099 -0.21828811 -0.120868206
4930 0.13466182 0.45789468 -0.1603193 -0.32220164 0.43052465 -0.009830037 -0.07965505 0.2036789 -0.10111122 0.2448215 0.071271345 -0.021788185 0.28489152 -0.1912961 -0.21118589 0.24820942 0.20624508 0.056959704 -0.17263 0.12924558 0.31188542 -0.16903546 0.19904228 0.043053403 -0.112941556 -0.22879456 0.14072374 0.11368223 0.39579335 -0.18246311 -0.4036387 -0.092595235 -0.23485494 0.100644894 0.17008406 -0.3157374 0.25729978 0.57799006 -0.19808677 0.032397382 0.09143162 -0.017543238 0.2672455 -0.3439752 -0.1399061 0.119152404 0.3673139 -0.02436024 0.13462147 0.1745782 -0.15497631 0.1326303 0.42802018 -0.06119591 -0.0126733715 -0.0896692 -0.039776545 -0.17747088 0.024799721 -0.02786705 -0.16377208 -0.06978197 0.07459449 -0.19426666
4916 0.22419766 0.511985 -0.1516222 0.17398854 0.16819508 -0.062285855 0.24118073 0.09398647 -0.43189517 -0.28339994 -0.46714798 -0.1712767 0.4056565 -0.3981674 -0.2838704 0.108766004 0.32131338 -0.05365131 0.33997673 0.17718557 -0.0046619065 -0.29375902 -0.010969531 0.09590306 -0.27951923 -0.12945175 0.03322316 0.36382997 0.04597562 0.036162276 -0.1481442 0.12624109 0.21645518 0.018330265 0.267359 0.0036904016 -0.06397887 0.22678514 -0.16658174 0.27688283 -0.18362716 0.16598752 0.09169195 -0.3048665 0.022510923 0.13098729 0.09876999 -0.02419061 -0.13102493 0.22834753 -0.21695465 -0.11409727 0.20959742 0.11735833 0.04256315 -0.09840741 0.10209365 0.29899022 -0.17996477 0.10700715 0.09575374 -0.3173133 0.4181939 0.13520367
4907 0.03862734 -0.07324455 -0.044145055 0.023163972 -0.5386327 -0.29668036 0.4876057 -0.13308595 -0.023288244 0.41699213 -0.29833862 -0.4246656 0.34947115 0.26575425 0.16557716 0.120451085 -0.034566503 -0.34781906 -0.058143713 0.3358903 0.06723138 -0.26679584 -0.22840434 -0.13374737 -0.10245868 0.0950722 -0.06291229 0.9373635 -0.026289033 -0.10406035 -0.11295643 0.08457313 -0.053694002 -0.18563865 -0.0401726 -0.08870727 0.17370301 0.21570788 0.131417 -0.4616924 -0.3226357 0.39431116 -0.13655972 0.09634426 0.2549045 0.2104106 -0.097319074 0.3110152 0.081089325 0.7323685 0.16694412 -0.16658515 -0.023966212 0.006996411 -0.30054522 -0.1794182 -0.38333675 -0.11972064 -0.34877604 -0.057290252 0.6825164 -0.2581254 -0.054683268 0.15389854
2521 0.013664871 -0.31662747 0.036327846 -0.20295559 -0.03084939 -0.0714615 0.15761103 -0.43274757 0.018854728 0.06427445 -0.091079324 0.12768252 0.14897087 0.2135646 -0.0937185 0.33378476 -0.24626125 -0.17172112 0.13183989 -0.2372402 0.06743232 -0.2187613 0.38778707 -0.062275615 0.36783755 -0.30712095 0.20636418 0.27241507 0.055205595 -0.028704204 -0.053073235 0.44082972 -0.06936185 0.29973668 0.31359732 -0.115022086 -0.42970058 0.22175007 -0.12965608 0.09176133 -0.47089985 0.07036124 0.6094924 -0.28149822 -0.026755635 -0.356273 -0.22216897 -0.25616074 -0.37708226 0.36514214 0.05061427 0.34088257 0.005705197 -0.090549625 -0.13839822 -0.09670947 -0.53283936 0.40797347 0.31707656 0.19853933 0.038121354 -0.06061078 -0.18816824 -0.09901932
4896 0.2851847 0.06414711 -0.20158416 0.37299803 -0.4909839 0.15353557 0.17538705 -0.19656202 0.49856076 -0.23265727 0.13084492 0.24966988 0.47074854 0.1497447 0.19150339 -0.0120933205 0.36006698 -0.29986098 0.09016419 -0.16098824 -0.012583055 -0.17799416 0.5026667 -0.20532282 0.016501326 -0.08154477 -0.18657392 0.36191577 0.032176238 0.23870984 -0.5402671 -0.13826056 -0.18018466 -0.34493324 -0.2965966 -0.055911727 0.07672498 -0.06645533 -0.072351485 -0.18747236 0.3455654 0.09273191 0.25434148 0.06102033 -0.28833508 0.14861651 0.11480454 -0.63420963 -0.06628098 0.3182278 -0.43890944 0.18889861 0.18867682 -0.07679836 -0.45959646 -0.68522996 -0.1521951 -0.095683254 0.11904505 0.44858155 -0.1673238 0.474443 -0.019416828 0.21789029
4777 -0.18561769 0.19505721 0.27351716 0.30987263 -0.2848906 -0.25394803 0.06797675 0.21015021 0.06928209 -0.03712366 -0.124946974 -0.13009582 0.20028938 0.2969967 -0.22174622 0.08058384 0.32343373 0.22789907 0.16076817 -0.0046941163 0.28266463 -0.065432005 0.12608694 0.12671317 0.049563732 -0.20856974 0.049409132 0.5117808 0.07364154 -0.12088133 -0.29279852 -0.2708621 -0.21316035 -0.084536865 0.3412631 -0.22126007 -0.25416902 0.4051159 -0.16038513 0.49880603 0.57679665 0.32883695 0.7152707 0.15235098 -0.5381134 -0.17661849 -0.17588884 0.006913752 0.39957094 0.24086899 0.34187627 0.16401641 0.18809403 -0.069495626 0.26446334 -0.33269778 0.3399996 -0.025024412 0.55315214 -0.36288866 -0.011070122 0.14932713 0.4267047 0.27900144
4600 0.13361347 0.28343487 0.007344939 0.022241905 -0.09909943 -0.5517734 0.35454196 -0.2120141 -0.15613656 -0.1422803 -0.46651557 -0.15497515 -0.12175361 -0.2663787 0.0029050712 0.062325917 0.013908891 0.13824801 -0.06292193 0.07312061 0.0643549 -0.16328995 0.31576782 0.31084144 -0.06423815 -0.52596104 0.1628567 0.034547087 0.4414677 -0.19546206 -0.26924738 -0.051116273 -0.17396483 0.2419381 0.20621303 -0.37041184 0.1814161 0.08365226 -0.39192367 -0.05220137 -0.050345484 0.22802643 0.23542769 -0.057456516 -0.07080229 0.43002883 0.52343047 -0.00037397427 -0.38835406 -0.14731252 0.037105173 -0.13453326 0.16521272 0.065391876 0.041920274 0.020364843 -0.1338529 -0.2647213 -0.029853884 -0.26140592 -0.057098605 0.37402183 0.19512178 0.0747317
4925 0.05690082 0.24139686 -0.3485851 -0.227515 -0.5232607 -0.3139504 0.35662916 -0.24643567 0.22635466 0.052440505 -0.08218101 0.01595004 0.15934883 0.012338461 0.5693953 -0.0117871305 0.4463494 0.088424906 0.11730459 0.10371324 0.12875459 -0.2217822 0.17101133 -0.18309009 -0.0206233 -0.15772481 0.16113086 0.05138069 0.06060127 0.19060993 -0.14794731 0.47013193 -0.20982471 -0.096788995 0.111154824 0.053723846 0.14580162 0.15811373 0.13533847 -0.03727672 0.21917237 0.12196063 0.31183723 0.40421167 -0.08596021 0.15904023 -0.32718515 -0.034159873 -0.1740177 -0.06749133 -0.01964846 0.29867968 0.49097311 0.14368461 0.08246785 -0.121019125 -0.076418616 -0.011540683 0.3907189 0.372738 0.18079665 -0.25730342 0.3075229 -0.2622547
4086 -0.021813016 0.046144973 0.3559895 0.14958294 -0.11820944 -0.3074085 -0.059659377 0.052904308 -0.15353896 0.5378545 0.31680426 0.08598818 0.3566631 0.023613479 0.24975511 0.20523909 0.17551845 0.19329695 -0.26726183 -0.10752811 0.05371873 -0.34513512 -0.14596677 0.13966486 -0.22013979 -0.4815222 0.2554254 0.9276732 -0.06861756 0.14046177 -0.43684772 0.41779912 -0.043884788 0.32822162 -0.23165363 -0.1722331 0.033198763 0.09402599 -0.28449208 0.19842386 0.11513192 0.08801445 -0.1879906 -0.14160971 -0.036639884 0.023334917 -0.052191492 -0.2823303 -0.14944458 -0.321451 0.018037979 0.37289345 -0.12949723 -0.020913653 0.032863133 0.023708537 -0.31879288 -0.0854441 0.1826076 -0.20678358 0.15819627 0.19693881 0.05391392 0.08692217
4966 -0.034701876 0.24715628 -0.034151737 -0.035914164 -0.073075995 -0.106827356 0.3124549 0.031529047 -0.09049506 0.008246849 -0.5030338 -0.12724374 0.07434384 -0.22579484 -0.45345193 -0.13839291 0.15503342 -0.033425044 0.11571893 0.05591595 0.27347407 -0.11589091 -0.25765035 0.1056636 0.02414128 -0.30623883 0.20827985 0.42423642 0.08407767 -0.021152604 -0.1379882 -0.21982156 -0.67017925 -0.2321015 -0.1369411 -0.18653448 0.039162304 0.106573716 -0.22952938 -0.06788461 0.23125666 0.11870495 0.21567608 -0.32855266 0.20828152 0.026608545 0.24478154 0.3926976 -0.05667141 -0.0060823807 -0.30534998 -0.3541575 0.11455087 -0.0774829 -0.21325742 -0.4384952 -0.17924361 0.16392726 0.02700754 0.15517804 0.027270079 0.032139137 0.05692008 -0.031235427
4824 0.21941859 0.78605866 0.25365624 -0.30510348 0.13996777 0.110595256 -0.18325618 0.18404554 0.14022826 0.008006033 0.03236498 0.01753985 -0.07943023 -0.12027778 0.04663251 0.24972597 0.097321175 -0.07922371 0.042876262 0.2886251 0.4362068 -0.09720745 -0.17990455 -0.26505566 -0.17459357 -0.3559567 0.23574382 -0.055740528 0.1586214 0.15172748 -0.74294215 -0.28730616 -0.26742762 0.34963408 0.11302154 -0.33053347 -0.08902836 0.24888858 -0.31836617 -0.32979262 0.13882013 0.30538252 0.2672882 0.144727 0.1462019 0.077699214 0.19553019 -0.25489354 0.28832832 -0.090796955 0.07189389 0.091382205 0.24974456 0.2564779 -0.13426386 -0.4320026 0.17078999 0.35441425 -0.1202764 0.02265564 0.24414927 -0.10082859 0.2000756 0.19410193
4664 0.14593314 0.09949437 -0.04766256 0.3088651 0.031837203 -0.07798477 0.3718862 -0.45347372 -0.013965594 -0.14625153 0.5492305 -0.28065887 -0.39259747 -0.25267306 -0.18665001 -0.042039547 0.654883 -0.36378086 0.03749111 0.44889402 0.24591719 -0.23393548 -0.012434261 -0.009560727 0.06610189 0.42139933 -0.08647328 0.074352026 -0.51602536 0.13058767 0.03694446 0.12045658 -0.17608054 0.25356707 0.17751367 -0.12509432 -0.22461061 -0.26827195 -0.14565122 -0.44367436 -0.5075464 0.7770451 0.12097876 -0.25938702 0.096761115 0.3935205 0.29656705 0.12437719 -0.17758504 0.08913594 -0.29688188 0.31002533 0.1274098 -0.07388989 0.26496387 -0.0054490296 -0.33087522 0.20133215 0.012441599 0.24264063 0.046782494 0.17846763 0.3784779 -0.36076552
4929 -0.027668273 -0.034493804 -0.2989964 -0.16571778 -0.24070069 -0.2185239 0.23878923 -0.4850538 0.20256208 -0.09143943 0.25697362 -0.28125322 0.21945828 -0.2564569 0.4242802 0.38893682 0.41313407 0.02310705 0.24584465 -0.32661062 0.3979143 -0.09740293 0.20098673 0.030848317 -0.032833535 0.054154914 -0.25099796 0.4482492 -0.056060754 0.21951659 -0.076747596 0.03894725 -0.17622952 -0.19662939 0.022025272 -0.55524606 0.06938592 0.26855123 -0.1938795 -0.13759933 -0.14761639 0.4190816 -0.1978214 0.41455173 0.043118574 0.15596962 -0.06533335 0.45948797 -0.083311215 -0.11264043 -0.35590518 0.48456046 0.23350148 -0.14222549 0.38850567 0.17016084 -0.057299595 0.1998867 0.39665097 0.25620204 -0.0396161 -0.02464637 -0.20966786 -0.0737909
4884 0.35937643 0.12676406 -0.13000844 -0.02142948 0.15775298 0.43045044 -0.16424614 -0.28633904 0.066459924 0.30445024 -0.26443776 0.016471967 0.38680682 -0.52936864 -0.32823554 0.17911541 0.3461307 -0.25268346 0.09340386 -0.04144001 0.16898052 -0.12695475 -0.024021083 -0.23471461 -0.14012107 -0.38215846 0.09382201 0.30456394 0.14304 -0.13168 -0.3061615 -0.096363984 -0.027628407 -0.00518846 0.14925028 -0.10161561 0.27342018 0.07067257 -0.26837397 0.17187242 0.34489024 0.04038424 0.20513465 -0.36030126 0.1953303 0.589299 0.09523869 0.31167918 -0.05864191 0.0763724 -0.18595393 -0.15653855 0.13096882 -0.14569658 0.0037453163 -0.22022401 -0.28000414 0.443682 -0.28991443 0.14092359 0.0749832 -0.029549018 0.30606624 -0.25128955
66 -0.11442221 0.20025913 -0.2985859 -0.33760038 -0.19148049 -0.28258112 0.15451081 -0.34068975 0.34548655 -0.09574006 -0.29642537 0.06776975 0.239101 0.011538887 0.46580827 0.037338924 0.2800407 -0.10559272 -0.26675653 -0.3016408 0.09732573 -0.4116975 0.2456192 -0.14751694 0.18286872 -0.024316749 0.0689776 0.21462537 0.22726329 -0.06988797 0.01397806 0.13016278 0.01619666 -0.05423873 0.14870104 -0.43826914 0.15196364 0.18253513 -0.1745955 -0.5903924 0.089061774 0.24901396 0.25567737 0.055538647 -0.11370767 0.108172216 -0.19942331 0.37086666 -0.3041871 0.28347588 -0.26158437 0.6474736 -0.13588291 0.04186478 0.06570469 0.24386536 0.15726417 0.21591221 0.33236745 -0.08982397 0.027973255 -0.056689173 0.2974194 -0.10864604
4969 0.38482532 0.07455822 -0.25299394 -0.3400925 -0.7085953 -0.07207368 0.07662679 0.174477 -0.38901788 0.2171036 0.04664054 0.12510513 0.38324416 0.07280443 -0.041126713 0.30714312 0.032208964 0.068140544 -0.51490146 0.16470249 0.2368003 -0.10740343 0.19498028 0.14957142 0.57770455 -0.30752167 0.26707628 0.37180638 -0.22573443 -0.12125594 0.1673958 -0.25236258 0.45844182 -0.07208103 -0.11848443 -0.2625454 0.1033887 0.21945356 -0.007929604 -0.055903774 0.3404622 0.9871804 0.3898555 -0.092868544 -0.060048983 -0.25651306 0.5436716 -0.31228253 -0.026255948 0.06117458 0.057062585 -0.4064108 0.31774458 -0.13609366 -0.23644917 -0.04233883 0.258884 0.34203875 0.25135744 -0.039138336 -0.26516956 -0.18301578 0.37847307 0.01800183
4552 0.24267852 0.16900858 0.18968606 -0.23730458 0.20137839 -0.23868023 -0.01888469 -0.26090804 0.10312021 -0.040509693 -0.23643966 0.01483082 0.59265584 -0.27587056 -0.45205933 -0.007359271 0.12974967 -0.031065518 0.16135477 -0.039784435 0.40475202 -0.04148403 0.04221611 -0.02684199 0.09179107 -0.34037507 -0.23415288 0.19364114 -0.031781238 -0.27753794 -0.2595702 -0.21636027 -0.36208618 -0.19549613 0.21884267 -0.15987024 0.038358737 0.06532661 -0.18385997 0.11056636 0.0068647647 0.18922783 0.04000644 -0.19572844 0.096390136 -0.041908957 0.21663655 0.16097929 0.009871134 -0.0025137342 0.2254644 -0.0037978578 0.3060844 0.16408154 0.02232755 -0.30446523 -0.13332483 0.04878776 -0.0825648 -0.0052697747 0.33954838 0.2069125 0.028997054 -0.24017309
740 0.30049884 0.119791724 0.24768856 -0.0113691045 0.009489696 0.18683763 0.4699419 -0.25319064 0.41213548 -0.25028878 0.10348117 0.2048238 0.10150748 -0.13471454 0.0847045 0.1253312 -0.34935006 -0.47128195 0.010768626 0.16800289 0.48995617 -0.31741694 0.1433081 -0.17776383 0.3706793 -0.35593316 0.6049417 0.28226316 -0.14699201 -0.16500224 0.26592112 0.43732694 -0.06690173 0.6398067 0.10214199 -0.26143613 -0.6208185 -0.14477292 0.19858868 0.38457847 -0.035392206 0.04247206 0.52485967 -0.56976455 0.25443524 0.08060281 -0.069501296 0.26693827 -0.027708473 0.12887084 -0.28269604 0.3805354 -0.11316697 0.07175406 -0.25807625 -0.13798212 0.09614096 0.05420539 0.37344766 0.23281513 0.07839244 -0.055035215 -0.26490098 -1.3229447e-05
4926 -0.19782676 -0.17527063 -0.12528113 0.22038454 -0.44419542 -0.5242582 0.20713039 0.25525412 -0.11659782 -0.003923843 0.2420286 0.23967391 0.063652106 -0.31133786 0.34222147 0.16261655 0.091934055 -0.53360337 0.32553762 0.23365359 -0.32765046 0.06819492 0.089036964 0.2737773 -0.0374097 -0.36237413 0.1354513 0.38438332 -0.05936398 -0.29147312 -0.2380899 0.22270131 -0.063762724 0.030891975 -0.31269386 -0.40642285 -0.7382142 0.23065749 0.04395742 0.043128703 0.012076486 0.47501346 0.33370528 0.19767745 -0.1408614 -0.15004817 0.19248073 0.023060031 0.13653958 -0.40980938 0.16646348 0.023639096 0.49688068 -0.15399843 -0.08248276 -0.29971775 0.12665378 0.22337061 0.20161621 -0.064235166 0.09066183 -0.10812099 0.73424125 -0.2592994
1553 -0.02807793 0.25257108 -0.0018707439 0.078161284 -0.30762595 -0.12646355 0.07341919 -0.0836039 -0.3193225 -0.17163809 -0.602601 0.35140482 -0.028876292 0.108474694 -0.19734481 -0.01860803 0.045679763 -0.4782343 0.15631786 0.39568475 0.5292601 -0.5889308 -0.22130208 0.33387837 0.6281102 -0.22561839 -0.2974785 0.06418025 -0.10144694 0.01322091 -0.30737096 -0.27024335 -0.122980654 0.07974286 -0.47006038 -0.10117957 -0.08341799 0.43340802 -0.18839414 0.11405911 -0.19050252 0.502225 -0.013077139 0.05000595 0.6830422 0.29639694 -0.34784213 0.568538 0.26455292 0.07711536 -0.16954331 0.3614202 -0.178942 -0.33212355 0.10959531 0.076096706 -0.38250262 0.0979943 -0.0014300147 -0.26488492 -0.34239924 0.32862335 -0.10239266 0.2371275
4889 0.17594294 0.15549168 -0.17913672 -0.23140031 0.16710143 0.021103738 -0.026604146 0.29507852 0.28592274 0.15092722 -0.61172754 -0.2019465 0.39386907 -0.13359128 -0.40067145 0.64393586 0.6177745 -0.007843735 0.13412897 0.20677352 0.13229494 -0.37741894 0.073782876 0.08365228 0.29844832 -0.43716612 -0.2866883 0.15546168 0.07657046 -0.2327254 -0.043120723 -0.1284628 -0.3072745 -0.23059873 0.065383874 -0.049904194 0.027306467 -0.18242292 -0.117411524 -0.13397925 0.068165176 0.44833687 0.060742613 -0.2701872 0.0068560936 0.14087753 0.10069141 0.16045888 0.028178152 -0.36210635 -0.031595953 -0.21116675 0.22973362 -0.07140644 -0.30062485 -0.21806951 -0.22067451 -0.0019859811 -0.06083054 -0.052598696 0.13970743 -0.012705467 -0.10637507 -0.22780184
3483 -0.18506643 0.5433514 -0.16514325 -0.03280897 0.12112274 -0.21010168 0.1792983 0.03195472 0.20391855 0.08947918 -0.02193874 -0.009276811 0.370774 -0.29871404 -0.042924684 0.3262823 -0.048931394 0.11223005 0.069774605 0.27495268 -0.06674171 -0.0066282996 0.12334179 0.15098928 -0.0024821744 -0.13554642 -0.0856661 0.37722474 -0.13105884 -0.29329464 -0.6344269 -0.097105496 -0.15618709 0.008126425 0.7095453 -0.29799294 0.07513682 0.039104346 -0.16188458 0.07107521 0.5447557 0.34664991 -0.048007943 -0.2491245 -0.020857802 0.17996942 0.27632877 0.28200346 -0.08442487 0.13399379 0.21311705 0.05732993 0.2768053 -0.067549475 0.12754741 -0.091617316 -0.2590705 0.19425082 -0.44335347 0.27597752 -0.16155386 0.037121892 0.12812026 0.08623175
4890 0.05424356 0.38209358 -0.10517969 -0.27907348 0.26672855 -0.038385227 0.14112599 0.0071760872 -0.070517145 0.11018846 -0.4754186 -0.09733769 0.37598896 -0.33529827 -0.22999565 0.32902545 0.26040947 -0.009946314 0.33665842 0.21131623 0.1416999 -0.23224854 0.010105308 -0.025085287 0.035783075 -0.32949635 -0.11742682 0.18823315 -0.012732532 -0.32947844 -0.15730345 0.061349362 -0.3519901 -0.22122921 -0.006946777 -0.17136429 -0.056066655 0.05036668 -0.27526903 -0.036214635 -0.030704595 0.11344989 0.08466901 0.072006986 -0.015898483 0.16284725 0.40144366 0.12184217 -0.2003092 -0.32536042 -0.0069376016 -0.17909808 0.23872 -0.10458919 -0.21135761 -0.30716684 -0.4467546 0.0424659 -0.25383988 0.12015187 0.028146075 0.07883567 0.020495359 -0.45697385
4956 0.065118045 0.25981385 0.0908298 -0.06083791 0.21684635 -0.2067869 -0.2586284 -0.078496695 0.44694877 -0.2170152 -0.74281204 -0.26418132 -0.03820111 -0.13047224 -0.049582884 0.44373432 0.211642 -0.25940093 0.40605047 -0.14022586 0.03991182 -0.24541965 -0.020723017 -0.26415077 0.34891933 -0.024320759 -0.09472283 0.518461 0.116859205 -0.14250949 -0.41452923 -0.091385186 0.060722735 0.032051552 -0.41902983 -0.12322167 0.49667513 0.4779169 -0.035186075 0.0064224224 0.15303719 -0.24482685 0.29486063 -0.12701271 -0.34624976 -0.096686535 0.82104313 0.061315324 -0.063103504 -0.011211216 0.54721177 -0.006589459 0.25591785 0.39768192 0.020930989 0.13084413 -0.36198142 0.53469616 0.15157215 -0.07888869 -0.1761933 -0.0793476 0.39664063 -0.26543504
3952 0.13715889 0.57003826 0.90398353 0.67033815 0.03156243 0.4536422 0.42044452 -0.34277913 -0.10678192 0.32301864 -0.19254301 -0.21367529 -0.13667528 -0.10717449 0.08939981 -0.1545053 0.30813035 0.1619988 0.22810152 0.11574375 0.20750454 -0.32837415 0.5596442 -0.45461223 0.010993088 -0.19203655 0.5540885 0.67232525 0.1668002 -0.15339361 0.12928343 -0.17803061 0.28214765 0.35917044 -0.046071332 0.12149488 0.0854122 0.6351757 0.08367712 0.07102872 0.34482118 0.6687474 -0.031278018 0.024495725 0.039011303 -0.13798988 -0.091189094 -0.02836931 0.41055402 -0.14403029 -0.16699342 0.249363 0.3450607 -0.26401937 -0.5724823 -0.051853888 0.18933007 -0.7710797 0.12739535 -0.20565516 0.10955341 0.27381957 0.18978935 -0.04562513
4946 -0.22231875 0.3294184 -0.199892 -0.044035435 -0.20551416 -0.41778153 0.20685127 -0.36269626 0.114355445 0.32143098 0.33014914 -0.19484891 0.32565993 -0.08645021 0.14687027 0.1648169 0.23941334 0.25473982 0.060973573 -0.15880668 0.39100468 -0.3297075 0.20794503 0.020633183 -0.22236656 -0.33574376 -0.07326309 0.06325196 0.13087055 -0.07567258 -0.13203324 0.237696 -0.17592086 -0.21473745 -0.45711094 -0.3128243 -0.20749371 0.0018512516 -0.4072803 0.11737124 -0.16907544 0.5672152 -0.026155178 0.11617902 0.10883167 0.09844869 -0.37094116 0.06396317 -0.29923755 -0.23096137 -0.14599574 0.25022796 0.3825552 0.031933505 0.3919483 0.03936493 -0.343592 0.2190632 0.20366618 0.35540754 0.04947155 -0.18547654 -0.2483403 0.182269
4967 0.31644064 0.22544083 0.0323997 -0.41381732 -0.6579749 0.34790373 0.027593045 0.16806953 0.36874628 -0.070452 0.13312447 -0.055965193 -0.16954362 -0.30000892 0.088463105 0.4836732 0.24461807 0.22372323 0.13411348 0.55777955 0.24378376 -0.099154495 0.2899974 -0.08658698 -0.52087307 -0.097630545 -0.18821521 0.35278818 0.10089303 0.29281065 -0.5126756 -0.5877614 -0.39660382 0.0952752 0.45224482 -0.39058852 -0.017305119 0.46204236 0.11375082 -0.011482851 -0.18030554 0.15455128 -0.06824822 -0.54463047 0.008785033 -0.016039345 0.26922786 -0.019175246 0.21018693 -0.051531084 0.15552707 -0.066048525 -0.0021165877 -0.016492229 -0.09829774 0.043042738 -0.07173233 0.55182815 -0.10582467 -0.17160484 0.19018364 0.20698823 -0.038747575 -0.1503537
4885 -0.28553787 0.3728323 0.2147931 -0.1338206 0.17260171 -0.24868658 0.017835671 -0.31204966 -0.033998027 -0.25599706 -0.57624835 0.2613158 -0.18699472 -0.0961999 -0.037957314 0.20700583 0.53851604 0.22053607 -0.19844373 0.07241158 0.0239382 0.16938026 -0.27428198 -0.21628304 -0.2716442 -0.122915424 -0.11910635 0.18750839 -0.41835737 0.06780763 -0.18136543 -0.039440714 -0.23490784 -0.22858377 -0.038100228 -0.25576985 0.5782262 0.5356743 0.079563305 0.33517423 -0.045334693 0.33171117 0.15066074 -0.30845356 0.13354373 0.1265752 0.45319876 -0.25709653 -0.49902463 0.31155434 0.0029887268 0.09185379 1.0134336 -0.108383976 -0.45264363 0.11125041 0.15779129 0.21996649 0.14430834 -0.2688278 -0.024579424 0.20366575 -0.17751622 0.09284549
4893 0.0062926 0.5037696 -0.022594472 -0.15648547 -0.6737693 0.051636893 0.0049656476 -0.30460164 -0.08474569 -0.07037051 -0.10966691 0.22671491 0.5618942 -0.31205603 0.7407589 0.0054619703 0.58971316 0.012935051 0.21662217 -0.26919422 0.14423865 -0.28543982 0.3076262 0.16749747 0.035656106 -0.19441015 0.20250821 0.13796331 -0.11054701 0.2907397 -0.22144288 0.15659617 -0.10014939 -0.037578546 0.30831873 -0.40127954 -0.24243714 0.57199395 0.055074107 -0.07868822 -0.32768914 0.081346266 0.25339013 0.273556 -0.06669308 -0.046249855 -0.37626892 0.30866382 -0.17745224 -0.062895365 0.080214374 0.21239871 -0.1397927 -0.18148193 -0.17476225 0.36580914 0.3523599 -0.26703954 0.61388427 0.14482088 0.33178782 0.07560158 0.20273662 -0.41425186
4894 0.064853035 -0.28408042 0.02442759 0.050258573 -0.22467974 0.28911138 0.3267558 0.3981408 -0.24893264 -0.16439402 -0.27269387 -0.29391524 0.49688494 -0.3867993 -0.080612116 0.0033730196 0.338126 -0.3687629 -0.04040358 -0.2877166 0.7463208 -0.082161464 -0.06886984 -0.16297545 -0.29817262 -0.31324014 -0.3575749 0.082462884 -0.3822193 -0.54595405 -0.3382008 -0.14291163 -0.40570655 0.24649222 0.13272096 0.35950345 0.05875468 0.15064023 0.019296948 -0.21916687 -0.21445242 0.4147342 0.49416563 -0.18165174 -0.25742316 0.3223323 0.13274413 -0.11516146 0.36015117 0.17151654 0.3152855 -0.1108947 0.30097866 -0.46638682 0.17991549 -0.10241077 -0.14969817 0.33077773 -0.021448955 0.036946394 -0.38655788 0.39840874 0.16084403 0.13677248
4945 -0.11962463 0.38208014 -0.27168316 -0.08516805 0.14989285 0.03016618 0.18770497 0.08932645 -0.28299502 0.10267839 -0.4852263 0.22842768 0.24040155 -0.4012599 -0.19052322 -0.11840257 0.47314242 0.009665306 0.034388896 0.18702401 -0.26461986 -0.4590302 -0.030445494 0.35578042 0.17889209 -0.33693162 0.031967517 0.04988535 0.2461305 -0.115790926 -0.52979213 -0.18229873 -0.36656412 -0.053954918 0.06398467 -0.10075433 0.06954615 -0.20787628 -0.29803902 0.05398806 -0.04668473 0.18970174 0.19870782 -0.3181881 -0.114574075 0.085891016 0.0337902 0.431898 -0.2491036 -0.25652626 -0.046603743 -0.30321497 0.14218779 -0.09578461 -0.18005547 -0.05556742 -0.47506097 -0.02819421 -0.013584856 -0.049451564 0.30268013 0.21993802 0.06489934 -0.013678134
745 -0.008711104 -0.028578063 0.12833062 0.14753479 0.2790038 -0.37129134 0.17617494 0.2771447 -0.111157484 0.34630558 -0.19709934 -0.01711289 -0.101486735 -0.25466144 0.16554452 0.095469415 -0.037109274 0.09186566 0.7348708 0.11242606 0.50466764 -0.27322197 0.20079306 -0.22892603 0.029633667 -0.28418502 0.6046926 0.7414552 0.35493022 0.5003697 -0.24847822 -0.07995259 0.07466923 0.28068632 0.4931968 0.21500732 -0.2789467 0.41060385 0.45448935 -0.18457349 -0.652866 0.34313238 0.32694727 -0.2770552 -0.07463059 -0.5280905 0.032806095 -0.086844705 0.25985074 0.4168711 -0.13884813 0.41232067 0.033917785 -0.09947737 0.15170088 -0.05246305 0.06354799 -0.18824556 0.80072695 0.41477054 0.023146339 0.53272194 -0.121847056 -0.09785648
4030 0.08871852 0.31234357 0.015683811 0.64551765 -0.25781593 -0.31110358 0.13780518 -0.06305291 0.14448796 -0.23217495 0.099145755 0.123994835 0.3011631 -0.42697278 0.034384523 0.058757834 0.5973788 0.13496543 -0.2369457 0.08087768 0.36284888 -0.064692736 0.69908994 -0.12494566 0.2857766 -0.27657422 0.17701828 0.35925475 -0.030073613 0.15989955 -0.30473587 0.41124386 0.3631783 -0.16528377 -0.17759033 -0.0862669 0.14384192 -0.20740041 0.0954781 -0.001937477 0.31331122 0.04229633 0.23923644 -0.0020055259 0.52225506 0.15092847 -0.031549267 -0.033090226 0.13222164 -0.17059302 -0.25642982 0.16294725 0.47838047 -0.17213087 0.4093456 0.029424958 -0.46525416 0.5579479 -0.18319836 -0.49387357 0.3568309 -0.49918526 -0.36150563 -0.0681431
4529 0.26877818 0.19335574 -0.059140746 -0.31579345 0.040814947 0.09051572 0.37220562 0.01823083 0.09883604 0.0008880533 -0.5376583 0.08358191 0.58576596 -0.0503082 0.06804375 -0.21847826 0.5266084 0.01864886 -0.053058155 0.21689993 -0.08328385 -0.023084324 -0.21827419 0.28838992 0.37640294 -0.11031219 -0.30398738 0.18407701 0.14284477 -0.29440826 -0.09842754 0.14748192 -0.32011047 -0.050372075 0.07918265 0.19452265 -0.07400597 -0.18071967 -0.4276423 0.015408314 0.022813246 0.4209022 0.3667528 -0.07877046 -0.10979775 0.3492119 0.83885986 0.20506665 -0.112019405 0.14220166 0.28758544 -0.16405764 0.40222108 0.17229608 0.07704784 -0.30313832 -0.20289645 -0.0028411224 -0.17238575 -0.08592214 0.08504312 0.19693436 -0.12117917 -0.11736483
1005 0.23624498 0.7498349 0.17402823 0.026718332 0.016368285 -0.40082416 0.14097874 -0.21526502 -0.14466773 -0.05966045 -0.4154686 -0.0016103105 0.10898036 -0.07756459 0.11034201 -0.3402824 0.016301122 -0.011585119 -0.02808389 0.18939403 -0.10468449 -0.023648778 0.36350167 0.43712655 0.21754785 -0.41183263 0.057935208 0.004940403 0.32783887 0.080905624 -0.5385894 -0.280154 -0.081884004 0.09545651 0.23878455 -0.010429087 -0.10344579 -0.23213811 -0.116617925 0.022184001 -0.09976558 -0.060883917 0.44174698 -0.06284595 -0.11716097 0.26146612 0.24615787 0.059407726 -0.22248152 -0.1628091 -0.5185319 0.28646114 0.21112734 0.038973924 -0.062043793 0.14955619 0.06427182 0.2903282 -0.0044850726 0.30528027 0.16565458 0.34546915 0.457828 -0.057332452
4601 -0.027953414 0.03825135 -0.09003337 -0.025145039 0.12093248 0.2785742 -0.029304087 0.103234835 0.016090807 -0.23261216 -0.6562508 0.06998972 0.37661266 0.19890992 0.07512262 0.20018487 0.38754776 -0.13642304 -0.2704741 0.24313359 0.1417342 -0.3837469 0.10469261 -0.03300698 0.18909967 -0.58253103 -0.09297762 0.2022989 0.12878036 -0.19677211 -0.45358184 -0.21970448 -0.09778924 0.41286024 -0.24126908 -0.6223993 -0.023867883 0.0021535303 -0.27106977 0.3206617 -0.14907014 -0.013842819 0.03556553 -0.5888848 0.0072400337 0.0024965697 0.5373691 -0.054521535 -0.021660656 -0.1243657 0.12150039 0.085203774 0.2084458 0.26394385 0.19129004 0.10059824 0.026233464 0.028241556 -0.049853206 0.3877801 -0.067819186 0.089892074 0.22603855 -0.1423794
4931 -0.2044507 -0.35756364 0.32929596 0.29313356 -0.3006067 -0.56600785 0.034223102 -0.34531006 -0.69527656 -0.13061193 -0.24889927 -0.08468798 0.2530704 -0.05461319 -0.0730297 0.20276935 0.4876521 -0.10368239 0.10932755 0.1028704 0.22149304 0.061590873 -0.043920226 0.091031104 -0.07216488 -0.5310145 0.4926813 0.22897093 -0.12241865 0.26977012 -0.43827778 -0.13859002 -0.1175992 0.044652052 -0.13947903 -0.13117309 0.0537832 -0.2588603 0.08937836 0.13350911 0.27677596 0.039105 0.46116868 0.051917534 0.13062741 -0.04906238 0.12982517 -0.048916377 0.16631979 0.09395274 0.09790362 0.7122047 0.43050307 -0.32473856 0.01622524 -0.2160826 0.20766562 -0.18423954 0.30989835 0.4730596 0.11722268 -0.0066193608 0.3458437 -0.28870645
4602 0.4293292 -0.05468404 0.123097494 -0.21756217 0.21529013 0.114269465 -0.027474467 0.33978775 -0.022061538 -0.08325415 -0.38425273 0.043168806 0.22392866 -0.17217776 0.1470951 -0.1294573 0.653284 0.03423965 0.14255646 -0.07051096 0.11304419 -0.1560675 -0.024727661 0.121655166 0.14979011 -0.08177473 0.18311651 0.23252422 0.012546369 -0.598835 -0.46083525 0.17335151 -0.35165998 -0.27097523 0.063519835 0.27245364 0.3236585 -0.17508586 -0.1303353 -0.26034892 -0.18962084 0.6285882 0.081450246 -0.43932337 0.40978852 -0.11561534 0.55705106 0.30318275 -0.2831749 0.1556822 0.32557368 -0.35932305 0.32790196 0.020308394 0.00549606 -0.11007742 -0.21693568 0.194988 0.13850753 0.033383798 -0.026519855 0.42324415 0.31914186 -0.2826501
4938 0.013354403 -0.10792436 0.009181036 0.021559423 -0.09141462 0.2728032 0.37903202 -0.022058249 0.40264452 0.022389947 -0.06965146 0.14577848 -0.03668228 0.21342984 -0.1332498 -0.10600258 0.19906756 -0.2513693 -0.2472748 0.50066465 0.43160626 -0.4654163 0.04217543 -0.31957558 0.045400914 -0.09085331 0.1635895 0.14968295 0.16394487 -0.11210058 -0.8040399 0.9162666 -0.25047442 0.045606595 -0.16816631 -0.12198076 -0.13835083 0.25873467 0.27642065 -0.2919894 -0.017192045 0.0943157 0.19785145 0.38168794 0.41248167 -0.022832042 -0.19807036 -0.54468143 -0.68249506 -0.21067591 -0.10885877 0.48595572 0.30985 0.029058084 0.5266634 0.36449656 -0.13077572 -0.22485924 -0.2982744 -0.44660863 0.36923245 -0.12392302 0.39326313 -0.15940805
4922 0.08887778 -0.013390224 -0.019328376 -0.1771972 0.2965015 0.08336323 0.1526014 0.25860572 -0.15608977 -0.34706572 0.3032704 -0.024334576 0.060663007 0.20824766 0.09327023 0.25257197 0.075708315 0.42187172 0.17839429 0.069767326 0.29201746 -0.2587912 0.04222245 0.27271655 -0.30464077 -0.13303158 -0.105092555 0.2030917 0.22362658 -0.12740108 -0.3681395 -0.5464441 -0.138406 0.20944832 0.03620923 -0.92684907 0.62122726 0.7914987 -0.34059578 0.1402613 0.13908459 0.16032137 0.3426353 -0.3499647 -0.372219 0.0022970361 0.042785812 0.011395195 0.21421334 0.2181212 -0.04872796 0.27515748 0.5334567 -0.4479086 -0.36035943 -0.13064317 -0.1525854 0.16206215 0.27772313 0.13506398 0.4748512 0.11140331 0.38969654 0.012019961
4950 0.18310538 0.28564608 0.26610136 -0.1326062 0.14967124 -0.0015076132 -0.3825452 -0.15333739 -0.2566665 0.68757504 0.17636342 -0.22820824 0.012121907 -0.5638857 0.53452843 0.22902946 0.016166754 0.28072098 -0.05346433 0.386475 0.25063318 -0.56454766 0.21123227 -0.34444886 0.16656916 -0.06914997 -0.12887558 0.19180231 0.043060653 -0.1517055 -0.36032474 -0.18651274 0.3331819 0.08196972 0.2742512 -0.0436918 0.19280964 -0.010439812 -0.031090535 0.27008888 -0.115650244 0.3401796 0.6099304 -0.2415645 0.3452887 0.5937077 0.017223472 0.08394448 0.41656744 0.2667117 0.20218997 0.31387362 0.47250855 0.50860524 -0.6974203 0.31544584 -0.06845482 0.17409536 -0.27726483 -0.22042583 -0.23038955 0.053466517 0.5878416 -0.07044904
4917 0.25450605 0.35567838 -0.18755563 0.0028186652 -0.39728537 -0.016184123 -0.10811505 -0.20078987 -0.17116506 0.20039718 -0.5141787 -0.081270546 0.1716245 -0.4985574 -0.24590477 -0.04643729 -0.19260728 0.54518497 0.15255585 0.08783005 -0.24197732 -0.06598734 0.46878642 0.011417368 -0.23776393 0.021357799 -0.2096123 0.1859019 -0.05525974 -0.57427096 -0.35234815 0.2516571 -0.45636758 0.52592826 -0.06803302 -0.11368117 -0.02836346 -0.14374325 0.07495632 -0.51362747 -0.10273445 0.45538935 0.19369954 -0.26479724 0.47698304 0.41969904 0.028853454 0.012458763 0.21110526 0.024929026 0.15431689 0.011098772 0.014816338 -0.29538402 0.0966755 -0.099786945 -0.2559389 0.22682238 0.022544917 0.2569338 0.44103143 -0.13534217 0.40864843 -0.45853826
4921 -0.020021731 0.43453035 0.10040891 0.23662078 0.2584204 0.19975598 0.11287083 -0.5021887 -0.5099759 -0.56606054 0.03593928 -0.07458591 0.18400803 0.31245917 0.48430002 0.39596635 0.73776466 -0.10482785 0.14312135 0.64933896 -0.028411794 -0.12942314 0.12700512 0.10284515 0.05203044 -0.36973256 0.31103978 0.19434908 0.40400246 0.33119485 -0.16703925 0.01626259 -0.13719417 -0.3143032 0.13932574 -0.6028067 0.33044243 0.44112834 -0.024451543 0.11162031 -0.118096486 0.32434988 0.21064422 -0.2221103 -0.18517642 0.16350698 0.16748084 -0.25720316 0.099076435 0.1432786 0.17732675 -0.1339515 0.26295778 0.5888163 0.21143837 -0.3117835 0.15459944 -0.055782173 -0.24444152 0.21993616 -0.3465052 -0.033427387 -0.21275897 -0.09548259
4829 -0.07867886 0.275137 -0.07802456 0.072022766 -0.077701606 0.25740722 -0.09764355 -0.45118454 -0.23355821 -0.06071748 -0.18573472 0.02952048 -0.089113444 -0.33205256 0.13623314 0.48291016 -0.348738 0.21013813 -0.17954183 -0.16290572 0.035675474 -0.52977335 0.3746665 -0.12595245 0.11056709 0.042564124 0.236159 0.6026389 0.09626077 -0.36047444 -0.4186616 0.1115595 0.12783593 -0.27778786 -0.41166747 -0.15685327 -0.6091679 0.13519736 -0.568991 -0.08714808 -0.031446815 -0.18803577 0.33174583 0.1666513 -0.08593423 -0.15464099 -0.21526963 0.2480352 -0.40000388 -0.19372022 -0.42588037 0.34325853 0.23581094 -0.1401015 0.24779089 -0.07645981 -0.018056098 0.5466234 -0.25783992 -0.08184833 0.60352004 0.085301735 -0.10085333 0.13189408
4905 -0.12381341 0.01638288 0.050612863 -0.047789685 -0.00045554255 -0.032048836 0.3512553 0.61652076 0.40185007 0.38529512 0.15871301 -0.104453124 0.053833894 -0.48739517 0.41870162 -0.45642087 0.2220902 0.31327564 0.17686638 0.17164876 0.24179858 -0.17457934 0.4694605 0.28152373 0.08010415 -0.12665886 0.051190764 0.084781095 -0.4459086 -0.16523284 -0.21353114 0.15839507 -0.6807891 -0.4168741 -0.6064435 -0.3455085 0.12685291 0.3390625 0.2058171 0.011359883 0.15688063 0.53394616 0.31336036 0.0076918146 -0.22998212 -0.06315632 0.11374209 0.36314258 -0.36149913 0.61103195 -0.20031992 0.5668958 -0.24989578 0.6567997 0.056407582 -0.25234067 -0.16145237 -0.08082035 -0.021160891 0.028873017 0.016689716 -0.6462538 0.037282735 -0.28836074
4738 -0.3006839 0.5898958 0.101454556 -0.4184921 -0.080281265 0.2725831 -0.0039389683 -0.014169228 -0.17712711 -0.04075587 -0.36007375 0.22041821 0.063919194 0.015068925 -0.05074463 0.13675313 0.017974595 0.018979937 0.45575923 -0.19516023 -0.16912071 -0.5401172 -0.03318009 0.42522442 -0.47748533 0.02984502 -0.16034976 0.5489518 -0.06541212 0.15459158 -0.17597912 -0.24234158 -0.61344165 0.08295376 0.10714357 -0.67782223 0.03169116 0.048824843 -0.1411205 -0.10063111 0.14007464 0.2708704 0.029664578 -0.20068397 0.4699103 0.1483696 0.27970132 0.22745758 0.22935541 -0.24624436 -0.18959895 0.07136335 0.39735034 0.024191739 -0.49613276 0.07078618 -0.11691938 0.12817317 -0.24738833 0.27573842 0.051581196 -0.28421387 0.18246369 -0.16020861
4776 0.30710343 0.018690847 0.30737445 -0.18362616 -0.1339852 -0.25928518 0.0864587 -0.22896275 -0.07129878 -0.15085502 -0.21006429 -0.24795456 0.3517561 -0.1096869 0.16466975 0.25131297 0.37043366 -0.30660164 0.20886868 0.019864628 0.32712176 -0.3257057 -0.38077447 -0.007621899 0.049884804 -0.0645758 -0.20674044 0.6887495 -0.28917876 -0.041763674 0.0031472056 -0.13017163 -0.12992072 0.31989202 -0.080726855 0.17924032 0.37303206 0.4199228 -0.13674155 -0.18911622 0.6446293 -0.32829514 0.39061618 -0.7812368 -0.07586406 0.12942809 0.12889758 -0.16518277 -0.0013182815 -0.25314635 0.5547052 0.07678462 -0.030147368 0.31445572 -0.19239838 0.17106323 0.10859723 0.15465091 -0.020712117 -0.16473393 0.11715784 0.0038037545 0.7969215 -0.19984652
4882 0.20620762 0.16908969 -0.14809284 -0.2700553 0.10589805 -0.34031996 0.06214147 -0.34040117 0.18369067 0.24963084 0.037790805 -0.4981524 0.23543794 -0.095923156 0.4306321 -0.06289733 0.28708085 0.11808469 0.0940749 -0.15891874 0.35565126 -0.20212792 0.28860444 0.016005505 -0.45422363 -0.16090116 -0.06613666 0.3513189 0.1512904 0.5364127 -0.080088116 -0.10935121 -0.30501997 -0.11150585 -0.3832675 -0.35773307 -0.2783707 0.37868655 -0.084983945 -0.07521175 -0.10456832 0.45500657 -0.07643766 0.34047812 0.47452143 -0.17162967 -0.040749695 0.024514483 -0.2549498 -0.46457076 -0.11529642 0.79875726 0.073589124 0.0023894117 -0.029724907 0.06760399 0.012814344 0.6714041 0.32767904 0.42454928 -0.021196205 -0.41259193 -0.10458435 0.006363442
4913 0.19429894 0.49945185 -0.1127934 -0.15738055 0.1268785 -0.12190248 0.20415741 0.11388289 0.26933286 0.10717942 -0.5904826 0.1839453 0.04022709 -0.1851699 0.3211812 0.5568715 0.28744242 0.19773583 -0.15817264 0.20719545 -0.22769368 -0.052459057 0.021020256 0.08097725 0.12925093 -0.02932173 0.13729176 -0.011143781 -0.22487073 -0.30822283 -0.85292524 0.09760995 -0.080945544 0.07503864 -0.44428748 -0.1621821 -0.39894143 -0.02755325 -0.09594908 -0.107114434 -0.12636629 0.4255942 -0.53676754 -0.4595415 -0.0732779 0.4046016 0.1459216 -0.026190953 -0.03617706 0.32977 0.2728449 0.19204265 0.27660275 -0.3035378 0.13036263 -0.34441346 0.27780488 0.32620123 -0.18840735 -0.2681624 0.02006552 0.25878668 -0.19321701 -0.22779779
4941 -0.06365763 0.18641147 0.33331263 -0.44257307 -0.14582685 -0.051528722 0.44204903 0.0003566753 0.099480584 -0.078544594 -0.23640619 -0.158321 0.22893578 0.0894833 -0.52618414 0.18595286 -0.10879269 0.030000335 0.12428517 0.37468272 0.6470914 0.21884139 0.40286094 0.06944484 -0.08973586 -0.17925094 -0.52841085 0.13559529 0.18629982 -0.07528532 -0.3275078 -0.5000553 -0.66988146 -0.06525147 0.116291836 -0.38107887 0.16569524 0.17371343 0.02824877 0.004793617 -0.002026969 0.1121287 0.4547636 -0.45340198 -0.0540043 0.0766944 -0.10351845 -0.12302081 0.04334203 -0.10340386 0.38466433 0.010855699 0.08099609 -0.08532022 -0.35403112 -0.15366416 0.14545417 0.27555364 0.10095742 -0.0901029 0.34040844 -0.097891174 0.32816455 -0.3131498
4892 0.024311613 0.28390083 0.45835865 0.19387946 -0.08516752 0.5513679 -0.22619466 -0.77531934 0.1179457 0.55157167 0.28875235 0.35066256 -0.11327729 0.34268296 0.10652645 -0.5642852 0.22817871 -0.42192715 0.15061828 0.20401561 0.25324294 -0.04017507 -0.2581509 -0.114759654 0.2809247 -0.41283062 0.115553245 0.4917498 0.28296953 -0.1107319 -0.41471022 0.19382876 -0.41410908 -0.032693956 0.53856134 -0.03610472 0.49698365 0.5233808 -0.53954685 0.025495268 -0.24880686 0.2832583 0.03851307 -0.3596087 -0.5030396 0.2345905 -0.23881368 -0.091876626 0.4644524 -0.46620303 0.29394156 0.38408306 0.5458461 0.022854684 -0.1936505 0.083859645 0.06018654 0.27247185 0.56370896 -0.17512389 -0.24468316 -0.6701234 0.056471992 -0.17901182
4761 0.8662157 -0.074467644 -0.5076972 0.46888477 0.014730614 -0.22222649 -0.08679092 -0.46741024 -0.53291404 0.02715369 -0.03476012 -0.5081877 0.010989553 -0.10776734 0.22514232 -0.20783415 0.2921274 0.5557878 -0.16537358 -0.057717726 0.09624151 -0.2350319 0.009241879 0.116026886 0.16301663 -0.07174736 0.46056664 0.23616055 -0.23485221 0.35666838 -0.38607314 -0.19536844 -0.21382645 -0.29889154 0.10444649 0.13110429 -0.31295678 1.2451801 -0.39217827 0.2799076 0.11769224 0.2228872 0.119617224 -0.39534616 0.14293557 -0.11116606 -0.13163316 0.32940802 0.07240645 -0.37990507 0.11989857 0.14692728 0.4068718 0.2715688 0.0095278695 -0.50105035 0.1494043 -0.37407908 0.41885838 -0.050768428 0.45470893 -0.06080564 0.02572079 -0.0072643915
4823 0.06074709 0.27749762 -0.11153628 -0.25716087 -0.23694508 -0.11901084 0.16170707 0.27065244 0.2808801 -0.20342049 -0.46784163 0.2391885 0.121344686 -0.10148523 0.09631794 0.17663151 0.06246324 0.15637967 0.21719767 0.3285481 0.41939917 -0.43742836 0.012557185 0.03897964 0.18431087 -0.26791388 -0.24395134 0.4972418 -0.2756304 -0.24528098 -0.4707852 -0.5265923 0.112189114 -0.15706532 0.16800803 0.25368178 0.15646417 0.03762628 -0.4200785 0.24207287 -0.059969053 0.010155965 0.34305805 -0.39800233 0.08808393 0.19678845 0.32742885 -0.13088168 0.34160995 -0.12079341 0.07771572 -0.1432942 0.33679208 0.021434635 0.3291863 -0.36183536 -0.20277579 -0.10676191 -0.106284134 0.25685441 0.50649506 0.2776761 0.089737594 -0.0902455
2603 -0.07324873 0.23930256 -0.5083431 -0.40731463 0.1397356 -0.16097638 -0.05913159 -0.21406 0.27212706 -0.29544643 -0.18089087 -0.26148233 -0.058020763 0.09645637 0.2358655 0.20069617 0.049314406 0.031979147 -0.32742038 -0.48899516 0.30112827 -0.46027213 -0.17496002 -0.07029056 -0.3418193 -0.25607732 0.08661938 0.27093476 0.10101929 -0.07169642 0.24510548 0.30628395 -0.036644574 -0.38041377 0.04275336 -0.45143798 -0.015096955 0.39175162 -0.17365965 -0.110048726 -0.1507337 0.4167786 0.03327596 -0.10514443 0.005247095 0.32590896 -0.08128115 0.2663957 -0.29300618 -0.24142958 -0.24434188 1.0377955 0.08174345 -0.06451726 0.15929969 -0.1494916 -0.08440758 0.17873499 0.30800214 -0.059694923 0.10367753 -0.15576907 -3.1954238e-05 0.04165816
3897 -0.1456543 0.5634834 -0.081261 -0.29928654 -0.09638326 -0.042743046 0.54758483 -0.056797292 -0.25764084 -0.17533651 -0.37058198 0.1414694 0.011563073 -0.08998808 0.093816906 0.250122 0.004493015 -0.1141002 0.5033005 0.6279453 0.2740503 0.029481981 0.036385495 -0.26368356 0.3142891 -0.21248902 0.04236556 0.2759858 0.033617467 -0.63337505 -0.60037565 0.42697242 -0.14705993 -0.16851918 0.22414356 -0.11477783 -0.21351281 -0.064293385 -0.2188499 0.2369547 0.18009408 0.2823757 -0.15144378 -0.15260006 0.20085143 -0.09082085 0.44997057 0.17922159 0.15131481 -0.12056916 0.4666355 -0.15557955 0.034029573 -0.1153342 0.5536265 -0.37958553 -0.35437548 0.018967122 -0.05872022 0.09505769 -0.41005966 0.41577023 0.3509475 -0.27948081
4918 -0.029602172 0.5802491 0.102958634 -0.16376781 0.09595747 -0.06406578 0.0066500218 -0.2388987 -0.16402054 -0.08895409 -0.5250763 -0.0002889513 -0.05731758 -0.14510652 0.028638666 0.32512093 -0.09185581 0.27097774 0.18782276 0.30012167 0.29863703 -0.08410915 0.16371542 -0.20305678 -0.056380037 -0.44573882 -0.10201668 0.24314293 -0.49639916 0.07878167 -0.31149992 -0.43364987 -0.37946126 -0.27020818 0.11224771 -0.19453283 0.081565075 0.02422091 0.033754777 -0.008934611 0.049352776 -0.03960762 0.41328937 -0.47984162 0.14969839 0.55999374 0.34095043 0.1469971 -0.19329438 -0.06432081 0.4039829 -0.08921554 0.18530436 -0.2480739 -0.3778883 -0.24425064 -0.25807825 -0.12649956 0.15472776 -0.14483437 0.12857717 0.1363231 0.38018608 -0.2351389
4844 0.21959895 -0.022404004 -0.04071872 -0.18726765 0.28293794 -0.673676 0.032175243 0.4753796 -0.068764634 0.11859605 0.24672002 0.18853424 0.30099487 -0.17451808 0.16554546 0.20620139 -0.24311729 0.062070772 0.45424458 0.25678483 -0.22482954 -0.19684426 0.30353463 -0.33739623 -0.25275418 -0.18509676 0.09882034 0.13799949 0.5434196 -0.37135002 -0.53245777 -0.02030282 -0.104932405 -0.06762075 -0.27564168 -0.2547114 0.4216224 1.0010362 -0.38885033 0.11088336 -0.20986483 0.2836697 0.15437049 -0.3961342 -0.12782472 0.15802059 -0.10238799 0.07146975 0.036891226 0.016947312 -0.38154203 0.31705862 0.5532596 -0.09649601 -0.16171996 0.23485394 -0.1411329 -0.16656575 0.22394729 0.18376262 -0.24372146 -0.14823864 0.037441347 -0.61710155
4928 0.119497694 0.1964851 0.31486258 0.108958334 -0.20015322 -0.43433306 -0.10246682 0.033926584 0.17814818 -0.24842645 -0.6712871 0.094694726 0.29492697 -0.49867186 -0.49785128 0.06816917 0.18512835 0.2699451 0.3048383 0.03149527 -0.14502926 -0.33600426 0.03896534 -0.09313328 -0.36280233 -0.050754547 -0.0441496 -0.029623987 0.22295608 0.34999266 -0.64753467 0.052427974 -0.19402774 0.46024597 0.27114823 0.27672952 0.008119365 0.20330727 -0.22597188 0.04425304 -0.031041916 0.585659 0.4549549 -0.18732789 0.40738198 0.1617901 0.38459468 -0.4149105 0.05168243 -0.18426743 0.099015675 0.4855217 -0.40815488 0.3663174 -0.11950637 -0.1617671 0.026688242 -0.06174965 0.062377002 0.17227606 -0.24724823 0.10347098 0.13121541 -0.22255991
4952 0.15085375 0.35465226 0.09260363 0.2054483 -0.1923294 0.015324559 0.66390055 0.031316455 0.20219904 -0.31947443 -0.18456335 0.44428566 0.32777822 -0.2684617 -0.36224157 0.0028917703 0.16559458 0.33558497 -0.07307886 -0.18050446 0.040735427 -0.40249828 -0.32388067 -0.06146219 -0.2707814 0.5818913 -0.39172813 0.54118145 0.038244225 -0.44972193 -0.6341548 0.13671392 -0.112481505 -0.20563419 0.1203894 -0.4184364 -0.3274673 0.31462237 -0.26682407 -0.39407268 0.092867725 -0.07145287 0.05070758 -0.29029813 0.4254628 0.021455303 0.5395847 0.5398807 0.1465596 -0.36148953 -0.5043932 0.3695427 0.416962 0.004147148 0.17594124 0.18086064 0.47435766 -0.13268322 0.3198624 0.38922977 0.023325657 -0.7207506 0.04411038 0.037482344
4939 0.14745703 0.5410186 0.014200098 0.3493197 -0.2554664 0.006858828 0.4814739 -0.22857948 0.23937127 -0.23737603 0.17613316 -0.018562026 0.6732199 0.033104353 -0.15326974 0.38380626 -0.2046307 0.611645 0.21471635 0.27609795 0.08510873 -0.16873218 -0.16893409 0.3821104 0.101312265 -0.055041086 0.25566894 0.0904055 -0.11083464 0.18802033 -0.05338577 0.22134031 0.20544796 -0.21922684 -0.21588504 0.017093534 -0.37537166 0.30385956 -0.31940126 -0.3905941 -0.16967005 0.28008902 0.19448544 -0.1028961 -0.031771198 0.24072409 0.4139563 -0.018678423 0.36673734 -0.11335734 -0.20517729 0.26546386 0.1739222 0.76003814 0.046404753 -0.05229047 -0.515025 0.66026986 0.03227275 -0.16685475 -0.076620705 -0.07774689 0.04838749 -0.21692526
4603 -0.14260545 -0.28272197 0.17426333 0.28162643 -0.35417765 0.04966884 0.09304526 -0.35352156 0.1432664 -0.20614587 -0.14913657 -0.15283212 0.11560191 -0.5495 -0.059106678 0.5064535 0.49106887 0.4477136 0.05628672 0.72543174 0.21276058 0.24746004 0.06923608 0.21353227 -0.029493773 -0.115848996 0.07736743 0.32431582 0.34324014 -0.6323673 -0.37499946 -0.053070206 -0.29139256 -0.11502641 -0.39383978 -0.3632477 0.4392883 0.27177438 -0.27910423 0.28358135 -0.017072955 -0.017939636 0.18399023 -0.64343446 -0.2566434 -0.025182148 0.09426127 0.059002064 -0.07615483 -0.0751479 -3.5758392e-05 -0.08216215 -0.06542616 0.31428075 -0.42067775 -0.08793856 0.25783256 0.37968874 0.6182223 0.16434473 0.41882628 0.4393613 0.20606498 0.0077511566
4962 -0.07384756 0.5877177 0.4936258 -0.36873883 -0.18197288 -0.13460317 0.27260786 0.14743817 -0.12501754 0.03908761 0.007842582 -0.16679978 0.5785422 -0.35698745 -0.0350748 -0.034523893 0.22465478 0.22710773 0.23353016 0.18235023 -0.20005806 -0.10517224 -0.16488259 0.06330027 0.16393861 -0.26552004 -0.26503858 -0.0379593 0.008537659 -0.12976672 -0.118608005 0.023444908 0.011182286 -0.17216012 -0.06231411 -0.055960935 0.085616425 0.16778135 -0.25161907 0.029068245 -0.20755117 0.26650003 0.19395852 -0.35530487 0.2867854 0.548465 0.28067815 -0.18229562 -0.12502271 -0.29704168 -0.36948046 -0.08343332 0.11660334 -0.27159867 -0.19968247 0.16133866 -0.22229408 0.24969612 0.018172847 0.17854664 0.38448912 0.2437365 0.30854818 -0.4252639
4900 0.31139338 0.4225273 0.23315533 -0.23256205 0.22619995 -0.13648577 0.12724036 -0.15714231 -0.09246119 -0.38582262 -0.27150375 0.65500784 0.39459875 -0.4488002 -0.47039607 0.18032207 -0.097621456 0.070892796 -0.107856706 0.28935054 0.36341086 -0.120527394 0.42007852 0.12144624 -0.23826098 -0.04357551 0.00851453 0.26638278 0.4451767 -0.0724546 -0.5095486 -0.062201284 -0.067123786 0.27536824 -0.08959923 -0.25164878 -0.067566834 -0.11806865 0.15946883 0.1560844 -0.49156615 0.8429523 -0.39351875 -0.2580283 -0.18375905 0.0685739 0.11922465 -0.29026267 0.1428087 -0.017220803 0.06915277 -0.07631421 0.0353269 0.16105819 0.0051360484 -0.40932545 0.210295 -0.06351175 -0.009272699 0.035436228 0.3767822 -0.25961193 0.6755378 -0.4277575
4809 0.22270331 -0.018707836 0.48969314 -0.27202582 -0.69147086 0.1936932 0.10231118 -0.06385732 -0.046614405 -0.11299951 -0.36823156 0.31922328 -0.06734335 -0.055821978 0.0017940204 0.05790196 0.008574673 0.28336418 0.36445907 -0.041824605 0.24799092 -0.11097172 0.076602764 0.005909737 -0.15793523 -0.4987897 0.3556184 0.3253403 0.32365292 -0.04236833 -0.6722287 -0.28157464 -0.48211846 -0.048001368 -0.20784049 0.08645153 0.13034818 0.020905169 -0.7209487 -0.20678978 0.021688787 0.45236096 -0.03530463 -0.3699498 0.33290648 0.27669832 0.21394745 0.13430643 0.105937645 -0.06467656 0.40199253 -0.21475232 0.24196959 0.17189522 0.32543728 -0.1677426 0.11347736 0.18606319 -0.19265856 0.35357302 -0.011156933 -0.1870822 -0.20703562 -0.03491735
2093 -0.02874994 -0.025357088 -0.20312789 -0.3167453 -0.3076707 -0.08542243 0.49909157 -0.06752755 -0.18300417 -0.10242874 0.22315945 -0.060301278 -0.16272858 -0.34503034 -0.048958894 0.17905521 -0.052793473 -0.38932392 -0.30835828 -0.1936132 -0.0839035 -0.1569009 -0.012806929 0.16030414 0.2039093 -0.37993124 -0.212407 0.6054854 0.3776892 0.5943534 -0.33301172 0.6017586 0.13260484 -0.3274809 0.3052486 0.14666691 -0.5594229 0.123441756 0.1841172 -0.07951987 -0.1707016 0.22753005 -0.17652531 -0.41917825 -0.32889828 -0.10086672 -0.051654093 0.1606287 -0.5179287 -0.16213882 -0.015580592 0.60103637 0.16631979 0.35483938 -0.1638656 0.28242892 -0.6422285 0.14194408 -0.09145467 0.38534713 0.22548804 -0.07828536 0.16335939 0.3901266
4955 -0.16769905 -0.08297214 0.050629515 -0.033629283 0.30430052 -0.2449614 0.45694226 -0.046634033 0.018175233 -0.14607765 -0.51242954 0.055598326 0.39291552 0.081087805 0.1873157 0.22293772 0.33468074 -0.35560152 -0.17584774 -0.16730194 -0.073888406 -0.13158205 -0.15233843 -0.05844092 0.2607103 -0.22871679 -0.39870912 0.35864758 0.070241146 -0.20643158 -0.28068584 -0.3083994 -0.2546002 0.29148495 0.16170329 -0.120110504 0.19025695 0.2052836 0.118686065 0.31020385 0.16351531 0.6291337 0.049060427 -0.45586613 0.26917723 0.26393297 0.6682657 0.016528113 -0.3838437 -0.315752 0.3119083 -0.34734923 0.33395222 0.2426733 -0.08071469 0.25240666 -0.043724805 -0.18668036 -0.40475765 0.12502399 0.17828971 0.1586673 0.20460598 -0.143692
4960 -0.30236578 0.2906924 -0.36717305 -0.22788994 -0.33033672 -0.4944972 0.114066675 -0.27253026 0.102272585 0.17330591 0.24125774 -0.12276962 0.3272977 -0.285263 0.008689353 -0.09326435 0.44681257 -0.44746956 -0.03626868 0.24449566 0.30600494 -0.01351009 0.090287514 0.2676904 -0.028669624 -0.10461864 0.4747047 0.1728915 -0.090261735 0.27938735 -0.40518406 0.26727337 0.14347087 -0.28597236 -0.6039627 0.17496304 -0.0058712442 -0.17081669 -0.046010245 0.36033505 0.26881823 -0.113723025 0.3250609 -0.28045994 0.22707544 0.2106641 0.50957245 -0.33679208 -0.08208988 0.08005759 -0.32006153 0.5785946 0.4417896 -0.085175306 0.32927218 0.13384639 -0.5597117 0.08074478 -0.19245972 -0.20592986 0.009714593 0.048668902 0.085416086 -0.24805495
4808 0.13383137 0.21009177 0.43338108 -0.1603248 -0.20408091 -0.2138514 0.019180514 -0.0044446327 -0.16588828 -0.101624645 -0.034855463 0.29724282 -0.0013114163 -0.56992036 -0.022351883 0.20879263 -0.46179026 0.04324403 0.41044348 -0.07075512 0.018167896 -0.36668584 -0.31199417 -0.091853164 -0.4049773 -0.5033596 0.16194543 0.32593152 0.06787537 0.22521862 -0.29492193 0.14878918 -0.3307297 -0.23662388 0.044153478 -0.14738412 0.17161715 0.17044693 -0.5706383 -0.09085024 0.22297299 0.40917426 0.61260337 -0.28366506 -0.106258005 0.41264704 -0.045949616 -0.22157472 -0.2255267 -0.24530935 -0.082547344 -0.35245717 0.5290036 0.1729481 0.1562735 -0.26856527 0.116250366 0.26690477 -0.18584749 -0.21798605 0.1882526 0.15316182 -0.21189956 -0.34461454
4934 0.4781418 0.29669905 0.6564629 -0.12969999 -0.21005931 0.06636121 -0.2628239 0.30744454 -0.07502922 0.18488626 -0.04825933 0.42549762 0.23733228 0.95911705 0.26388666 -0.14463197 -0.051370375 0.14151728 -0.13070032 -0.3383501 0.21235092 -0.6190533 0.07207259 0.2760962 0.09198023 0.01633465 -0.06641014 0.49843472 0.3330881 -0.23434195 -0.17729941 -0.2176848 -0.6141961 -0.3657309 0.2337613 0.32335436 0.19633128 0.024642177 0.08318955 0.27208406 -0.10505788 0.4913014 0.42522073 -0.31565934 0.6577075 0.1657839 0.4277694 0.24716492 0.15009633 -0.015148418 -0.20753351 0.048386727 0.39766833 0.24820347 -0.5223261 0.14958058 -0.23712096 -0.0019613497 0.42464992 -0.018964976 -0.27692726 0.45796403 0.3771491 -0.0505542
4881 -0.086023375 0.073893964 0.57811314 -0.049363952 0.08086375 0.30458677 0.21915762 -0.10555939 -0.41534275 -0.07036576 -0.027941253 0.11620165 0.33190203 -0.3753122 -0.35466146 -0.46671355 -0.019702202 0.32015324 0.26725486 0.15940101 -0.069382764 0.02312292 0.60340625 -0.1724551 -0.2886615 -0.26884657 0.42911464 0.46516883 0.8719108 0.12673484 -0.068095155 -0.52981883 -0.030171959 -0.08544774 0.078873105 0.16768941 0.12374196 0.20951551 0.31056038 -0.10155904 0.45703578 0.6815936 -0.116805255 -0.23555464 0.61845636 0.37629703 -0.12209137 -0.009709809 -0.33360553 0.13430673 0.33041954 0.55608886 0.494592 0.09541329 0.12178339 -0.08740413 0.20319827 0.32984656 0.29078814 -0.39498258 0.052562155 0.6145389 0.3029975 -0.23545617
4944 -0.23661438 0.3347013 -0.16210943 -0.0062998612 0.05551322 -0.11821895 -0.102295205 0.017970638 0.29054037 0.25732684 -0.2513287 0.1692355 0.4116096 -0.098154664 -0.010680424 -0.10861394 0.14382137 0.300393 0.35900342 0.16104235 -0.14036739 -0.49075103 0.012012219 0.3542697 -0.08426187 0.08046789 -0.5449825 0.35518965 0.10685999 -0.3692992 -0.36289313 -0.42444712 -0.053245544 0.13524628 -0.011990167 0.19165543 -0.07291599 -0.16887204 0.27730933 0.11478132 -0.21890585 0.424174 0.54914445 -0.37721214 -0.24000475 0.61140764 0.2772521 -0.26741505 -0.05580536 -0.04451156 -0.1443957 0.20536463 -0.14628805 0.07123229 -0.062215682 -0.3477804 -0.14617318 0.5197152 -0.20523223 0.34024075 0.33644128 0.29720256 0.30875516 -0.34259552
4957 0.10474787 0.14544827 0.0652874 0.106912725 0.16943961 -0.17671956 0.020272994 -0.085061364 0.08854308 -0.12849645 -0.12932895 -0.17806654 0.71124715 -0.31938145 0.07871303 0.06950058 0.2885497 -0.25480047 0.13539636 0.08995753 0.18439002 -0.17581923 -0.06863383 -0.2535245 0.42016107 -0.28369656 -0.0066629215 0.2386373 -0.11156566 -0.102447845 -0.5290942 -0.3060741 -0.39602342 -0.2607339 0.5296634 -0.012853939 0.2518432 -0.011845569 -0.3733255 -0.20010602 0.29421434 0.4655074 0.17925538 -0.44652122 0.1520781 0.23522817 0.53263324 0.12931944 -0.21847433 -0.051269207 -0.008695386 -0.457126 0.1133376 -0.13548416 -0.42405674 -0.04170415 -0.15569389 0.008037614 -0.18413824 -0.114796706 0.30954993 0.013431856 0.084145665 -0.42913353
4963 0.03904675 0.04691462 0.1975686 0.274401 0.15808207 0.16588794 0.40176415 -0.805981 0.21684492 0.013492398 -0.1817122 0.17114177 0.31706142 -0.12086397 -0.28388852 0.032293662 0.072874576 0.10643904 0.31206736 -0.14545067 -0.10278428 -0.38964412 0.7274881 0.3429887 0.07625658 0.39097035 -0.002913051 0.65352064 0.4267869 -0.14581786 -0.6637627 0.21779609 -0.1434927 -0.169159 -0.114184104 -0.25925413 0.44457626 0.54889613 -0.15268794 0.20907429 0.2705375 0.3377395 0.14006206 -0.4369631 0.29959816 -0.17142878 0.25796038 -0.086556055 -0.48387766 0.33005273 0.55100214 -0.5204304 0.19472736 -0.04500966 -0.56859666 0.1273261 0.08463012 0.23081207 -0.23675942 -0.17777616 -0.4468522 0.43736565 0.12945932 -0.041338973
3265 0.5375268 0.23836686 -0.04161629 -0.7114552 -0.29699358 -0.0034662087 0.4141908 -0.04343366 -0.046225883 0.0128009925 -0.36973694 -0.019093337 0.09044396 -0.016125161 0.10684177 0.30926174 0.24527188 0.25310367 -0.1575036 0.28935838 -0.06782796 0.24583402 0.045155402 -0.13118438 0.23768355 0.108595274 -0.4608326 0.5045531 0.0054888274 -0.074216224 -0.28945324 0.014113488 -0.054449458 0.24669038 -0.08046242 0.02267189 0.13590686 0.10560752 -0.20116754 -0.34078977 0.47318232 0.054240346 0.25383666 -0.25392333 0.15313871 0.0790047 0.6995702 0.401802 0.46673244 -0.32096228 0.69638205 0.41712394 0.31207556 0.14558925 0.24607553 -0.010286878 0.05946211 0.4124284 0.065934226 0.05457606 0.07658174 0.29379228 -0.45296508 -0.49373314
4255 -0.034864172 0.05884982 0.039144654 0.00084532704 0.04580787 -0.034163766 0.6411284 -0.036880776 -0.05408121 0.32467467 0.10725396 0.16801213 -0.15124418 0.061715126 0.64351535 -0.07190527 0.31811586 -0.06764905 -0.27339485 0.34465033 0.3140087 -0.30321288 0.2081707 0.25306696 0.024324642 -0.059184108 0.41783503 0.6991957 0.05466964 0.44386974 -0.33207527 0.49111792 -0.1807898 -0.26738885 0.13349721 0.008494103 -0.34596732 -0.24126911 0.17877805 0.29894957 0.33981347 -0.12025955 0.27079478 -0.044544447 0.3027229 -0.27037585 -0.07250763 -0.23403445 -0.42059425 -0.12866166 -0.071321465 0.53964126 0.19599892 -0.5177648 -0.063037544 -0.3160411 -0.62266594 0.47593608 -0.31689164 0.025887066 0.025000848 -0.3806228 0.044550523 0.047158156
3017 0.42897615 0.5025878 0.25007382 -0.24356866 0.32406327 -0.24211918 0.2746823 -0.13187875 -0.34393787 -0.06477099 -0.28753722 0.16034782 0.56693697 -0.24146888 -0.12877187 0.33800814 0.02988488 -0.13817623 0.22928403 0.19208215 0.29821026 0.15612884 0.044865284 -0.11461482 -0.17477825 -0.3536455 -0.7492843 0.1353798 -0.17872605 0.09109129 -0.18007147 -0.36359993 -0.47149837 -0.34341666 -0.17609957 -0.07559379 0.3502662 0.6138384 0.0962718 -0.053956978 0.22708511 0.38304943 0.12739727 -0.26328927 0.09790922 0.15806854 0.12095453 -0.14192474 0.4203167 -0.00026789753 0.030949062 0.026157109 0.20352848 0.15464264 -0.10668948 0.07697254 -0.16400282 -0.1410077 -0.2298579 -0.24908867 0.0792928 0.19706334 0.47853866 -0.34091538
4906 0.51638776 0.067550264 0.12410045 -0.15449812 0.13678204 0.27458405 0.27296022 -0.19797872 0.06560225 0.1975351 -0.59888786 -0.1533001 0.11988303 -0.53257626 -0.45391136 0.16639811 0.18459721 0.20271273 -0.11207994 0.2150023 -0.022013817 -0.18897314 0.14381464 -0.45979714 -0.047062404 -0.44279113 0.055936884 0.24957044 -0.008267733 0.2075774 -0.5317534 -0.02333009 0.12718907 -0.20957682 -0.22612755 0.052706372 0.018287713 0.27410164 0.20618926 0.3343349 -0.13376053 0.3734759 0.33793187 -0.34458295 0.1367463 0.49670795 0.041483715 0.15976065 0.025057556 0.32958412 -0.22670773 -0.2591013 -0.12812048 -0.09896243 0.24091206 -0.23965055 0.2258789 0.103859596 -0.4051659 0.46856204 -0.0902265 0.010606732 0.15981987 -0.36986074
4527 0.18332882 0.22714695 -0.06816434 -0.49509126 0.15917589 -0.03080058 0.23242654 -0.076781034 -0.204213 -0.13585328 -0.637818 0.1430214 0.4032267 0.023544049 0.09761074 -0.0620058 0.062360678 0.17458291 -0.017869083 0.50533485 0.21532953 -0.15396215 -0.20298576 0.22307123 0.71368873 -0.40606785 -0.66964734 0.32056722 0.1747102 -0.18253984 -0.05822139 -0.0648716 -0.119229905 -0.177677 -0.035134032 0.14043117 0.13550462 0.08991542 -0.22698538 0.14523435 0.18642265 0.3672981 0.3972404 -0.14762594 0.1919514 0.15948437 0.4804403 0.1854551 -0.08930254 -0.46366024 -0.07261359 0.068480894 0.3970892 0.05492775 0.13644211 -0.34509858 -0.0747878 0.22324999 -0.13274683 0.26635805 0.30120522 0.37461057 0.007433299 -0.31987345
4958 0.39492202 0.48247463 -0.31871426 -0.34648517 0.17181261 -0.4653173 0.22789174 -0.098992124 -0.1823319 -0.21921591 0.16121663 -0.09057687 -0.038654834 0.26342034 -0.40521735 0.24773805 0.06734201 -0.02866577 0.08077967 0.091910936 -0.053366963 0.1670923 0.3652917 0.20797123 -0.21830462 -0.39903617 0.09284925 0.8674325 -0.33820167 -0.050062366 -0.55842304 0.039637916 0.15125427 -0.45958078 -0.14010686 -0.055142786 -0.26368207 0.2032078 -0.36394027 0.029537724 -0.2606457 -0.22876714 -0.15318297 -0.075967014 0.6429866 1.0703832 0.57715744 0.08889143 -0.10576071 0.12900396 0.6227695 0.33030194 0.19495384 0.044403013 -0.35869926 -0.38399634 0.5516719 0.019878557 0.27679166 0.01632131 -0.26326764 0.33626696 0.06075366 0.33148113
4757 -0.025400693 0.2908209 0.041422773 0.13423721 -0.24833672 -0.15284246 0.30934852 -0.08096269 -0.44330883 0.13353854 -0.49595663 -0.25602016 0.2672053 0.46914324 -0.009869423 0.102260165 0.1779742 0.37161866 -0.31740183 0.49646905 0.38753137 -0.08230087 0.16568735 -0.19952686 0.008705878 0.3686641 0.07982838 0.63922226 -0.16568358 -0.23053828 -0.87971437 -0.07142673 -0.08215795 0.115617886 -0.10038269 -0.09828014 0.28077802 0.2697811 -0.33587354 0.48400384 -0.023104135 -0.19641492 0.5133564 -0.14870583 0.4861544 0.20567892 -0.32501656 0.17910802 -0.5247799 -0.7450266 0.087241985 -0.05216178 -0.16374242 0.31476668 0.12296428 0.30162367 0.11552734 0.1500797 0.09581054 0.4001657 -0.09768632 -0.011002249 0.09684975 -0.30822927
3266 0.37654677 0.18580583 0.07989762 -0.4320591 0.39603245 -0.1279294 0.4301877 -0.1781489 -0.21512078 0.04065505 -0.58014554 0.18780582 0.38505688 -0.16879751 0.25628787 -0.10016686 -0.14935075 -0.26408866 -0.06890247 0.08992502 0.22344139 -0.026019992 -0.12990414 -0.0058151768 0.24799941 -0.11654903 -0.5700103 0.28391594 -0.131661 -0.04162218 -0.5981926 -0.43698183 -0.19520994 -0.10756401 0.089828886 0.05117745 0.07847867 0.12320344 -0.2883105 0.13997094 0.27669832 0.80088294 0.30300832 -0.19245636 0.13617887 0.15020066 0.4468547 0.15971236 0.12660266 -0.25969929 0.0013398255 0.10261349 0.057232756 0.06474316 -0.28145543 0.16595629 -0.19700935 -0.32129437 -0.41445726 0.1289639 0.26188636 0.5101471 -0.16668881 -0.3916419
4754 -0.030024977 0.20951734 -0.3913931 -0.081636816 0.1535197 0.25098598 0.05551756 0.038439456 -0.12362393 -0.38825005 -0.34119275 -0.28347784 0.4496957 -0.06756024 0.33090436 -0.07995713 -0.5612149 -0.032036413 0.05362943 0.122131996 0.19074419 -0.43194512 0.052523997 0.48920634 0.301664 0.011011783 -0.083375216 0.28954068 0.073247775 -0.08615004 -0.53787535 -0.18652737 -0.48884574 0.041929394 0.121483065 0.11030477 0.28900945 0.009804763 -0.03773395 -0.20416214 -0.07176023 0.7271062 0.10099444 -0.5084051 0.09831711 0.28344357 1.1035784 -0.055059455 -0.09328718 -0.1627969 -0.14832701 -0.095037125 0.13859808 0.268938 -0.1333591 0.050358925 -0.2911401 -0.156656 0.25448948 -0.18768913 0.16323467 0.22821377 0.44304788 -0.25200015
4937 -0.0015487282 0.06187223 -0.12073605 -0.028158732 0.1926343 -0.6033981 -0.077996254 -0.2174961 0.1639043 0.021614024 -0.037028402 -0.026745232 0.028699249 0.020257069 -0.4040607 0.42721003 -0.027377568 0.046070967 0.00036584865 -0.23596819 0.5897922 -0.41465464 0.31017745 -0.15679312 -0.37299109 0.12962946 -0.26359975 0.47171047 -0.028114509 0.028387532 -0.21058683 0.0523943 -0.42933685 -0.29971868 -0.36964807 -0.28095642 -0.6789302 0.23223399 -0.41124097 -0.013524501 -0.6386089 0.33580235 0.18687671 0.11274334 2.0393656e-05 0.1047773 0.12484644 0.26658425 -0.24567258 -0.084647655 -0.24299939 0.5087776 0.25451025 -0.23795769 0.18690136 -0.04953097 0.059059992 0.25600693 -0.26331964 -0.28877747 0.062451117 -0.42718792 -0.12621742 -0.09416624
3263 0.34384498 0.21591751 -0.09073769 -0.34423134 0.262551 -0.04902762 0.5328357 -0.16541629 -0.21957044 0.06390508 -0.17383902 0.31933585 0.58673567 -0.14209111 0.13329424 0.045604542 0.03728244 0.14124717 0.000852711 0.43833587 0.2430637 0.03799748 -0.07875966 0.09016395 -0.0011478093 -0.52360564 -0.6363059 0.38504422 0.14119864 -0.05475392 -0.121228755 0.012766845 -0.41819948 0.0009626801 -0.07528955 0.2526217 0.13280523 0.46712404 -0.25979894 0.23497282 0.2581364 0.4578946 0.15783197 -0.29432774 0.08637893 0.38131404 0.512388 0.05089631 0.48345584 0.08538949 0.09368951 -0.118573345 0.42566144 0.36293036 0.17766124 -0.0027793697 0.058522284 -0.06942842 -0.058074363 -0.38468188 0.31583273 0.3186687 -0.1592381 -0.05056152
2198 -0.034164634 0.32863173 0.018790629 -0.3184124 0.32372445 0.35327896 0.17763782 -0.11781031 -0.07463915 -0.2596735 0.06211091 -0.19259927 -0.3787667 -0.504555 -0.23467484 -0.16784833 0.29678956 -0.20526657 0.18378 -0.30640686 -0.21104427 0.07859372 0.46703163 0.14358914 0.63537467 -0.27607864 0.3532437 0.4865302 -0.5808158 -0.11935511 -0.5261297 0.46022937 0.0897233 -0.25109062 0.07200215 0.5282574 -0.28047523 0.7708938 -0.20703442 0.45856524 -0.39045486 0.17213176 -0.06072604 0.022949547 0.059431452 -0.36736518 0.08059633 0.09801303 -0.3245885 0.17866874 -0.387666 0.37621674 -0.06124153 -0.12122565 -0.09788872 0.1174083 0.044713564 0.7281437 0.17858751 0.36588487 0.42867193 -0.53994685 -0.02334565 0.23743884
3349 -0.048780013 0.05688644 -0.042570293 0.25797963 0.42324868 0.14162694 0.081437774 -0.053290904 0.0020887484 -0.16632164 -0.51730627 0.11983132 0.5140353 -0.10906129 0.06737639 -0.26615298 0.2793252 0.38536614 -0.14176334 0.22163488 -0.486144 -0.34444937 -0.43475845 -0.14507362 -0.06067957 -0.14154766 -0.24204299 0.600282 0.2764717 0.19635417 -0.17608368 0.06822725 -0.06444212 -0.15026645 0.0070580402 -0.44637588 -0.15806977 0.14988644 -0.43454206 -0.004464846 -0.25566852 0.06410839 0.7183087 -0.1920921 0.12704796 0.7790654 0.29651764 0.10321365 -0.34437495 -0.3304801 -0.15587807 0.07454895 0.055723608 -0.09498944 -0.12448864 -0.3944264 -0.21354444 0.41947967 0.06170964 0.06327651 0.059231725 -0.015626112 0.055232763 -0.3995346
4135 0.13834499 0.0025985157 0.13154265 -0.08368548 -0.059915118 0.43226773 0.5364901 0.22870246 -0.051102474 -0.117908075 -0.24400161 -0.014218672 0.4696891 -0.19892822 0.4747081 0.17539337 0.5197622 -0.27742243 -0.21239933 0.25009868 0.35176736 -0.01625305 0.34428796 0.6373377 0.016217168 -0.18024282 0.1077678 0.38517874 -0.3656677 -0.2346117 0.00528933 -0.05211469 -0.29050103 0.35600266 -0.14360204 0.6027842 0.034261156 0.42229193 -0.4821924 -0.567728 -0.24896297 0.3474008 0.44945535 0.09336793 -0.10516154 0.21214794 0.33606446 0.14064868 0.08299857 -0.10112493 0.020501098 -0.12583594 0.17885956 -0.13774708 -0.37286955 -0.14027016 -0.23208474 -0.09610746 -0.30618218 0.06818797 -0.8995672 0.3944375 0.34919316 0.33808446
2828 -0.3280776 0.031486336 -0.34540224 0.1656732 -0.06080835 0.83193135 0.20721018 0.13232575 -0.18092598 -0.21227902 -0.18701965 -0.3431848 -0.028192852 -0.10211933 0.06643823 0.013806818 0.046840187 0.23026426 -0.08382548 -0.3566516 -0.05634743 -0.08532772 0.23528224 -0.16808803 0.1471888 -0.20584641 -0.011688759 0.7119795 0.056579895 -0.04950303 -0.16663405 0.9339532 -0.12858382 0.03743325 -0.1763027 -0.15567306 -0.63323075 0.0427879 -0.5683451 0.047641292 -0.20879431 0.22535321 0.0017157325 -0.43629327 0.41155457 0.22576372 0.06648816 -0.72074133 -0.09764 0.19617166 -0.35033777 0.5925265 0.06664643 0.35227418 0.047395967 0.08351381 -0.22813922 0.22634986 -0.3550894 -0.052449685 0.35549703 -0.24945597 0.36307377 0.33846396
4910 0.02794997 0.18009616 0.10488131 -0.14747985 0.2621767 -0.08279489 0.27993572 0.1046934 -0.34439984 -0.1375909 -0.5930072 0.22500007 0.24789713 -0.01615606 0.28908536 0.24350724 0.36969742 0.58205205 -0.20616348 0.42450264 -0.14968349 -0.39503273 -0.05172182 -0.05769318 0.024776978 -0.097951755 -0.29374972 0.68376637 0.060560983 -0.055767957 -0.053448193 -0.24385579 -0.4887875 -0.13726482 -0.0012595201 -0.07038622 0.07452067 0.29339293 0.18973635 -0.1867434 0.02555247 -0.016274363 0.19671184 -0.5263717 0.2853877 0.12599222 0.3269861 -0.06779204 -0.07390653 -0.70538116 -0.17067616 -0.24392556 -0.08677897 -0.27257445 -0.16139805 -0.2129544 -0.19264033 0.15929046 0.19527775 0.22635847 0.27179518 0.0962091 0.2650687 -0.42250696
1006 -0.24077006 0.09818993 0.07267321 -0.12279292 0.16175123 -0.13947408 0.32464918 -0.12557858 0.26939133 -0.07672185 -0.730626 0.20329335 0.55914795 -0.2377263 -0.08372309 -0.018985914 0.28831065 0.27259618 -0.08695873 0.1474623 -0.31474313 -0.06098676 -0.4708719 0.0020589577 0.19127253 -0.124252304 -0.28976783 0.39082918 0.13589028 0.17307335 -0.3832537 -0.15011135 0.119048044 -0.046799038 0.17356011 -0.030838272 -0.26951244 -0.009899688 -0.1930808 0.1362203 -0.085380375 0.31695408 0.4785869 -0.088468805 0.01195844 0.57605684 -0.041775748 0.26153773 -0.3939164 -0.6145419 -0.31969383 -0.029446695 0.30549598 -0.09832465 -0.04249623 -0.36345345 -0.2727838 0.1736453 -0.09486016 0.07980184 0.28449687 0.039198015 0.2910069 -0.43786925
4927 0.0074977446 0.42106608 0.20816915 -0.28251687 -0.1506758 -0.08450663 0.27925834 -0.046412285 -0.24047495 -0.3498952 -0.3295795 -0.37651494 0.56690127 -0.07883027 0.09140576 0.37379822 -0.19228366 -0.017495569 0.14891145 -0.08409369 0.14197345 -0.4481072 0.14578336 -0.14049591 0.096758485 0.1894935 -0.41197038 0.29062343 -0.044933513 -0.24802151 -0.20714691 0.14854312 -0.17168441 -0.4120982 -0.14156918 -0.26832607 -0.6685315 0.22236422 -0.37499216 -0.124982424 -0.64402443 0.18464202 -0.18344547 0.09081323 0.0016532606 0.16543737 -0.12127603 0.33815163 -1.0418481 -0.2706855 -0.0048456993 0.42515233 0.30240983 -0.29029477 -0.1358211 -0.06959509 0.029017588 -0.14621602 -0.6107487 0.14940001 -0.13982342 -0.4048637 -0.35757327 -0.23633154
4891 -0.191743 0.39248553 -0.050882533 -0.13638921 -0.19334622 0.05871694 -0.058391247 -0.4580437 -0.10155263 0.14947131 0.3487098 -0.5877565 0.2193926 -0.27773726 0.47811565 0.5132782 0.47842035 0.1266769 -0.06788489 -0.36055407 0.28911418 -0.27453455 -0.28220758 0.041402735 0.049811583 0.015639625 -0.23159567 -0.028521974 0.13851875 -0.023895063 0.3237524 0.53455704 -0.8631284 -0.0130547 -0.349651 -0.33060887 -0.2415629 0.17131247 -0.09905593 -0.051575232 -0.09627485 0.4768692 0.25821224 0.023083229 -0.21059214 0.13512476 -0.31263036 0.43859437 -0.31810006 -0.16123524 -0.14733519 0.6456572 0.26411507 0.0422561 0.42327818 0.16991088 0.41958722 0.23503137 0.5314351 0.078481 0.18362018 -0.17978755 0.05192446 -0.021209992
4609 0.08323474 0.121459275 -0.008698658 -0.17931198 0.16114224 -0.053922556 0.6630423 -0.4303955 0.08233639 -0.23754767 -0.2562438 -0.10160298 0.47134095 0.0068016504 -0.23146313 -0.16103101 0.053922918 0.58996636 0.47086123 0.048444852 -0.10365331 -0.25102964 -0.0516063 0.32140383 0.12078602 -0.43585342 -0.2110985 -0.036379967 0.001906476 -0.005262883 -0.4812304 -0.05793132 0.27640435 -0.18458575 0.09471948 -0.1454323 0.084947705 -0.015287778 0.12564342 0.17341039 -0.5892738 0.393747 0.062312666 -0.42949882 0.20150901 0.6270655 -0.33035377 -0.35819605 -0.4442543 -0.15486139 -0.16645555 -0.015916435 0.26949844 -0.06377461 0.43166706 -0.3578567 -0.2262348 0.35625464 -0.12965299 -0.24087024 0.03381994 0.15672454 0.29889515 -0.3338774
4959 0.5811139 0.5232498 0.78319466 -0.26846546 -0.29433656 0.5327907 -0.47271794 0.496364 -0.3784244 -0.319817 -0.1244479 -0.19014668 0.6729128 0.25070027 -0.089798816 -0.05844878 0.3545868 0.0991831 -0.3262375 0.16879176 -0.0011857838 -0.09149419 0.66746145 -0.26265824 -0.2525247 0.30401134 -0.04204874 0.66760445 0.2164553 0.15852977 -0.22836636 -0.27462316 -0.48357606 0.09945441 -0.20558123 0.24332143 -0.16619319 -0.06535384 -0.42529377 0.7813808 0.57219255 0.44268155 0.5027352 -0.192712 -0.6598483 0.25299528 -0.57748604 0.1472579 0.20663606 0.29247403 0.5755684 0.46509895 0.67029524 -0.19010578 0.2301327 -0.06341586 0.32928053 0.07817147 0.24903256 -0.72544193 -0.2727864 0.30152076 0.07272152 -0.18870784
4942 -0.24509275 0.09465852 0.78820276 -0.10928897 -0.16286549 0.13318576 0.20966014 -0.06186538 -0.3798034 -0.19331416 0.23521096 -0.48062012 0.40458307 0.13475521 -0.1970686 0.6106478 -0.031890027 0.35116732 -0.70553386 0.27880877 0.028530402 0.06671844 -0.16393667 -0.2884925 0.8427288 -0.15306754 -0.06866076 0.28042743 0.47482562 0.49720985 -0.85247844 -0.2258815 -0.5799298 -0.02857581 -0.043402962 -0.5433875 -0.12427862 0.32079223 0.19706574 -0.13161494 0.068496175 0.2431247 0.27578038 -0.17876968 0.27797922 0.15174247 0.14736715 -0.08012595 0.27238548 -0.26075384 0.034100536 -0.11923431 -0.1844007 0.66644365 0.21926542 -0.15381114 0.39245206 -0.28738898 -0.06244226 0.3567806 0.19313638 -0.07203014 0.3146288 -0.35261416
1001 0.093119584 -0.057717144 0.22629842 0.23309126 -0.3890763 -0.2470287 -0.0020606455 -0.49227035 -0.8826567 -0.19046642 -0.15447971 0.032325193 0.3728424 -0.46903712 0.01674262 -0.33778858 0.25758648 0.024988929 0.15783638 -0.7896853 0.1337096 -0.41704166 0.10042677 -0.027982354 -0.025297433 -0.0032559743 -0.28968883 0.1824937 -0.15253969 -0.12078264 -0.8839531 -0.42131627 0.22042048 -0.036775574 -0.058938313 -0.6074746 0.45432568 -0.14043266 0.27312595 0.5352153 0.24884841 1.1277624 0.347722 -0.19559921 -0.1608599 -0.52052903 0.43706572 -0.053723425 0.47965193 -0.29373932 0.28926373 0.074259914 -0.5180832 0.010094688 0.06094783 0.08488848 -0.530505 0.26023835 0.1834812 -0.6356114 -0.09276619 -0.24066114 -0.20850128 -0.39209157
4901 -0.0060456856 0.17994787 0.038949028 -0.19023113 0.096168965 -0.16204254 0.38126087 -0.04758165 0.0154731525 -0.3049518 -0.3949181 0.27999488 0.28160545 0.14801276 -0.1129608 0.12297763 -0.04372492 0.3503807 0.049002737 0.08708699 -0.40334442 -0.2831486 -0.03808654 -0.32606485 -0.29070047 -0.27345815 0.022412673 0.1006623 -0.26280785 0.24466653 -0.35136354 -0.27027455 -0.1229889 -0.14746623 0.07869009 0.0892296 0.19356929 0.052947015 -0.35576397 -0.31044582 -0.055031452 0.6496511 -0.04425644 -0.360647 0.17320366 0.60034937 -0.06951507 0.15896575 -0.0058761844 -0.121236265 -0.29086 0.075443566 0.37839866 -0.046300586 -0.02735249 -0.03380446 -0.41566527 0.3491626 -0.29539996 -0.091746405 0.012748775 0.013644613 0.43827033 -0.21216342
3262 0.114755675 -0.12858938 -0.23790747 -0.55725765 0.15450168 0.061750308 0.40910408 -0.026013145 -0.15683708 -0.12712565 -0.36011177 0.31192917 0.7414581 -0.17449585 0.20561378 -0.036481757 -0.23909773 0.25443703 -0.028971232 0.35862428 0.10646289 -0.07257268 -0.054034065 0.27457026 0.41443133 -0.25728473 -0.72964907 0.45350406 0.27783138 0.17881782 -0.42848554 -0.04464424 -0.3377429 0.19882861 -0.035871923 0.03557995 0.058258124 0.10263529 -0.3471245 0.20162977 0.1912104 0.5678438 0.27964112 -0.21922082 0.11696904 0.35115173 0.4935928 0.13652354 -0.0617368 -0.016751066 0.15082686 -0.02544369 0.21443655 0.10402303 0.020664817 -0.062843636 0.112052605 0.21399805 0.037567288 0.01722258 0.5514047 0.43146402 0.12036492 -0.06786074
