4921 64
4121 0.03223812 -0.13256456 0.16894482 0.12788048 -0.04227737 -0.2602068 -0.050015185 0.1423178 -0.27158508 0.0115934955 0.28609827 -0.021044614 0.08893868 -0.053037405 -0.024942014 -0.1870055 0.16654904 0.06811324 -0.11778434 0.23893431 0.060779054 0.26755828 0.09662531 -0.1431938 -0.0057446216 0.023572283 0.08523698 0.042503253 0.14377761 0.072877154 -0.13749886 0.05495579 -0.29904404 -0.11802108 -0.1014313 0.031072248 -0.07152675 0.15955369 0.03891378 0.19211558 0.11273772 0.109441824 -0.2453595 -0.102928326 0.13083337 -0.16176277 -0.036429767 -0.19297089 -0.07254492 0.27104658 0.06083257 -0.0033729342 0.044520702 0.05869509 0.07018391 -0.080559246 0.07960142 0.02535483 0.044304673 -0.047350254 -0.04703425 -0.06096314 0.06785905 0.086652115
3335 0.08264893 -0.1538136 0.017324824 0.07323407 -0.0060779634 -0.31686035 -0.028370706 0.06580982 -0.3112753 0.07517612 0.32310113 -0.14438866 0.0977138 -0.07682161 -0.12757012 -0.09188761 0.25458154 0.07013521 -0.07426536 0.18373908 -0.010668954 0.31589437 0.13146721 -0.22300698 0.06271417 0.0052169035 -0.023496088 0.16841795 0.19986898 0.07236835 -0.090063244 0.2338389 -0.2444873 -0.113790624 -0.22261004 -0.21813981 -0.05028727 0.053627655 0.15095077 0.15685757 0.29052016 0.121011786 -0.10405578 -0.25040945 0.042767346 -0.14453912 -0.031472143 -0.17729813 0.06218328 0.33041236 0.12278794 0.13971075 0.008717198 0.09479072 0.13080625 -0.05114086 -0.04761431 0.08568067 -0.049292695 0.03190552 -0.1369271 -0.11520424 -0.023412831 0.07621495
381 0.07172276 -0.019655295 0.15996729 0.01893378 0.013919313 -0.31255424 -0.012927428 0.055855587 -0.36205998 0.1632576 0.25362962 -0.12496912 -0.150987 -0.1365492 -0.09282197 -0.008712357 0.14544742 0.003610289 -0.0078178905 0.26426294 0.18362808 0.24506171 0.12810004 -0.08088647 0.03474924 0.038862705 0.04100555 0.039653752 0.14622892 0.21525148 -0.11894668 -0.019894134 -0.19848819 -0.044361446 -0.008441086 -0.09173856 -0.17394343 0.05970027 0.07839239 0.1556347 0.14485064 0.11850859 -0.13907366 -0.06858434 0.13339159 -0.117864154 0.042417876 -0.10970853 0.20274875 0.15478243 0.05344179 -0.08309374 0.06155114 0.07958954 0.08857391 -0.1890293 0.025920294 0.18801366 -0.18489008 0.065903455 -0.073537916 -0.14203347 -0.10937842 0.009938289
2730 0.06640188 -0.06596363 0.072876185 0.0679691 0.03043572 -0.3758172 0.10052887 0.069094576 -0.1804225 -0.22042625 0.21444348 -0.046027537 0.21990663 -0.20653552 -0.11749267 -0.09423894 0.03250987 -0.06278551 -0.0127634425 0.35743004 0.024342442 0.20103906 0.2425459 0.022347301 -0.022147514 0.15334244 0.04204674 -0.16835296 0.024376364 0.17342386 -0.27395865 -0.020527918 -0.17242365 -0.1108364 -0.02532137 -0.076088674 -0.36420172 -0.033391528 0.0145363305 0.21258406 0.1936302 0.24361399 -0.039402623 -0.038197804 0.20090231 -0.044365868 0.1224392 -0.14927575 0.06875494 0.24494693 0.028260253 0.085482985 0.1684078 0.14166157 0.058590267 0.103592016 -0.066866934 -0.018774968 -0.113657884 0.050204754 -0.090426445 -0.19333267 -0.08088775 0.021242961
1875 0.074447416 -0.2735283 0.0052032922 -0.029913869 0.15368976 -0.17859812 -0.03814005 -0.04083305 -0.05169603 0.1622437 0.34785986 0.026465556 0.14347577 -0.30286187 -0.018534107 -0.096692204 0.10709054 0.025301412 -0.12530908 0.23202533 0.003653652 0.35099193 0.29797032 -0.2400867 0.022333119 0.17371458 0.11774962 0.06061127 0.23801142 -0.034808576 0.05255317 0.2624532 -0.26490295 -0.021155646 0.024485465 -0.079682514 -0.011897857 0.0075238873 0.020557418 0.14222838 0.053567637 0.17728627 -0.100868456 -0.025985215 0.099911585 -0.14998867 -0.031652454 -0.07480641 -0.011662801 0.18927138 -0.114289224 0.15145755 0.16702689 -0.053585477 -0.011335442 0.05326992 -0.008735829 0.007203673 -0.17993557 0.08751999 0.22958553 -0.13683315 -0.105189875 0.16126093
3360 0.010338912 0.00079405116 0.051639628 0.045542512 0.04342805 -0.2745558 -0.14713672 0.10345388 -0.36543941 0.11051046 0.263667 -0.050519638 -0.025382236 -0.02915789 -0.09682246 -0.082420684 0.1636313 -0.06460132 -0.10570312 0.4484282 0.20155764 0.21207376 0.10111843 -0.1070682 -0.09276698 -0.0010829959 0.07046351 0.053839453 0.22476286 0.19256559 -0.1377535 0.01822574 -0.15116851 -0.06717628 -0.06514685 -0.24268502 -0.16049305 0.07499603 0.14830817 0.20179756 0.18886036 0.05559477 -0.05620313 -0.13660116 0.02577701 -0.1981704 -0.07687652 -0.15660517 0.20158157 0.24614064 -0.022489995 0.09750446 -0.03825022 0.11449986 0.17074075 -0.08094647 -0.0076079695 0.04181392 -0.24632248 0.057792246 0.0062798643 -0.15964928 -0.12664452 -0.021052178
1103 0.08422419 0.04026949 -0.02164734 0.100999676 -0.026885338 -0.3425155 -0.1415544 0.07866455 -0.3423402 0.1373516 0.2232317 0.0033766022 -0.10015725 0.03111102 -0.0130083235 -0.046681065 0.2553665 0.07957884 -0.1696603 0.3566423 0.22579156 0.25625345 0.1144931 -0.1233601 -0.09460449 -0.06084855 0.0049662944 0.14972165 0.1315512 0.24359937 -0.12099022 0.031771563 -0.13510227 -0.071917444 -0.16198687 -0.25994062 -0.14032252 0.02288008 0.18043765 0.18409453 0.19536738 -0.012263173 -0.11253746 -0.19090962 -0.1051273 -0.15889595 -0.1465837 -0.25549865 0.08754901 0.22718568 0.059296798 0.0007459982 -0.03572232 0.14490552 0.21709462 -0.104534656 -0.026263935 0.06934743 -0.2864875 -0.01979083 -0.12369483 -0.2774127 -0.11056457 0.14722173
273 0.11989462 -0.20287725 0.0002281213 0.27945328 0.07616302 -0.15644619 -0.12275629 0.10153028 -0.33750588 0.08202123 0.31697497 -0.13956909 0.06346933 0.020996844 0.038834475 -0.13135386 0.20922597 0.10351062 -0.06613955 0.2974871 0.25366944 0.36391434 0.03550273 -0.117110126 0.08185577 0.17938772 -0.07185552 0.03440225 0.07556394 0.16379875 -0.04879766 0.22978109 -0.23570624 0.023103762 0.01452134 -0.23024276 -0.03851476 -0.11131328 0.16968495 0.33509618 0.1309157 0.06316199 0.03201067 -0.22692883 -0.013531192 -0.08745686 -0.082587525 -0.106605954 0.020944413 0.44319075 -0.0032833116 0.20658386 0.11286975 0.009043629 0.16367353 -0.013415189 -0.14856312 0.07264476 -0.16345902 0.09425938 -0.0023900864 -0.082343206 -0.1264136 0.08573923
4141 0.07043583 -0.09444726 0.08438538 -0.046565734 -0.07040665 -0.42115992 -0.026283426 0.023570376 -0.27850375 0.106450796 0.22825183 -0.1578074 -0.09671415 0.056792714 -0.03858338 -0.1533393 0.218839 0.1921222 -0.058925975 0.19532335 0.30812138 0.31886575 0.16864556 -0.13079068 0.03848966 -0.15842164 -0.042470384 0.21019438 0.14097053 0.12259568 -0.14417654 -0.015501535 -0.23361164 -0.09064954 -0.16605501 -0.18749057 -0.029318612 0.12396724 0.15199743 0.29749903 0.23239256 -0.112787284 -0.22111754 -0.22415058 0.12111109 -0.11534456 -0.11022999 -0.06700752 0.08625139 0.25512323 0.05981039 -0.0087090535 0.0039868844 0.2486178 0.22630969 -0.12190495 0.018141149 0.07900767 -0.23384081 -0.059069015 -0.10965525 -0.23154159 -0.080113396 0.035997625
4948 -0.026591795 -0.03939051 -0.0033176283 0.13578199 -0.024297284 -0.3239495 -0.19505455 -0.026340751 -0.17630823 -0.12576517 0.25710097 -0.2364209 0.23914918 -0.09538796 -0.07168267 -0.059898164 0.18893392 -0.1987337 -0.060908582 0.25647327 0.045938984 0.3085207 0.082167625 -0.15165968 0.1749494 0.11760012 0.035390753 0.1724751 0.13627182 0.05939828 -0.07905228 0.09363895 -0.41910002 -0.091966584 -0.11514067 -0.22533807 -0.047608532 0.01138834 0.078340776 0.22691795 0.39840585 0.08893837 0.012954901 -0.17143291 0.021901207 -0.060889002 0.10399493 -0.15854517 0.07514408 0.24042384 -0.081987314 0.12481481 -0.07940812 0.12832534 0.16406474 0.04170962 0.027670518 0.057039764 -0.2574361 0.19717005 -0.2569323 -0.14005828 -0.102509536 0.054337576
217 0.11392732 -0.2839971 0.09625783 0.17700607 -0.13182664 -0.36595258 -0.10646102 -0.10706311 -0.20103738 0.07791986 0.2193695 0.053173084 0.24495941 -0.15330821 -0.09791826 -0.117295295 0.12515874 -0.05793489 0.057320982 0.06206481 0.015249914 0.22514658 0.075883515 -0.37202117 -0.078300394 -0.086016975 -0.10728128 0.27830213 0.26154533 0.1872763 -0.0835863 0.1945461 -0.099742 0.007823019 0.03709913 -0.22214925 0.08663611 0.010514338 0.19333325 0.091013 0.121228956 0.21777569 -0.07736051 -0.1951545 0.16184352 -0.015369826 -0.017847283 -0.12856819 -0.061079286 0.33290464 -0.18403414 0.11534457 0.04657093 0.14649956 0.1256975 -0.08397455 0.09802104 0.16316368 -0.20265326 0.065857 -0.04110314 -0.046777546 -0.11471163 0.263088
4230 0.053726632 -0.11115032 0.15341473 0.048265517 -0.12954026 -0.19345781 -0.16004604 0.23280302 -0.3662471 -0.009642194 0.27936867 -0.2732643 -0.15953575 -0.0056177354 -0.10537484 -0.1688915 0.19344185 0.16254723 -0.14932027 0.24103974 0.12382993 0.4108322 0.06462219 -0.26172218 -0.037864994 -0.08920265 0.022276126 0.26008064 0.25527644 -0.0129609415 -0.04609021 0.07585327 -0.27229115 -0.044669505 -0.23854841 -0.31789327 0.20007375 -0.07716401 0.18491335 0.15507683 0.13041358 -0.06571008 -0.20308553 -0.10145873 0.011420311 -0.15134276 0.044486873 -0.17245339 0.23385608 0.23406139 0.00877074 0.056251336 -0.24415332 0.34189147 0.2658342 -0.3144092 -0.09573458 -0.08283915 -0.2753604 0.09322427 0.09796983 -0.3533921 -0.1346009 0.1656651
211 -0.016174985 0.08800046 0.04007683 0.18128179 0.20824285 -0.40939185 0.2583155 0.1715707 -0.19499326 0.035307404 0.0043094372 -0.20678157 0.1069701 -0.22667019 0.065156445 0.009817473 0.039474394 -0.17962736 0.07899697 0.36381534 0.40574923 0.21003233 0.25794622 0.11813643 0.030271068 0.17784426 0.2505344 -0.2834821 -0.06843287 -0.025127614 0.05735839 -0.009385036 -0.4076645 -0.027077617 0.0891584 0.13464329 -0.33672354 -0.15788859 0.052747466 0.27030766 -0.095005125 0.21064097 0.11676702 0.19423418 0.32248476 0.008027556 -0.17732769 -0.18893501 0.023546228 0.035826486 -0.034450714 -0.05436576 0.20052595 0.21387582 0.18771799 0.09336198 0.05590798 0.19430062 -0.2041295 0.21224 0.26948556 0.12920438 -0.076860845 0.2025341
3778 -0.067058004 -0.0050602974 0.10561232 0.15014757 0.119284146 -0.361313 0.20340668 0.4090613 -0.006092939 -0.16517748 0.17030361 -0.08912232 0.15766105 -0.16722308 -0.06637501 0.046673402 -0.17186573 0.0034495066 0.1429584 0.61403614 0.08817761 0.07503305 0.09286409 -0.010611832 0.09838345 0.019619431 -0.25141516 -0.4834433 -0.31055394 0.259898 -0.3894068 -0.07883749 -0.1601095 -0.111094445 0.30437106 0.09673893 -0.22973764 -0.058628928 -0.008288453 0.25271872 -0.16826887 0.28725484 -0.33684734 0.16494691 0.111084886 -0.2877063 0.48310605 0.019206693 0.04089961 0.013675826 -0.1741747 -0.22369932 0.22246023 -0.1402985 0.06586685 0.35841796 -0.046339873 0.080377884 0.031490855 -0.07264393 -0.092660055 -0.10540452 -0.121028684 0.14929534
4498 0.051231023 -0.0949738 -0.08299008 0.030859383 0.26601452 -0.24891804 -0.009523653 -0.23902135 -0.17385668 0.12510821 0.2761939 -0.07819133 0.028871313 -0.38872695 0.014143548 0.014664851 -0.012537971 -0.1948098 -0.048861444 0.35769838 0.022696935 0.1591225 0.42222005 -0.38894594 0.06624908 0.10440295 0.098226376 0.017287178 0.47830528 -0.09128975 -0.035056338 0.31237525 -0.28966942 -0.02457724 0.13249785 -0.16701064 0.038903408 0.07891171 0.057148814 0.39407748 -0.08533753 0.18387237 -0.017043889 -0.082449034 0.17441414 0.027554596 -0.17258643 0.04818566 -0.13713193 0.109730676 -0.1314268 0.38995534 -0.0288385 -0.12085752 -0.10391665 -0.054413363 0.0054292604 0.003909318 -0.35023198 0.22499438 0.20540525 -0.11893194 -0.2797041 0.074468814
3222 0.0040928177 -0.07793991 0.015408934 0.084848374 0.074076705 -0.33239388 0.09948962 0.19551495 -0.058983266 -0.4048732 0.15865281 -0.057835918 0.14952259 -0.2350372 0.06542131 -0.20527539 -0.4195076 0.14726764 -0.13427071 0.42660925 0.2576429 0.2043543 0.23514691 0.114104025 -0.022350747 0.26882496 0.21642175 -0.47812355 -0.02831326 0.27846363 -0.24469662 0.034718964 -0.227413 0.07677269 0.20691042 -0.006415863 -0.45468214 0.01171158 -0.023346392 0.1935322 0.10353833 0.2940024 -0.09465332 0.17430691 0.11356821 -0.21182856 0.3339626 0.120913066 -0.09985769 0.18500066 0.017405268 -0.13856666 0.29456124 -0.11361491 -0.0048901597 0.20678821 -0.058481507 -0.027378822 -0.10008057 0.1784941 -0.053523034 -0.081386864 0.014055149 0.11535903
4294 -0.059987936 0.016169436 -0.075147115 -0.14204554 0.17329034 -0.24376248 0.09267524 0.14400733 -0.06596961 -0.25844187 0.21565036 -0.1725131 0.20145598 0.07539471 0.11151737 -0.23292325 -0.14941569 0.0792868 0.0729504 0.6092355 -0.18098716 0.43381053 0.11388163 0.003371437 0.33593002 0.4013602 0.21614622 -0.19673514 0.09548088 0.09179532 -0.29477137 -0.023908155 -0.19421162 0.07297439 0.37586543 -0.03418748 -0.3513075 0.065827005 -0.0532184 0.29789126 -0.13881223 0.34161583 -0.15584832 0.13645114 0.24765578 -0.15159085 0.3195493 -0.060667127 0.2952527 0.13138364 -0.10278193 -0.22833483 0.3446871 0.101475716 -0.20730968 0.40038502 -0.108811885 0.07480133 -0.059239186 0.196861 -0.18540591 -0.1395093 0.16876575 0.10790526
1894 0.25138807 -0.16108792 -0.00531768 0.27178046 0.05135041 -0.1795084 -0.29354185 0.09580456 -0.24122031 -0.05741364 0.12368039 -0.05316329 0.024638113 -0.045822002 -0.07829331 -0.005462048 0.25947267 -0.026953077 -0.0073951697 0.34154454 0.16283019 0.25527298 0.22000986 -0.26303506 0.10170557 0.14372487 0.10940723 -0.0003004304 0.19758043 0.08885999 0.046235684 0.14473724 -0.13008904 0.056199383 -0.38550064 -0.4833402 -0.03191495 -0.22755007 0.16299805 0.36963704 0.19864388 0.0516081 -0.29886615 -0.21146767 -0.016558103 -0.16427918 0.035771895 -0.0985462 0.05856504 0.34935772 0.031505983 0.09315691 -0.13359256 0.24717103 0.12841491 0.06798399 -0.06370435 -0.029488798 -0.20416242 0.025076898 -0.10997272 -0.14675623 -0.2002952 0.038059916
290 -0.22320661 -0.107266344 0.10238866 -0.043159105 0.012640752 -0.29851413 -0.103922226 0.14400792 -0.25119802 -0.16140902 0.2651187 -0.06362045 0.21651553 -0.012663284 0.098515436 -0.042157017 -0.14542466 -0.19400533 0.12438902 0.34548184 0.2951924 -0.018610548 0.06627692 -0.19997959 -0.48508692 -0.18605459 0.17546694 0.02947105 -0.29394424 0.25983053 0.0968573 0.051631223 -0.13465863 -0.084050596 -0.08969577 0.09942743 -0.08491432 0.085068084 0.26292944 -0.2266383 -0.19175829 0.3633463 -0.18635504 0.23040493 0.30278653 0.024379704 0.16573042 -0.08693769 -0.1581805 -0.23509192 -0.025881583 0.009151707 0.20171708 0.05827885 0.26928863 0.26296744 0.17320625 0.1843413 0.059266526 0.06530894 -0.21188691 -0.13949539 -0.09557017 -0.30957785
4 0.096792325 -0.05039456 0.19712782 -0.055114817 -0.07655293 -0.19724317 -0.15372324 0.16725004 -0.22671252 -0.013643283 0.03771577 -0.32761127 -0.28673503 -0.15246078 -0.23213188 0.028068308 0.29619718 -0.040903106 -0.10869769 0.35919672 0.29662013 0.37989837 0.14194761 -0.31649446 0.07876525 -0.002614388 0.35746402 0.049590822 0.15275401 0.07520833 0.05077935 -0.037435446 -0.18616723 0.15110669 -0.24138701 -0.42640647 -0.07768764 0.052750897 -0.031316947 0.41428444 -0.018516582 -0.060571216 -0.1896398 -0.23776154 0.119711265 -0.1510243 0.12981273 -0.06106312 0.16156143 0.09918208 0.012094552 0.15590228 -0.004004309 0.14910881 0.25596914 -0.031942356 -0.0023705112 0.13515513 -0.39217785 0.02391501 -0.107104875 -0.07499744 -0.37912524 0.07471267
4225 -0.097239494 0.019732146 -0.15269653 0.26112825 -0.35032275 -0.20051084 0.040048394 -0.04135524 -0.14565942 0.054316927 0.38138613 0.05731077 -0.013128806 -0.04788541 0.41250297 -0.034576554 0.040305555 0.06970363 0.185472 0.5875942 -0.12341623 0.108996734 0.21187906 -0.13353716 -0.09365121 0.026762223 0.20233627 0.14749546 -0.21479198 0.022084665 -0.3249261 -0.21800318 -0.035911515 -0.09868253 -0.1349408 0.24309155 -0.07994003 0.042363916 -0.15421622 0.0397403 0.15955453 -0.07494435 0.070747524 -0.13507627 -0.16566043 0.053944986 0.26812363 -0.39013767 0.08700081 -0.19720973 0.07205117 -0.060253676 0.11252003 0.16264582 0.24019 0.31910604 0.5917363 0.57909334 -0.59048015 -0.00020442976 0.049258955 -0.5008894 -0.15774968 0.23103088
3662 -0.059306696 0.019110056 0.013829138 0.105107225 0.119819485 -0.34277534 0.16923004 0.44866604 -0.06892505 -0.28451723 0.038810063 -0.12249153 0.35069484 -0.15627119 0.052237425 0.12421112 -0.15217255 -0.0163002 0.17030147 0.6694495 0.1509696 0.07380445 0.18684405 -0.008702055 -0.04305128 -0.0022810928 -0.2697258 -0.5985418 -0.32080257 0.35748047 -0.44183394 -0.09005022 -0.025371175 -0.13784924 0.3463521 0.0009199499 -0.39589933 -0.08492825 -0.01086309 0.18145977 -0.06651237 0.334927 -0.20069447 0.17437755 0.15801781 -0.26110473 0.4615514 0.10313296 0.1092521 0.096800596 -0.17843513 -0.22115517 0.14701033 -0.09530778 -0.02117378 0.2668969 -0.042934265 0.008088532 0.025790887 -0.2056192 -0.17613241 -0.08620742 -0.07377029 0.105506115
1213 -0.03826743 -0.2673289 -0.056843303 0.022387428 -0.27023643 -0.21702388 -0.1366706 0.049812682 -0.40860426 -0.060891673 0.23810981 -0.3686346 -0.10760808 0.17103831 0.029559653 0.013894146 0.29839626 0.16623728 -0.016858263 0.18220814 0.17110051 0.37538427 -0.06506931 -0.33564246 0.12665948 -0.2027191 -0.11553349 0.13255697 0.18960948 0.12860557 -0.072168216 0.07358219 -0.06524671 -0.0969015 -0.24863572 -0.2892896 0.38584033 -0.13957903 0.28563747 0.20052567 0.15790163 -0.0048277043 -0.21030925 0.05882823 -0.054851312 -0.27466848 0.089602716 -0.021583246 0.19867456 0.26215976 0.011483616 0.13868025 -0.31712162 0.22158463 0.33969426 -0.24167897 -0.09445205 0.16738689 -0.20602617 -0.065239236 0.049933203 -0.32406843 -0.23484771 0.28492722
2482 0.12603346 -0.18603246 -0.14342454 0.21621186 -0.11954087 -0.010576565 0.06210162 0.3476818 -0.23243813 -0.013030063 0.25903502 0.06384318 0.43831855 -0.4149579 0.18143448 0.027564669 -0.31316727 0.17204212 -0.11351398 0.39094242 0.31436908 0.11314541 0.26481327 -0.22274417 -0.042086907 0.40973485 0.14085664 0.003146915 -0.09293132 0.116929285 0.06448884 0.06646511 0.03726939 -0.17835763 0.027079232 -0.077275895 -0.121590674 -0.26261365 -0.11378983 -0.1577755 -0.27096793 0.30208227 -0.20056514 0.06499282 -0.2135976 -0.045975555 0.15662934 0.14823796 -0.09698558 -0.024900075 -0.15704966 0.06986278 0.2661206 -0.090845354 0.0031567207 0.40906602 0.2358447 0.27081478 -0.17881635 0.047380235 -0.007610302 -0.05136199 -0.06154503 0.3782303
1619 0.31307 -0.18437828 -0.07326819 -0.03492587 0.16549705 -0.21275887 -0.10214673 0.045745287 -0.20745496 0.073652945 0.20981275 -0.117866494 0.18343025 -0.06265732 0.043897018 0.036700442 0.33789277 -0.06917631 -0.19925547 0.460393 -0.027245872 0.40144297 0.07352914 -0.07902428 0.18331705 0.07212537 -0.072197594 0.09623068 0.40097523 0.14285585 -0.12306815 0.40508872 -0.14082584 0.06010371 -0.38097945 -0.34653103 0.06093505 -0.17647329 -0.049412034 0.28613856 0.30123383 0.004410908 -0.1324418 -0.25372216 0.0066926633 -0.2874523 -0.1357986 0.03575146 -0.08454252 0.24816056 -0.19200571 0.08369058 -0.050266087 0.10987394 0.01951524 -0.028294427 -0.11611696 -0.052943226 -0.37398195 0.22469492 -0.021851316 -0.023868993 -0.1920656 0.02542478
702 0.008062925 0.30685973 0.045913614 0.1627365 0.04798992 -0.4283662 0.12497854 0.28847775 -0.13427798 -0.15729573 -0.0789553 -0.19386135 0.19582322 -0.2872483 0.14195485 -0.25228757 -0.44005004 0.06745092 -0.2138892 0.34025696 0.15659091 0.21753919 0.6845939 0.022318712 -0.061598305 0.12811069 0.19991834 -0.4422694 0.053721923 0.36474627 -0.22870338 -0.16114159 -0.20135842 -0.102826305 0.09205393 -0.038975004 -0.3809717 0.0032534257 -0.24696128 0.26636946 0.02201864 0.22475968 0.14077802 0.037039902 0.16291045 -0.26232448 0.07504344 0.09398369 0.11704775 0.3295577 0.1422532 0.071689025 0.19317858 0.4531734 0.1415057 0.28690597 -0.03332208 0.021311186 -0.09120516 0.031021792 0.04228929 -0.1824114 0.003351902 -0.19123937
4705 0.055429816 -0.035130996 0.14819054 0.09455679 0.04170763 -0.316827 -0.044233844 0.08880513 -0.094389275 0.14434174 0.26281923 -0.23831981 -0.17426448 0.15687811 -0.18589307 0.21717663 0.15180193 0.09505965 -0.11495502 0.47063094 0.28863502 0.3182428 0.19907843 -0.21708788 0.08073232 0.05867061 0.23400122 -0.16160725 0.22052178 0.035736963 0.015518442 -0.10853354 -0.10949939 0.09710373 -0.27695626 -0.42096063 0.16125013 -0.00904771 0.23684928 0.50917184 0.21936199 -0.14749102 -0.25100905 -0.09288353 -0.051075682 -0.366373 -0.002625215 -0.01022994 -0.004264554 0.22365041 -0.07494325 0.069330476 -0.21572386 0.026488861 0.41701362 -0.07741695 -0.24820139 0.13584545 -0.430794 0.11340999 0.075983614 -0.09718287 -0.2656039 -0.12327139
3469 -0.12828313 0.13598172 -0.032978915 0.32698235 0.047872003 -0.4986483 0.17750017 0.27248076 -0.25856414 -0.2657601 0.07686515 -0.05223496 0.27239722 -0.164974 0.14146157 -0.05070241 -0.17517227 -0.11376454 -0.01425914 0.43732563 0.24780788 0.20167917 0.13532631 -0.020030271 -0.07631415 0.028025627 -0.03701782 -0.25119492 -0.35057688 0.27735853 -0.24054466 -0.07293136 -0.15540822 -0.281188 0.38464034 0.11922853 -0.36890274 0.018477473 -0.004593078 0.36122295 -0.15895312 -0.028596032 -0.24313536 0.2395073 0.14016022 -0.005661044 0.5533562 0.18039292 0.043763086 -0.12512018 -0.020479586 -0.30958435 0.0269555 0.37086445 -0.011748975 0.32090002 -0.013192823 0.33717576 0.14374033 -0.11382536 -0.080365114 -0.17363584 -0.111421406 0.1989765
4855 -0.007526129 -0.47668344 -0.1872625 0.16474597 -0.13571177 -0.18282636 -0.048220295 0.13571592 -0.31443074 -0.09826161 0.24706464 0.037009485 -0.07328083 -0.15501799 0.10861228 0.2589177 -0.10105482 0.031651556 0.10143251 0.0166848 0.089147374 0.41262922 0.40641293 -0.09444352 -0.51609844 0.22728784 -0.05089833 0.51943034 0.31120038 0.37305692 0.069038875 0.1563437 0.06446848 0.1823129 0.018512977 -0.06962011 0.010372069 -0.32392937 0.08121514 -0.03771106 -0.14509344 0.07993633 -0.2445234 -0.2548063 0.12701835 0.027174622 -0.24888225 -0.114416935 -0.26427454 0.30190215 -0.23348388 0.16822666 0.29102123 0.410617 -0.16386206 0.12591167 -0.1642317 -0.05423695 0.03827661 0.087870605 0.065206036 0.2850105 -0.23110035 0.287591
376 0.058810167 -0.004421872 0.35906637 0.19378024 -0.2861633 -0.14474548 -0.10673442 0.09620204 -0.3844541 -0.018551799 0.121343665 0.28895557 0.16325766 -0.2797629 0.1771217 -0.11049918 0.11258126 -0.026868358 0.15100475 0.024516936 -0.16719091 0.36368102 0.10055696 -0.23109616 -0.20163718 0.08173929 -0.015656605 0.16228445 0.43762127 0.3057143 0.42295063 0.09870686 -0.17130217 0.2056 -0.048732273 -0.21122722 0.08996048 -0.03264241 -0.022959929 0.48093465 0.249272 0.0023622222 -0.66041726 0.26393664 0.24092802 -0.45980674 -0.1482447 0.07247293 0.00041193102 0.11415099 -0.011008317 0.39056492 0.4715134 -0.20053552 -0.54588777 -0.089269415 0.27739462 0.28317326 -0.005545908 -0.10058308 -0.035050817 -0.15878977 0.11605557 -0.04254152
3197 0.0055582677 -0.11167711 0.105796725 -0.096846595 -0.09681268 -0.21204288 -0.16044222 -0.15153986 0.034569517 -0.16080147 0.01972227 -0.20607752 0.28755254 -0.39057496 -0.013903504 0.20670617 0.034878332 -0.046608754 0.018261109 0.54003274 0.13285714 0.09381941 0.24754062 -0.19130619 -0.20216571 -0.24841665 0.35939544 0.10587816 -0.0629209 0.38320103 0.19555524 0.30803275 -0.5594933 -0.05356024 0.09632319 -0.01552568 -0.0020114835 0.2931909 0.2728248 -0.1805508 0.044081375 0.09152622 -0.06935041 0.2007543 0.089167096 0.2572398 0.0031071731 -0.24347949 -0.48928857 -0.120148964 0.024145525 0.01601859 0.33483246 -0.063304536 -0.21331052 0.2710092 0.048925377 0.08776752 0.2937962 0.15363312 0.08587406 -0.07304308 -0.06334295 0.19907224
75 0.109055236 -0.057159405 0.10746159 -0.20131695 -0.09872578 -0.14405967 -0.27099103 -0.1331406 -0.09396119 0.110070266 0.26466188 -0.32138363 -0.13979268 0.03967709 -0.016753083 -0.1699141 -0.036114454 -0.09671956 -0.26370475 0.51674384 0.31226435 0.44399202 0.16190834 -0.32039523 -0.00872638 -0.08827798 0.22112322 0.21429002 0.28507012 0.10914255 -0.18588597 0.18441083 -0.13378792 0.046382885 -0.47974527 -0.46316448 0.15023439 0.062627755 -0.08136912 0.17924877 -0.03831347 0.05192393 -0.09731559 -0.39419088 -0.038289864 -0.13541418 0.053727206 -0.021486709 0.19178236 0.09680485 -0.03696556 -0.060523055 -0.1134853 0.29880613 0.22233434 -0.26818228 0.042750705 0.03590105 -0.5280038 0.16677853 0.040143877 -0.12656835 -0.06046993 -0.22964722
4892 -0.0074316612 0.16276535 -0.19796161 0.04907665 0.057074357 -0.39843875 0.086641446 0.12815681 -0.09439281 -0.213629 0.087180056 -0.16939698 0.2656273 -0.07973994 0.2624745 0.061363127 -0.27894673 0.020421574 -0.21057601 0.40967533 0.1271976 0.39779073 0.1818304 0.17298664 -0.13046809 0.28586066 0.11199468 -0.48523542 -0.022229802 0.46942642 -0.13396473 -0.10620776 -0.11553412 0.0011393994 0.12680253 -0.16393061 -0.5666745 0.09685885 -0.023522524 0.38184205 0.17380305 0.048947435 0.03348343 0.16517079 0.0974091 0.01004317 0.34028265 0.10036751 0.09585217 0.29649356 -0.16690427 -0.2870671 0.09935091 -0.021130329 0.07284923 0.31353372 0.053557426 0.20828779 -0.18467684 0.14783292 -0.18102121 -0.042979583 -0.19175217 -0.00020502835
3751 0.001679813 0.2177618 -0.016717274 -0.18153895 0.028344115 -0.46784705 -0.092299454 0.10214196 -0.0045550577 -0.31146207 0.08114427 -0.0074523226 0.3041171 -0.08367374 0.05810211 0.45554882 0.07424606 -0.11753301 0.07794663 0.32957247 0.2749631 0.09249348 0.34428215 0.07565965 -0.47086063 0.06556002 0.21427223 0.12383162 0.35613415 0.14245103 0.23888043 0.12696044 -0.30647072 0.11260275 0.09035542 0.099462524 0.21382079 0.00997252 -0.10784491 0.01998989 -0.014219723 0.32148525 -0.48767143 0.35271433 -0.17035483 0.034605365 -0.010791087 0.1521678 -0.3030005 -0.043027595 -0.181139 -0.27492183 0.089412324 -0.15532845 -0.20946452 0.020150254 0.27984175 0.19571051 0.007432494 0.009307728 -0.065737516 -0.21600536 0.08369413 -0.16746475
3106 0.036054205 -0.07841739 0.23214264 0.28404114 0.0526581 -0.17876223 -0.23206076 0.16783282 -0.35491866 0.0775081 0.1147885 -0.10273465 0.073575646 0.23221594 0.0030046753 -0.20800205 0.078577906 0.013995898 -0.15388979 0.2617157 0.27376464 0.39475602 0.18352564 -0.017525652 -0.08606207 0.13260116 0.17116624 0.46498847 0.3733349 0.09748609 0.113046184 -0.0076709306 -0.24520099 0.2142488 -0.39356136 -0.20020288 0.041372865 -0.2629604 0.29357424 0.2100689 -0.11773992 0.019919952 -0.33788735 -0.108438954 -0.06294751 -0.11369544 0.13567644 0.021469798 0.051668532 0.47964752 0.007916456 -0.048296865 -0.23663285 0.47491813 0.28717315 -0.18965578 0.013027154 -0.22767392 -0.3149452 0.16153656 0.08318263 -0.14629634 -0.39480615 0.05260176
4774 0.38822627 0.10153072 -0.38127595 -0.029204309 0.26597527 -0.59832627 0.08309828 0.24113451 -0.36417964 -0.35101125 0.06273953 -0.23151684 0.29253638 0.015223822 0.051086362 -0.1552133 -0.46613568 0.04677235 0.09751066 0.50867105 0.12638496 0.07492811 0.38533098 0.3818382 0.0065028747 0.084086336 -0.00470108 -0.2394481 -0.440417 0.14951648 -0.39009544 0.11111255 -0.13147455 0.03196331 0.16897959 -0.26153034 -0.4050268 -0.06948836 0.17966118 0.40801343 -0.06686706 0.28584653 -0.12450676 -0.074778676 0.29168895 -0.11117612 -0.05011622 0.22972375 -0.09486435 0.35383126 0.096033625 -0.28547806 0.23192818 0.16918674 0.046946846 0.113971286 0.07943042 -0.09149297 -0.023372686 -0.07483278 -0.23298651 -0.083410725 -0.03539979 0.20799622
4928 -0.08434987 -0.15492731 0.054779314 -0.18729676 0.1262542 -0.1825034 -0.0049218554 0.33609018 -0.28128082 -0.22908337 0.3484653 0.038019955 0.23404105 -0.12896024 0.19190231 0.2963202 0.036045384 -0.21193449 0.041055616 0.41574094 0.018860111 0.21118997 0.3079953 -0.05525153 -0.3438176 -0.08326612 -0.072398074 -0.043835893 0.008598566 0.19578503 0.5776454 -0.059044022 -0.4859265 0.22965157 0.18658423 0.31811985 0.10609935 0.5437242 -0.06170605 0.124932185 -0.0030475992 -0.19188313 -0.12178017 0.15423481 0.094615065 0.051855814 0.24360679 -0.09254581 -0.15765396 -0.3598004 -0.1324963 -0.19693434 0.10228705 -0.13261466 -0.1408464 0.28421208 -0.091232985 0.059822924 -0.21500045 0.20614474 0.13173439 -0.58609927 0.11842354 0.029862184
2642 0.052007087 0.34487206 -0.18975767 0.123282984 -0.36685753 -0.30865952 0.08934636 0.039158214 -0.12414825 0.30898014 0.08875197 0.039827265 0.39059052 0.100991644 0.06920627 0.32928646 -0.1197313 -0.18041462 0.19159918 0.4130587 0.57630074 0.18537326 0.1412594 -0.05125422 0.061531264 0.3540177 0.12435825 0.20502754 -0.43583333 0.3026978 -0.0126371365 0.39051947 -0.4248213 0.2501813 -0.37652886 0.24590637 0.325357 0.308074 0.06913957 -0.09849441 0.0232157 0.123757444 -0.41220003 0.3467625 0.13187984 -0.106127456 -0.09005656 0.030073063 -0.5269493 0.06647752 -0.031152172 0.054109693 0.13888049 -0.04935374 0.026087908 -0.026407287 -0.16360727 -0.17039764 -0.25339654 -0.0210915 0.0864815 -0.059486028 0.18544164 0.016689146
2550 0.05306328 -0.26131424 -0.060889903 0.3872118 0.21558042 -0.30300853 -0.013557559 -0.042081628 -0.12185862 -0.09735302 0.03133848 -0.37756786 0.46967423 -0.11354147 -0.011438095 -0.30176914 0.4189894 -0.281567 -0.08193544 0.13806145 -0.17381723 0.38209566 0.15453312 -0.24160013 -0.21010698 0.15595208 0.18251453 -0.07138833 0.3862626 0.18861979 -0.14673473 0.25521025 -0.2283212 0.13383158 -0.39488292 -0.20174193 0.30907273 0.058825932 -0.08602329 0.28958997 0.41551036 0.051720574 -0.51009727 -0.39339274 0.028286543 -0.21776217 0.11277956 -0.16402757 0.21745847 0.18631895 -0.16296591 0.09067244 -0.3763948 0.42785585 0.15453905 -0.13377604 0.075625986 0.015107197 0.261527 0.014876459 0.04736214 -0.36105996 -0.19233023 -0.01364671
699 0.0019946638 0.26677677 0.07842664 0.15606438 0.56428105 -0.13171038 0.02071818 0.4216522 0.03364916 -0.0026162695 -0.031639565 -0.2218217 -0.3464762 -0.46296814 0.3980428 0.34552866 -0.032290015 0.3191889 -0.1579192 0.44428217 0.13860363 0.23178352 -0.11446016 -0.47802383 0.10356105 0.11358435 0.34173852 -0.19813865 -0.23636791 0.6593678 0.08592336 -0.09904952 -0.06788763 -0.026153315 0.163321 -0.40270934 -0.040730473 -0.0019574964 0.25665605 -0.14265448 -0.02927065 0.2203693 -0.14492895 -0.1476628 0.51629364 -0.61685836 -0.1294174 -0.4650465 -0.08495277 0.28653985 -0.1981021 0.19218755 -0.13285579 0.48981982 -0.030646624 0.10257901 0.29808542 -0.41399056 -0.0640409 -0.1872752 0.09922539 0.1111444 0.4414677 0.09352297
4697 0.0010242029 -0.25561368 -0.18309604 0.024032198 -0.0023284035 0.0094890725 0.16625755 0.055348687 -0.15787843 -0.069097616 0.036362305 -0.13749616 0.6891857 -0.58205235 0.36073896 0.1797034 -0.33727425 0.0849359 0.14140345 0.83250463 0.15156908 0.18458337 -0.5366761 0.04596186 -0.20288883 -0.35303286 0.04716786 0.09356655 0.32605857 -0.14764443 -0.18105792 -0.089354604 -0.3877401 -0.016649634 -0.14245172 0.25226521 0.43476918 -0.22641158 -0.46031237 0.20080647 -0.47782832 0.11485089 0.052382696 -0.060429033 -0.0235908 -0.41967738 0.29746997 -0.21440177 -0.34401742 -0.010823075 0.091927774 -0.16657804 0.5195816 -0.06841301 -0.51990604 -0.14079036 0.07029695 0.14880864 -0.42234504 0.031803343 0.32301256 0.060265705 -0.06167992 0.12304271
3059 -0.4678159 -0.2681598 0.11511383 0.12258473 -0.21125424 0.09398847 0.603744 0.16772598 -0.6714428 0.2100132 -0.0678136 0.0333908 0.28716528 -0.39124718 0.15174505 0.12451929 0.049903378 0.45465794 0.083709404 0.6202156 0.06006797 0.1848527 0.07087905 -0.26043156 0.067573644 0.4045803 -0.030074028 0.14389955 0.20667334 0.12307461 0.014369228 0.30756092 -0.12362385 -0.31552958 -0.09796012 -0.25950265 -0.13427003 -0.11478209 0.2780013 -0.11337111 -0.3712611 0.13173988 -0.35234764 -0.034085046 -0.27600354 -0.02708437 -0.19672573 0.0044315006 -0.16386603 0.1423163 -0.54365194 -0.11649578 -0.23235734 -0.1493901 -0.4269975 0.10169793 0.40178162 0.31675416 -0.22276108 -0.035820633 -0.47793972 -0.0028583207 -0.289087 -0.06584058
4138 0.13365503 -0.34298438 0.35264772 0.07843648 0.21279109 -0.16307473 -0.23530485 -0.14294021 0.08266797 0.4701616 0.23438007 -0.18191369 0.50349134 -0.33196124 0.11874136 0.075455904 -0.05357026 0.09842139 -0.008109539 0.5337655 -0.19492283 -0.019535586 0.40680316 -0.64532816 -0.1160843 -0.27147442 -0.28654414 0.10103356 0.39768243 0.14102413 0.04280082 0.11287582 -0.4337818 0.3173552 0.337675 -0.18233149 0.075423315 -0.09978213 0.08216804 -0.122474715 -0.26246926 -0.18545115 0.14691585 -0.13093188 0.29448995 -0.18478145 -0.13754477 0.1631676 -0.09340873 0.284238 -0.23031758 0.06587523 -0.12241381 0.02871604 0.20958667 -0.024778834 -0.3421055 0.078026794 -0.23591575 -0.09080455 0.07479882 0.21712844 -0.36520183 0.03470157
4019 0.20384678 -0.402481 -0.15332611 0.3374321 0.1686752 -0.074700445 -0.2035221 -0.1102634 -0.5357954 0.2952957 0.0052467636 -0.029065086 -0.18107781 -0.36452472 -0.098182976 0.31592625 0.011253224 0.18507883 0.12592277 0.19274442 0.34629017 0.43794817 0.3557469 -0.47257382 -0.4367935 -0.24324541 0.070979394 0.052635554 0.20818762 0.09151141 0.19970824 0.016820494 -0.05552505 -0.20565552 -0.2611329 -0.28100592 -0.26166868 -0.010339094 -0.30402794 -0.38858485 -0.14026624 -0.20219395 -0.24342176 -0.02504911 0.153888 0.024321027 0.08694 0.16722901 0.09340518 0.29433924 -0.07333633 -0.04057402 0.19883756 0.115960844 -0.52544296 -0.046383012 -0.03753428 0.32715982 -0.2554172 0.2797076 -0.19202842 -0.15155151 0.10093905 0.1393019
3861 -0.044294078 -0.008778878 0.109411605 -0.1278965 0.25899217 -0.284941 -0.042389225 -0.0779058 -0.14398594 -0.09311343 -0.25201055 0.1628061 -0.0798675 -0.2260127 0.44469398 0.24042813 0.09212672 -0.16508055 0.28818482 0.5690924 0.14007376 0.10354019 0.05013788 0.035449196 -0.033512034 0.023891892 0.35284486 -0.22049688 -0.13408917 0.34519202 0.19305693 0.021005897 -0.22905178 0.22709136 0.022268446 -0.1427213 0.100340895 0.19455175 -0.030380083 -0.17077376 -0.09048857 0.14360414 -0.08528619 0.37969312 0.40951145 -0.15473628 -0.09129379 -0.121391065 -0.35180682 0.16162531 -0.008674877 -0.2898205 0.40846074 0.03388534 0.30995718 0.014603562 0.3487413 -0.058204547 0.09480674 0.24797113 0.027463434 -0.2726554 -0.27399233 0.2518302
4671 0.1883337 -0.32203 -0.068686806 -0.122277305 0.10505334 -0.15121898 0.13433798 0.17684452 -0.2463228 -0.14254169 0.3757953 -0.11560166 0.22496022 -0.2394227 -0.15035054 0.22763377 0.017201565 0.15069175 -0.29952484 0.39261097 -0.14540415 -0.08904736 0.2649311 -0.22290641 -0.21898001 -0.08908371 -0.269305 -0.0024942963 -0.14421625 0.34839442 0.441205 -0.20787357 -0.34209463 0.53793854 -0.011281849 -0.027963344 0.23430495 0.43204132 0.053955544 0.03452802 -0.11771575 0.18412076 -0.45661741 0.05410352 0.2068357 0.004320605 -0.0036113746 0.4080108 -0.24913733 -0.37171713 0.026853248 -0.16199715 0.23231804 -0.21664853 0.34072322 0.085016795 -0.06044657 0.37206677 0.021298185 0.08384788 -0.13595852 -0.23389441 0.019151187 -0.20340739
996 0.3902258 0.29715046 -0.11551588 -0.36970282 0.15883584 -0.21213149 -0.37209573 0.016515879 0.038539972 -0.24519229 0.27989325 -0.10006305 0.29196918 -0.2450227 0.11622619 0.086398184 0.06747297 -0.3805662 0.021297652 0.1756598 0.41827738 0.16854432 -0.026483068 -0.17713629 -0.13454288 -0.38025844 -0.04807889 0.2824837 -0.026345907 0.33719605 -0.08750435 0.41787216 -0.2794418 -0.078483075 0.048711058 0.32973406 0.22904626 -0.070880696 0.13038737 0.05950446 -0.09542333 0.526997 -0.06063378 0.59319776 0.18649058 0.012591543 0.1844375 -0.1937762 -0.106244564 0.08769585 -0.31008393 -0.37397483 0.26494676 -0.1139635 -0.24869919 -0.26684108 0.10678405 0.22891475 -0.3198533 0.21585326 -0.50210005 0.11383394 0.19311908 -0.33635315
3536 -0.26219755 0.04589668 0.047187936 -0.10658561 -0.11385967 -0.4693148 -0.25245646 -0.047355674 0.1255798 -0.36242896 0.122235216 -0.017712208 0.10279872 -0.09489461 0.09939287 0.48815975 -0.09296463 -0.099100724 0.11725412 0.39280784 -0.07026284 0.20143639 0.097854085 -0.07854131 -0.2077979 0.03176954 0.067499496 0.0926223 -0.43045035 0.31652912 -0.02400874 -0.08243788 -0.29118872 -0.005074335 0.018046632 -0.0733219 0.33494312 0.19105542 0.19918351 -0.33225325 0.12986296 0.19620912 -0.50429934 0.3482971 0.29424676 0.23376021 0.16456354 -0.015270715 -0.2503085 0.33140138 -0.31625253 0.20635252 0.40823936 -0.18827686 0.024616914 0.28677675 0.22829632 -0.29210186 0.25138757 0.2340659 -0.17438616 -0.117705934 -0.40122867 -0.16826977
369 -0.46301153 0.14901447 -0.09709063 0.19166625 -0.061017983 -0.8046883 -0.26542443 -0.14940935 -0.1020167 0.046842396 0.1716771 -0.15456218 -0.71170133 0.075255044 0.04950902 0.0972156 0.094408035 -0.2263883 0.077086546 0.4060543 0.4530482 0.07660133 0.3050666 -0.0847241 -0.25952983 -0.057539083 -0.18687935 0.08835847 -0.26084992 0.34235695 0.23053963 0.4016297 -0.072526984 -0.114949934 -0.29616693 -0.3662628 0.09985609 -0.37364662 0.40372065 0.37826306 0.042151134 0.31735456 0.09623561 -0.004522733 -0.24620046 0.06135721 -0.2624875 0.01613936 0.76658154 -0.020004733 -0.42376927 -0.17627652 0.047238223 -0.13685478 -0.14756468 -0.08491091 -0.32790077 0.40503952 -0.1996994 0.38707337 0.10792698 -0.20104147 -0.28855005 0.54395646
4621 -0.2441595 -0.11891477 -0.035992976 -0.039961908 0.10957047 -0.481039 -0.2917947 0.030035384 0.102060325 -0.11192871 -0.009492119 0.034067623 0.23826225 0.018111939 0.08477952 0.23216707 0.015441578 0.23058975 0.102045976 0.48987803 0.12503982 0.1556316 0.13055992 -0.09424713 -0.084466375 0.1125172 0.31552052 -0.17621037 -0.18079339 0.56788355 0.43738163 -0.056611605 -0.09987014 0.0052110394 0.089917034 0.18271016 0.13513173 0.10924535 0.038112257 0.0098020295 -0.14916413 0.0831894 -0.08442429 0.40411878 0.3637088 0.39188373 -0.023525251 0.19916788 -0.038915314 -0.07072925 -0.11645837 0.011895465 0.23227054 -0.016516589 0.14810053 -0.010434793 0.31632212 0.13972972 -0.12600118 -0.020775128 -0.11068632 -0.25809747 -0.24356875 -0.2394235
4905 0.09322021 -0.31221077 -0.038914595 -0.007707809 0.16420358 -0.022428982 0.21817681 0.21863164 0.07156545 0.2028725 0.06637365 0.08697117 -0.1910991 0.037822504 -0.09136011 0.33131087 0.03238429 -0.26334083 0.044794343 0.580229 0.1094212 0.49490708 0.54463995 -0.45479468 -0.12578909 -0.46552816 0.19059207 0.3856096 0.18579668 0.15820126 0.045074705 -0.49152207 0.23270243 -0.29521874 -0.3029205 -0.55478275 0.31813163 -0.20603734 0.24857901 0.19627202 -0.006498623 -0.1933003 -0.40599617 0.060333528 0.14899741 -0.11052106 0.007317652 0.09009016 0.019103402 0.376518 -0.1469857 -0.1581618 -0.040617943 -0.03580293 0.11970057 -0.17087106 0.058208518 0.35083768 -0.26608068 0.054289505 0.4475782 -0.021384235 -0.048942655 -0.17219393
69 0.19819954 -0.096822806 0.112167396 0.0069070365 0.0029276554 -0.07746753 0.07089793 0.010503331 0.02951299 -0.15086657 -0.11497729 -0.5058594 -0.35336274 0.041761994 -0.3639177 0.27637482 0.16221628 -0.18956465 -0.014975867 0.7534884 0.5339223 0.6138394 0.22187564 -0.2441334 0.025977824 -0.18129332 0.24496758 0.14001782 0.21171969 -0.012588601 0.07424389 -0.1082155 -0.054027356 0.011877771 -0.14287537 -0.24785823 0.013753124 -0.11561431 0.093648866 -0.01973779 0.3156839 -0.18198368 -0.3676718 -0.5273952 0.09383054 -0.18468656 0.25790432 -0.026191946 0.1098866 -0.0726996 -0.09696812 0.049306415 0.042013686 0.06600852 0.19091791 -0.24767956 0.19995195 0.23192999 -0.31192815 0.3817653 -0.36730593 -0.00041981007 0.071362786 -0.08198226
4610 0.2656293 -0.18410644 -0.17871994 0.059333965 0.047442548 -0.6339665 -0.07319625 0.31440017 -0.28464615 -0.37183934 0.052312717 -0.33240268 0.35937864 -0.57854545 0.6302427 0.24634454 -0.10208532 0.06306465 0.49703392 0.5606929 -0.47164187 0.22314471 0.20536982 0.005816926 -0.16453259 0.1800496 0.057611004 -0.047690336 -0.17215998 0.13929388 0.047664512 -0.060193796 -0.21942799 -0.5235011 -0.2552567 0.5704197 -0.26518914 -0.14972863 0.032913867 -0.58822656 0.264984 -0.18185282 -0.50031644 -0.23869793 -0.4581035 0.22544512 -0.15181541 -0.12784013 0.27689335 -0.2264058 0.29242134 -0.22307521 0.36025652 -0.33539268 0.28918263 -0.2368197 -0.15302595 0.2450495 -0.15886201 -0.046358597 0.21891999 0.3657235 0.14200048 0.25942963
757 -0.30052543 -0.657559 0.16680624 0.52282983 -0.55516404 -0.39889142 -0.17504466 -0.023126531 -0.19066246 -0.249258 0.17574954 -0.090735815 0.5022256 -0.01215543 -0.15033247 -0.38932738 0.07278723 -0.16698931 -0.049559977 0.30669403 0.11958288 0.3302756 0.077103816 -0.10537391 -0.065718696 0.32965273 0.1930194 -0.17092448 0.5852722 -0.012434805 -0.09618597 0.39743233 -0.22080992 0.050216284 0.08053316 -0.58922166 0.14314263 0.15506442 0.15134272 0.3100883 0.14862113 0.18157396 -0.39526904 -0.29348895 0.15563297 -0.3969615 -0.061940026 0.11970994 0.33541363 -0.20043504 -0.12014924 -0.09552412 0.01487852 0.24250177 0.032630134 -0.43370464 -0.18939514 -0.2463994 0.27596948 0.17842562 -0.26979515 -0.3566095 0.34552997 -0.3396842
4910 -0.1627429 -0.17808805 -0.23202993 0.10350258 -0.4217994 -0.102411374 -0.024926832 0.02536933 0.18704312 -0.036486033 0.029156191 -0.061687432 0.36083585 -0.42339593 0.9137221 -0.23098944 -0.043857574 0.08217457 -0.1593363 0.543895 0.36621884 0.02179293 -0.07631687 -0.35509875 -0.30993456 0.12910733 -0.48770714 0.06904577 0.2187108 0.25612622 0.19461386 -0.056217268 0.09827181 -0.1486097 -0.3107034 -0.122549325 -0.11857169 0.06661522 -0.3724623 -0.024514357 -0.15477145 -0.11800578 -0.22327697 -0.28411835 0.5120351 -0.16969694 -0.27161044 -0.09740915 0.078958735 0.18757384 0.014879306 -0.045506135 0.09707812 -0.15454476 -0.21013948 -0.0069495616 -0.2168928 0.83050215 -0.29189196 -0.2153942 -0.23661277 -0.11369703 -0.17214859 0.17998399
4970 -0.14500935 -0.03932774 0.22681071 -0.091514684 0.26891398 -0.4539798 -0.020469928 0.24145517 0.062362783 -0.11133091 0.3832128 -0.08857797 0.2052432 -0.31389505 0.15314245 0.46085858 -0.15403593 0.11795151 0.078393884 0.42242354 0.24634267 0.09175439 -0.037616283 -0.11935946 0.033401124 -0.11698316 0.39090776 -0.12725665 -0.004846285 0.7351779 0.23205328 0.20857204 0.21298409 -0.09014373 -0.046202183 0.03371967 -0.026601328 -0.10894102 0.027700204 -0.2931549 -0.08943388 -0.03321392 0.2022276 0.4154842 -0.072408386 0.09129499 -0.22549313 -0.07337313 -0.22124152 -0.15388958 -0.16195583 -0.24236357 0.50741 0.10696749 0.46574476 -0.05105884 0.06786587 0.0724732 0.15201344 0.12746316 -0.066390224 -0.5780814 -0.47478348 -0.11054986
3995 0.061391164 -0.5601255 0.4136758 0.058277324 0.23307365 -0.06829919 -0.2518614 0.2566048 -0.0035476314 0.2534827 0.16270995 -0.08359063 -0.05395387 0.15797523 0.18727028 -0.22033872 -0.46729004 0.08481959 -0.35888392 0.49020073 -0.3936142 0.7494191 -0.039527364 -0.28291768 -0.05171656 0.54447335 0.1292231 0.0027269856 -0.02545897 0.09452112 -0.20343779 0.77012753 -0.57251614 0.29529914 0.3935631 0.45876548 0.09713953 -0.2533587 0.034742147 -0.15678781 -0.41166985 0.39795 -0.65287477 -0.0323186 -0.25086784 -0.25679103 0.036527455 -0.5174983 -0.11540429 -0.17648558 -0.11376676 0.3240035 0.39920667 -0.3030629 -0.44284225 0.13842836 -0.34045866 0.45619053 0.33186674 -0.008737547 0.13291739 0.10345719 0.175057 0.083220474
1072 -0.31012318 0.043996967 0.1332524 -0.06659828 0.0644087 -0.5509064 0.0646569 0.48216715 -0.1609076 -0.19776234 0.34755215 -0.11360076 0.21400549 -0.11646098 0.023601178 0.25533035 -0.32929802 -0.57069635 -0.32627895 0.37266666 -0.04242398 0.008520086 0.18298283 0.1529356 -0.31540638 -0.0009830731 0.08886137 0.0335605 -0.17933139 0.19975352 0.42760262 -0.09717844 -0.22996224 -0.06298292 -0.37628663 0.013264683 0.563853 0.07902042 0.000917522 -0.36806628 -0.2754652 0.4479881 0.0023474703 0.19900663 0.36865446 0.095263086 0.19284044 0.118213594 -0.23409374 0.09310653 -0.07201545 -0.12670347 -0.005638924 -0.3254887 0.19651616 0.20633376 0.07894345 0.24880217 -0.08332226 -0.16642609 -0.25374886 -0.25195894 0.08665747 -0.01733354
1574 -0.4134049 -0.25560898 -0.15840553 0.18061298 0.43160135 -0.2496584 -0.059382856 0.49224693 0.14179325 -0.12731506 -0.036303412 -0.2720165 -0.05285039 -0.053365223 0.55005217 -0.23449476 0.5581703 -0.5471813 0.005400762 0.57210845 0.49061388 0.33600163 -0.113679945 -0.47156116 0.032256976 -0.094954826 -0.023778021 0.30285516 -0.42408153 0.16368784 -0.22338651 -0.0721243 -0.30980963 -0.070246726 0.40645918 -0.2063923 -0.2525434 0.32327515 -0.3931109 0.49782017 -0.4040242 0.2644937 0.0023164423 0.019816365 0.22912067 -0.0013136677 -0.14239126 0.17460391 -0.2751457 -0.4632852 -0.055781 -0.0830654 0.21030396 0.044164896 0.3464263 -0.24349497 -0.02135495 -0.13957801 -0.07548444 0.07745396 0.026251888 0.29301006 0.18278205 0.5334668
4766 0.018500794 0.075021856 -0.3324408 0.009518135 0.12551902 -0.2559098 0.07367306 0.081259765 0.026740074 -0.09925906 0.30273575 -0.0818371 0.023458106 -0.048832256 0.08178585 0.3277758 0.014994686 0.042476047 0.11121416 0.334003 0.27566442 0.09883094 0.15939763 -0.2657677 0.001892879 -0.23500033 0.296809 -0.060443968 -0.20435692 0.63829327 0.06589568 0.02474418 -0.1446648 0.26768076 -0.022176303 0.119002774 0.038964283 -0.059250128 0.26876336 -0.47029874 -0.30364758 0.17451195 -0.056778833 0.26905686 0.21465105 0.024104757 -0.13545285 0.13402562 -0.23187017 -0.103721485 -0.10259175 -0.10712478 0.2958359 0.030016849 0.3697818 0.17768125 0.29473907 0.07420439 0.15231217 0.2690982 -0.15480027 -0.36999264 -0.529796 -0.031273022
4640 0.1947708 -0.007549059 0.1533318 -0.11495251 0.32431695 -0.5540366 0.43370947 0.24382912 0.060408838 -0.52650803 -0.012168062 0.2507639 0.13538587 -0.19106625 0.0454367 0.35980555 0.16786107 0.31802213 0.6516226 0.09429071 0.14510344 0.18841739 0.31357735 0.07069724 -0.13002066 -0.18402174 0.115259714 -0.21239915 -0.22387123 0.27503908 0.02643941 -0.34658688 -0.9353867 0.21325655 -0.29151744 0.06936928 0.43530443 -0.06357196 -0.19116363 -0.18662989 -0.14888458 0.04298534 -0.021952609 -0.19100574 0.3981304 0.12449366 0.019675285 -0.38413894 -0.14958301 0.017735986 -0.04224886 -0.37301424 0.039913494 0.2411237 -0.09225751 -0.16252676 -0.21923682 0.26256162 0.097599216 0.11765182 -0.29592586 -0.24370645 -0.3393022 -0.10076758
4239 0.15436317 -0.48419064 -0.15688126 -0.18983576 0.013042122 -0.033467844 -0.18351078 -0.08296785 -0.06689029 0.16042718 0.5032748 -0.16860642 -0.0025469502 -0.07784758 0.07759558 0.15606058 -0.0468895 -0.46011063 -0.041528642 0.06663782 0.060211226 0.47231743 0.4907804 -0.6355616 -0.39947584 -0.30282643 0.46810105 0.33251342 0.19624984 0.14300129 -0.08494074 -0.23971535 -0.092587076 -0.08101146 -0.27951625 -0.21255483 -0.011758815 0.07342116 -0.14530785 0.07584545 -0.4610392 -0.19983251 -0.31407982 -0.007822196 0.22051354 0.0650971 -0.17227225 0.030333927 0.27636963 0.2580186 -0.21025959 -0.14068225 -0.03763506 0.20305291 0.13891163 -0.10633773 0.030424941 -0.16199252 -0.49680513 0.00389118 0.41119513 -0.008318855 -0.10478181 -0.005445099
4144 0.019286526 0.62235856 -0.28969264 0.20511222 0.15704887 -0.056838315 0.089851074 0.5229209 0.13687843 -0.30363292 -0.13608986 -0.15183386 0.08208388 -0.21650782 0.06701905 0.35705245 0.0418246 0.8084354 0.1298525 0.29973802 0.0059099006 0.69019115 0.5460982 0.117285825 -0.056209903 -0.023088997 0.24112894 0.09312906 0.0889509 0.2011567 -0.17717396 0.3357198 -0.38141623 0.004395536 0.124991566 0.24459189 0.36198533 0.6782807 -0.142725 -0.049969316 -0.1622585 0.5160613 -0.15320948 -0.119609706 0.062244296 0.22058855 -0.17349218 0.37744787 -0.13259082 0.02238958 -0.24692269 -0.108502656 0.16646461 -0.10508828 0.21638267 -0.23733263 -0.10362248 0.27838248 -0.4006716 0.33487836 0.16400468 0.33642292 -0.14638017 -0.42205185
4998 -0.008025646 -0.028007632 -0.10058722 -0.028590051 0.07873157 -0.47658217 0.3276322 0.093227625 0.2098943 -0.014085271 0.45867315 -0.09698307 0.15522416 -0.15477577 0.10340733 0.36002308 -0.09720979 -0.28928435 -0.19053371 0.4702636 0.094813295 -0.014217988 0.24737638 -0.1771411 0.09966168 0.07025115 0.049117245 -0.051380582 0.06253567 0.46422815 0.30365953 0.18712343 -0.14308183 0.38536227 -0.10921626 0.042409953 0.010768672 0.15345578 0.1881033 -0.4076981 -0.039245803 -0.06419951 0.10902069 0.22749525 0.24878538 -0.13534789 0.19123727 0.2771596 -0.26991433 -0.30923197 -0.03769258 -0.016052466 0.29779544 0.027476728 0.40600204 0.10560348 0.036159813 -0.036307033 0.1548986 0.31079495 -0.2344941 -0.5815519 -0.392029 0.08211595
3464 0.04254122 -0.17673245 -0.02377434 -0.18487331 -0.43475997 -0.427661 0.105619274 0.3482334 0.04263584 -0.20586142 0.18268937 -0.24578555 -0.19704475 -0.27976674 0.043888688 0.23832937 -0.024488855 0.16042645 0.23820776 0.32928437 -0.18700138 -0.13073032 0.17399403 -0.29989716 -0.54905975 0.22355002 0.1792832 0.3257824 0.3403907 0.28321356 -0.26418912 0.46618748 -0.108961605 0.25147986 0.03981532 0.25826263 0.3685388 -0.25372005 0.20701575 0.2947935 -0.13721888 0.32170916 0.2604708 0.58089787 0.32462376 0.17751855 0.5531016 0.102802895 -0.2562908 -0.034066692 -0.11582128 -0.37465152 0.35271898 0.08779374 0.10494235 -0.2969961 0.22116455 0.11055421 -0.086062714 0.102323316 -0.14683634 -0.011376013 0.23023511 -0.75221664
4207 0.12046529 -0.6763701 -0.05500899 0.18234351 -0.04849815 -0.34550458 -0.14562835 0.13400279 -0.23796691 0.30048633 0.031666428 -0.22558989 -0.29291323 0.010912678 0.07318602 0.35366678 -0.072107606 -0.06961362 -0.1336352 0.41768268 0.27068904 0.51598173 0.50781 -0.2654129 -0.18695304 0.104378335 0.19286059 0.48742148 0.030767944 -0.08567406 -0.068689875 0.26034415 0.0013536852 0.12736443 -0.33443442 -0.09172493 -0.353617 0.083997495 -0.2160324 -0.21643513 0.2917305 -0.49110222 -0.3806773 -0.16868915 0.33810228 -0.21624532 0.44557095 0.66940683 -0.09834603 0.26996812 0.12936312 0.2872177 0.02347578 -0.04553045 -0.40093395 -0.4157545 0.08627078 0.57403874 0.1333978 0.11473193 0.035022333 0.16799915 0.10314376 -0.1744387
4070 0.033511326 0.4601209 -0.05422683 -0.042362303 -0.36404526 -0.9373482 0.4914489 0.093732156 -0.121695586 -0.33693668 -0.07231219 -0.279954 0.4251264 -0.17265496 0.16357097 0.1066635 -0.5199709 0.08400468 0.14149228 0.4333294 0.03528351 -0.20715177 0.12269583 -0.22284399 -0.0078088245 -0.15880077 -0.18406896 -0.557721 -0.11055841 0.33602598 -0.23066075 -0.11037507 -0.15203165 -0.39726767 0.29273856 -0.06324467 -0.24170455 -0.13546672 0.04435511 0.059195846 -0.33347484 0.37931612 -0.42648146 0.32821405 0.07277404 -0.30347782 0.31233066 0.15603721 0.0822999 -0.15172191 0.12753302 -0.19071451 0.16032876 0.36248276 -0.2778405 0.041866846 0.13934596 0.47263962 -0.01794156 0.031721722 -0.10830345 -0.1409029 -0.14372474 0.17157449
4597 -0.45907426 -0.12080149 -0.4128841 -0.06234687 0.40866476 -0.21713199 0.2823959 0.35788628 0.08605924 -0.20823726 0.3654365 0.1505954 0.1288552 -0.24845135 0.08125107 0.29429293 0.051688686 0.10340392 -0.04996841 0.5220149 0.005954368 0.012703914 0.33054817 0.009458247 0.17356035 0.11820244 0.15536602 -0.1948304 -0.221282 0.5635294 0.30486926 -0.1115359 -0.36997265 -0.14017245 -0.24390969 0.039444264 0.0072287433 0.38711938 0.07116918 -0.14493296 -0.15745184 0.08598608 -0.11960947 0.6540589 -0.059065197 -0.062039513 0.13710864 0.07770372 0.0093014315 -0.3444382 -0.019687265 0.31145188 0.19036278 0.280719 0.41284874 -0.0036792636 0.4139059 0.24288349 0.049041186 0.037265476 -0.07912542 0.020380909 -0.39409065 -0.046646815
4672 0.052125435 0.034475833 0.024641465 -0.39253664 -0.32195362 -0.21905747 0.43408608 0.2845233 -0.07259271 -0.35589212 0.4154465 0.12636603 0.47624674 -0.023947734 0.05156102 0.2544514 0.34149876 -0.036686443 0.018425964 0.2353224 -0.018558597 0.28598413 0.23057541 -0.14575763 -0.19387347 0.04855591 0.01447884 0.16774572 0.0852835 0.2517431 -0.29685417 0.05666601 -0.46919045 0.56417406 -0.3837266 -0.038097687 -0.21994346 -0.06894912 -0.51244164 -0.20855176 -0.20027576 0.20200646 -0.208483 0.7490786 0.08920082 0.28013688 -0.09176976 0.24735144 0.10151233 -0.24011588 -0.14934729 0.15132037 0.413413 -0.23128334 0.4378657 -0.1810646 0.014308753 0.1565396 0.009099905 0.101321705 -0.3670789 0.043334763 -0.09096784 0.14004017
750 -0.14414394 -0.04684567 0.0868469 0.59253716 -0.03650281 -0.053981222 0.09276181 -0.013449518 0.003138278 0.04098922 -0.41630822 0.04146277 0.3355804 0.26330623 -0.085997425 -0.51068246 0.23209909 -0.545956 -0.065225355 0.4612413 -0.39335173 0.47374034 0.18887708 -0.8029729 0.08770274 0.22960854 0.080294594 0.61515445 0.3819052 0.09412179 0.41433674 0.4137823 -0.5418659 0.16413695 -0.12330908 0.34561434 -0.14691739 -0.21981648 -0.1849412 -0.1265993 -0.16296245 -0.15436658 -0.39505008 0.050471958 0.4355364 -0.2394455 0.33290863 -0.34142765 0.32747433 0.21011612 0.11335712 -0.33586505 0.39095145 0.37893766 -0.5245753 0.037962936 -0.118544295 0.37027845 0.21130744 -0.1357977 -0.02560529 0.08869508 0.20347138 -0.029799115
4080 0.034045458 -0.7585543 -0.20402202 -0.05199351 -0.19222291 -0.43485788 0.32126895 -0.28178492 0.011694591 -0.29605645 -0.016253086 0.087581076 0.16359793 -0.047286373 0.2914562 -0.22411542 -0.10709987 0.1584484 0.17044075 0.27604204 0.12109772 0.375156 0.59433013 -0.50744754 -0.3166284 0.16477554 0.06758873 0.24386528 -0.28113958 -0.13691257 0.07115656 -0.13118862 0.0864982 0.31462348 -0.0021625103 -0.38005292 0.72857636 -0.04994173 0.5013517 -0.144121 -0.0893016 0.35780588 0.25715426 -0.26914877 0.32692975 -0.003851078 -0.5950099 -0.026337817 -0.110297136 0.2998309 -0.36372322 0.19672514 0.28702423 -0.08022469 0.077607736 0.096681274 -0.1247725 0.112223014 -0.39316276 0.30087495 -0.20120917 0.21310957 0.56628764 0.19891348
4953 -0.12376051 -0.2190289 0.1266162 0.29465494 -0.18171781 0.019974694 -0.012215216 -0.35564268 -0.42945528 -0.34961557 -0.35500604 0.028147487 0.7609446 -0.054139342 -0.058140427 0.57927287 0.0036044947 -0.3244069 0.11150004 0.6997757 0.02176238 0.578456 -0.1666248 -0.38917047 -0.3940983 0.10862015 -0.077432334 -0.056278456 0.16471516 0.07833685 0.4882588 -0.093729794 0.048119158 0.14371254 0.3414206 0.34184763 -0.04034847 0.075836524 -0.12752603 0.2483134 0.01942745 -0.0556814 0.16789313 0.086190045 0.28137636 -0.09762662 0.1214156 -0.04811808 0.1389698 0.26667556 -0.2883681 0.2767929 0.12078464 -0.026761575 -0.033263467 -0.36684474 -0.6352816 0.8057714 0.02810315 -0.10208295 -0.035556182 0.18451597 -0.22236899 0.46725473
4058 -0.45783132 -0.04431131 -0.011382704 0.21905161 0.02649134 -0.13636552 0.4626151 0.15226413 0.17772783 -0.51788557 0.2263226 0.007694835 0.30388775 -0.1944637 -0.0913925 0.11214085 -0.20961778 0.24315056 -0.062305424 0.524743 -0.15342624 -0.1678704 0.41205826 0.19426638 0.043085393 -0.27397847 0.038665973 0.012626767 -0.20478031 0.72765213 0.20450307 0.122394495 -0.52296525 -0.18395391 -0.12327751 0.17618771 0.0842547 -0.07132607 -0.0013342794 -0.19571769 -0.046758916 -0.07254208 -0.06743888 0.5218538 0.39724326 0.28312513 -0.13816252 -0.09183749 0.056710385 0.013154613 0.043145336 0.3011883 0.46059075 0.38583392 0.09411567 0.014395375 0.35963327 -0.008780829 -0.18559876 0.079277 -0.042202633 -0.36025542 -0.13075626 0.11843042
1024 0.19692035 -0.07429381 -0.39131865 -0.15770853 -0.18007703 0.060779326 -0.16518126 0.124007404 -0.27582347 0.2580286 0.34898043 0.14597656 0.35271794 -0.45415083 -0.35691756 0.30901405 0.2782866 -0.12574795 -0.14030176 0.65582246 0.24344122 0.27489024 0.043276705 -0.2325511 0.080411874 0.41243002 0.043522302 -0.037293784 -0.035700828 0.2823802 0.338472 0.29559115 0.08865259 0.12434563 -0.22877386 -0.027198097 0.46165878 0.260767 -0.017465062 -0.23978889 0.14205787 0.017149387 -0.11219324 0.32591036 0.23325883 -0.3159109 0.265886 0.41330135 -0.057972454 -0.34438005 -0.23161945 0.15602498 0.17956595 0.16814919 0.18205199 0.25823376 -0.044010017 0.18183161 -0.08649779 -0.02337545 -0.23398526 -0.1367066 -0.08270979 0.17676814
4694 0.03351781 -0.088860735 -0.085240036 0.58488476 0.18668617 -0.36703026 -0.14573056 -0.036663376 -0.00841759 -0.14025967 0.7454677 -0.033087987 -0.052979168 0.40414286 -0.1467405 -0.32404792 0.38644484 0.0599884 0.12811436 0.2549469 0.42089808 0.5669565 0.12297459 -0.29011482 -0.47791427 0.16520381 -0.3303846 -0.028694276 0.117726244 0.71061146 -0.28243896 -0.21956226 -0.3388395 -0.16432714 0.54508346 -0.3311549 0.6016297 -0.4385359 0.20482644 -0.28852093 -0.05906818 -0.62468195 -0.023294333 -0.36077628 -0.3690804 0.017438471 -0.10727034 0.2894504 -0.014055176 0.083357066 -0.18986551 0.24188766 0.35195813 0.43181947 -0.16107808 0.20908919 0.09338962 0.10289481 -0.6441641 -0.0061530224 -0.14382578 0.20886773 0.006607315 -0.01962972
4076 -0.13443914 0.08738547 -0.013523963 -0.18673888 -0.0032894018 -0.27642894 -0.5435872 0.3156417 -0.19989201 -0.39755657 0.20431325 -0.052766867 0.16303022 0.39040443 0.3191641 0.52373767 -0.35576716 0.1557817 -0.00873576 0.038602017 -0.1305398 0.4574461 0.26734915 -0.14562958 -0.55701655 -0.034564294 -0.39443067 0.2108131 -0.26323476 -0.046243522 0.581279 0.40928108 -0.5043526 -0.6719139 0.27211735 -0.024341168 0.016434997 -0.18522377 0.052393973 -0.14909889 0.033969473 0.5058062 -0.33941123 -0.03974125 0.60341096 -0.28697872 0.18801598 0.0047376077 -0.24277523 -0.6955785 0.47703856 0.21006173 0.1360528 0.2593445 -0.26835454 -0.16862148 -0.45292678 0.067390926 -0.39822507 -0.015106563 0.26751608 -0.1684312 0.0036051488 -0.28839305
1018 -0.27888325 0.08108814 -0.060214173 0.0744541 -0.34428805 -0.09068067 -0.42512706 0.19308646 0.024116285 -0.057401095 -0.10731294 -0.22367561 -0.11093459 -0.11107603 -0.321222 0.066640675 0.3723396 0.055436753 0.08467159 0.53692716 -0.13533875 0.26552886 0.35619417 -0.24287428 -0.47474784 0.1087402 -0.2572627 0.08106867 -0.44950685 0.6458484 0.010067936 0.03977062 0.013642498 0.13151239 -0.2634912 0.25079978 -0.01734954 -0.22614768 0.09182957 -0.30681688 -0.20957093 0.11133538 0.26302835 0.277817 0.71024024 -0.7321754 -0.5381227 0.24262902 -0.26770973 -0.08116326 0.30905646 0.1438844 0.29861444 -0.029531498 0.29898506 0.00077165186 0.100787245 0.16392468 0.036912926 -0.33639288 -0.23230776 -0.18706931 -0.29175076 0.016001657
4464 0.089413084 -0.01679381 -0.33438292 -0.37624744 -0.28494582 -0.26182732 -0.11726321 0.14654425 -0.08060709 -0.3129009 -0.058935482 -0.2861627 0.1305085 -0.18667628 0.037250787 0.30127516 0.39387366 -0.17668852 0.1091592 0.57370925 -0.02139635 -0.16284113 0.12104748 -0.014271531 -0.61215425 -0.0367889 -0.03601796 -0.45909327 0.73537165 0.016592227 0.26082525 0.22377291 -0.6752885 0.27083054 0.09275948 0.14818299 0.22493291 -0.15455885 -0.2614632 -0.37560096 0.02319178 0.33691934 -0.19096562 0.3960513 0.17967452 0.09675985 -0.15614726 -0.21833147 -0.04508953 0.38811636 -0.22464208 -0.39844018 0.116529904 -0.05539661 -0.19216336 -0.17525126 0.5485074 0.040564556 -0.34572494 -0.29692695 0.32376423 -0.08537433 0.11954163 -0.042022258
4748 -0.16030188 -0.04995175 -0.3749881 -0.15562734 0.21720752 -0.26311308 -0.27427936 -0.41341212 -0.61141765 -0.104960576 -0.008252811 0.5791725 -0.065640904 -0.09319047 0.20828575 0.4764202 -0.25498956 -0.1145614 -0.08459696 0.75626713 0.028631216 0.25384268 0.60978657 -0.274186 -0.48145637 0.1502847 0.05178524 0.5533325 0.40293255 0.008471805 -0.42965993 -0.20879065 -0.25511542 0.08585135 0.1637645 -0.042935006 -0.09472868 -0.4475105 0.3345015 -0.12934121 -0.3820245 -0.5045266 -0.1580373 0.0137941195 -0.07516927 -0.14748481 0.09178168 -0.35284537 0.34200698 -0.032546844 0.17979829 0.26115346 -0.43358582 -0.15976404 0.33686286 0.01889216 0.17320383 -0.477218 -0.3428054 -0.19970854 -0.39315486 -0.6278715 0.12188257 0.26788276
4590 0.328357 -0.09669494 0.4609303 0.1336064 0.042297408 -0.4378343 -0.14680938 -0.37976554 -0.23071694 0.32063714 0.42325237 -0.09680359 -0.2671501 0.09026182 0.64892197 0.016735436 0.32710168 -0.054261513 -0.094119154 0.16247562 -0.08395889 0.6400399 -0.2524858 -0.11974957 -0.08834611 -0.09650477 -0.28230527 -0.3074504 0.11927134 0.20911555 -0.40744328 0.0011803213 -0.047481958 0.18096843 -0.09540558 -0.17061733 0.5393535 0.23136353 0.18478319 0.107117206 -0.0014998899 -0.50987613 -0.66701746 0.12417637 0.40204516 -0.37846175 -0.3514401 -0.013622781 -0.3076261 0.39407644 -0.08884893 -0.3221558 -0.055622425 -0.11088032 0.21965562 -0.27231508 -0.08795724 -0.0045568314 -0.27439046 -0.29426113 -0.040187553 0.06487898 -0.26198956 0.07871921
1064 0.098477855 -0.049127392 -0.103896245 0.18948618 0.37791458 0.23684587 0.112628475 -0.27760366 -0.14376195 0.25842875 -0.20985056 -0.3567647 0.4889147 -0.44275266 0.37323785 0.8242914 0.034519974 0.018579297 -0.047715917 0.13636601 -0.0691252 0.5229942 0.1524045 0.16350104 -0.48553512 -0.3145966 -0.17598303 0.32703325 -0.15185486 0.4872573 0.0026634692 0.3197903 -0.5968902 0.49041077 -0.13501325 -0.598408 0.18044618 0.09727558 0.068197004 0.07141027 -0.027958369 0.66671807 -0.13261443 0.50717723 -0.43303245 0.24125613 0.303767 -0.14213856 0.32083037 -0.011093073 0.21628878 0.122462675 0.27123472 0.104594134 -0.004802594 -0.2895519 -0.081626594 0.33147138 -0.1782039 -0.10780284 -0.10622215 -0.3223146 0.26556453 -0.1805757
4813 -0.079801105 -0.17818616 0.09723182 -0.0067117773 -0.0657234 0.0125815235 -0.069194585 0.19535674 0.019799784 -0.3380962 -0.12704702 -0.36156276 -0.32691237 -0.26512858 -0.117596194 0.03972554 0.09789127 -0.2656448 -0.32193348 0.37034428 -0.121427104 0.4760757 0.275525 0.028203761 -0.16596024 0.127098 0.082918495 0.051220585 -0.009719024 0.1436958 0.012514433 0.49813715 -0.13268612 0.055710144 0.12751709 0.30510944 0.33747938 -0.0739178 0.21295331 -0.40379542 -0.28397956 0.36306885 -0.071689725 0.58376276 0.40966937 0.0082464 -0.042137757 0.041412573 -0.53466785 -0.15624447 0.26381204 -0.45114556 0.07310041 0.013047984 0.48011085 -0.60771894 -0.014753822 0.17003332 -0.29844922 0.25223804 -0.002046501 -0.3001426 -0.21170042 0.05279465
4852 0.14283296 -0.098072775 0.14805765 -0.14558557 0.2142724 -0.4532856 -0.10652985 0.21997772 -0.06652586 -0.0306525 -0.03231078 0.047862105 0.31499758 -0.50109595 -0.18146731 0.41602638 0.12699707 0.41898188 0.4956411 0.1436168 0.30000144 0.27170765 -0.20472932 -0.29003072 -0.12464737 -0.2747189 0.09025079 -0.65664464 -0.30504975 0.33396855 -0.17807205 0.45359653 -0.7282264 -0.06424869 -0.15921792 0.23822512 0.15351558 0.056039102 -0.24581262 -0.19658817 -0.54794526 0.11431493 0.1072431 0.16685633 0.60846066 -0.038128935 0.22583738 -0.08964543 0.44176018 -0.17791046 -0.044069786 0.15059946 -0.38441792 -0.03168571 -0.056729417 -0.45371523 -0.17949437 0.384776 0.0105502345 0.23991543 -0.4109652 -0.16744311 0.06172876 0.09439027
4836 0.25842914 0.08311962 -0.01982618 0.06831528 0.44599736 -0.18566054 -0.20586836 0.47599286 -0.402026 0.14322636 -0.08079271 -0.040377043 -0.0770468 -0.2837953 0.41083488 0.16231315 -0.68230134 0.10777034 0.7783017 0.076421365 0.10169442 0.4821002 0.39915195 -0.074928 0.14741631 -0.24316888 -0.5422995 0.1678791 0.8346129 0.21640047 0.1493899 0.23322643 -0.21144783 0.5650911 -0.23552197 0.59342057 0.37502223 0.2163868 -0.12428181 0.25288615 0.030691171 -0.11316345 -0.33617067 0.4162495 0.21462385 -0.5667827 -0.103891574 -0.29446295 -0.022649122 -0.07826517 -0.002157151 0.3274242 0.124954306 -0.28056547 -0.14308232 -0.16854042 0.026082033 -0.017184058 -0.25970113 0.36950386 0.38781035 -0.17207973 0.5745177 0.49306983
3438 0.14195618 -0.03538179 -0.4326031 -0.1961751 0.1432898 -0.3254495 -0.06928811 0.21063986 -0.1751202 -0.05311168 0.26659867 -0.08640077 0.2143935 0.005526687 -0.13519306 0.15138657 -0.08356035 0.5004584 -0.08259641 0.5269952 -0.18156154 0.14820337 -0.08448183 -0.40025002 -0.8527002 0.17503585 0.15880615 -0.30467784 0.0037854596 0.17646648 0.096145414 0.1738593 -0.09001175 0.0703004 -0.32322857 0.440178 0.11813501 -0.028147422 -0.32335007 0.1397091 -0.40756336 0.52155817 0.14190763 0.5920838 -0.14099786 0.09935192 0.26013836 0.021899613 -0.28966537 -0.08183698 -0.23272187 -0.40194017 0.021600196 0.07759325 0.42119262 -0.3580333 0.36711988 -0.11067674 0.010276669 0.039773773 0.34575576 -0.334981 0.11812334 -0.07326091
4896 -0.09082235 -0.0347298 -0.1590928 0.24395622 0.18856129 -0.33079138 0.40612274 0.34201014 -0.010051405 -0.032257114 0.5038462 -0.07827701 -0.15898858 -0.11462511 0.33375782 0.43630338 0.17154557 0.020367904 -0.06923565 0.36496335 0.20600396 -0.027675001 0.14758207 -0.085832186 -0.13322833 0.17904595 -0.15208408 -0.23649578 -0.24702018 0.12985314 0.009135455 0.16984674 -0.4990784 -0.06084139 -0.060214166 0.30408856 0.23037173 -0.22493951 -0.16786578 -0.26459393 -0.54402727 -0.19712374 0.0038881656 0.6770823 0.40332556 -0.13688143 -0.11061046 -0.01584257 -0.3585443 0.24308087 -0.06321253 -0.035806138 0.31431016 0.22758652 0.18275799 -0.21152864 0.119903706 0.20356697 0.03681403 0.017518872 -0.32614663 0.32463393 -0.13966219 -0.30420205
4960 0.4271823 -0.566592 -0.30934983 -0.13673644 -0.047550675 0.21227987 0.01044308 0.17177306 -0.18116148 0.22360991 0.14087923 -0.28056607 0.19277915 0.10689249 -0.12530467 0.30484548 -0.041538168 -0.26085585 0.29407215 0.029823275 -0.052895397 0.78480095 0.68109506 -0.53604615 -0.117359705 -0.5188462 0.07892391 0.5594398 0.0948251 -0.13948701 -0.14067061 0.11073836 0.049010303 -0.18064909 -0.10277483 -0.409402 -0.16053464 0.040435452 0.18977754 0.36490142 -0.36248696 -0.3127294 -0.43855014 0.43546087 0.45886245 0.10825787 -0.42692888 -0.1940505 0.15034664 0.13397786 -0.42115265 -0.29293534 -0.117347166 -0.19318174 0.13079655 -0.13797963 -0.019345716 0.28084862 -0.3975386 -0.056312963 0.18364894 -0.21077251 0.005409002 0.1945894
4985 0.028009742 -0.023833109 -0.23670334 -0.05319962 0.40010223 -0.26315635 -0.13542823 0.15976615 -0.08686131 -0.14246401 0.16222946 -0.15481244 0.042038675 -0.12539977 0.20294935 0.3441127 -0.12584604 0.08165601 0.0036860334 0.22933304 0.0033296244 0.26958022 0.014877445 -0.04228538 -0.548598 0.08256207 -0.25814977 0.14501601 -0.33182928 0.27223465 0.28715378 0.2764832 -0.18527393 0.3143468 -0.15359169 0.8281312 0.22265245 -0.12594081 -0.14068347 -0.31761983 -0.05879184 0.092932746 -0.18084192 0.31924376 0.7307506 0.16195923 0.34747618 0.3400673 -0.15115272 0.15976822 -0.08212152 -0.09545154 0.38542458 0.23347032 0.19342041 -0.18749486 0.249252 0.18962333 -0.030566942 0.20554943 -0.12046265 -0.27527007 -0.11150851 -0.4689058
4952 0.6778347 -0.51548517 0.5546939 0.21303463 -0.23992483 -0.21074894 -0.4133653 0.16219793 -0.41816297 0.29300526 -0.21070878 0.09433727 0.3860152 -0.20008802 0.8071805 -0.52091974 0.2310146 0.19791545 -0.19217001 0.32424968 0.6253432 0.38057414 0.6520207 0.3626949 0.0553446 0.04075259 0.18560787 0.30366883 0.27346978 -0.08501708 0.080649815 -0.06883417 -0.5143395 0.4461233 0.47813007 0.13757452 0.29995015 0.016023196 -0.1592191 -0.15678704 -0.30384094 0.58590025 -0.065024845 0.33306196 0.009486706 -0.13803169 0.24675708 0.048003938 0.43012777 0.005578032 -0.23706405 0.2701363 0.18912446 -0.16896865 -0.88684326 -0.2601565 0.014236571 -0.092956364 0.062327225 0.12746547 0.12263897 -0.103092484 -0.49484184 -0.37116125
690 -0.27699742 0.3632313 0.03950316 0.6739729 -0.20333391 -0.42896238 0.13396063 0.21207342 -0.01619063 -0.11893851 0.3790936 -0.3048532 -0.09237477 -0.28715563 0.34397382 -0.13422647 -0.23127355 -0.02785501 0.26449412 0.17329429 0.07263674 0.2311464 0.22518672 -0.02365135 -0.32643786 -0.4728305 -0.0070660994 0.24996872 -0.0036290055 0.21709359 0.004142974 -0.19359212 -0.08871423 -0.09874707 -0.42108443 -0.17127433 -0.03255992 0.5072823 0.55687004 -0.036051854 0.02555443 0.53708506 -0.021997966 0.38017175 0.38483712 -0.17539659 -0.03296387 -0.08533791 -0.1880396 -0.5693863 -0.24021608 0.042025816 0.30731714 -0.30172408 0.2976768 0.031586442 0.42811903 0.18529868 0.0084666 -0.25970393 -0.33364505 0.20825373 0.11330842 -0.27225095
4673 -0.09760914 -0.07546255 -0.36547 -0.18767121 -0.5596279 0.06204865 0.19813679 0.39826098 -0.19041942 -0.2839228 -0.02147648 0.24253629 0.23542316 0.19880454 0.50380236 0.31813565 0.0064732702 0.5758448 0.29073557 0.47097588 -0.2797299 0.31280094 -0.021975402 -0.53916615 -0.45378888 -0.16506052 0.05795458 -0.00056541926 0.103949174 0.42092574 0.13519989 -0.007884748 -0.802956 0.5908813 -0.18916805 -0.33209208 0.12453037 -0.028013794 0.027141105 -0.33422503 0.28722045 0.43545982 0.41158253 0.1980019 -0.0061298455 -0.074736916 0.460663 0.24904309 -0.14002597 0.21140066 0.044011585 -0.20854351 0.30845794 -0.09558018 0.001082201 -0.5779923 -0.20056665 -0.066221915 0.09291329 -0.13485534 0.5146474 -0.31146356 0.024070097 -0.10767886
2631 0.31378043 -0.23206113 0.20047224 0.15853246 0.03882856 -0.2943165 -0.2810885 0.06306623 -0.11896414 -0.01063127 -0.078358866 -0.78001934 -0.22000681 0.3595618 -0.2479083 0.08677434 -0.016668536 0.10795467 -0.014628175 0.56229246 0.4513899 0.6862516 0.1484947 -0.2351574 0.004023677 -0.5552228 0.30203608 0.11783892 0.42839518 -0.095001265 0.109966055 -0.36113918 0.0032117125 0.08302418 -0.3860102 -0.28820017 0.073542766 0.13413018 0.15108731 0.20251672 -0.09833607 -0.31187862 -0.3471766 -0.20675004 0.0968984 -0.070975706 -0.26507863 0.1983978 -0.23524266 -0.07493615 -0.03079648 -0.2715139 -0.15602615 -0.13076729 0.19669974 -0.025788156 0.28420672 -0.09661146 -0.547179 0.1041866 -0.049719438 -0.16605909 0.14879699 0.23521005
3378 -0.3084452 0.04417879 -0.06524574 0.6070389 0.117387846 -0.14685671 0.3158331 0.103275284 -0.088999294 -0.31671804 0.58095926 0.04647754 0.21652809 0.22807766 0.7132977 0.09785124 0.09299419 -0.17645256 0.43540946 0.6446696 0.44177476 -0.20417614 0.15434583 -0.00024258348 -0.40247387 -0.29369882 0.008709056 0.04620564 -0.33510518 0.40297818 0.3880029 0.07250698 -0.49824896 0.222246 -0.37308773 0.30522528 0.10870865 -0.11572425 0.14718972 -0.073648155 -0.2766562 0.14651883 -0.04306083 -0.00037825064 0.3166232 0.07487195 0.23253809 0.05445795 -0.082790114 -0.24919187 -0.004316417 0.2029101 0.55379605 0.065869905 0.38157997 0.018199755 0.063504085 -0.043089908 0.22395705 -0.26308978 -0.16917409 0.3089434 -0.15236558 -0.44823408
4006 -0.09560527 -0.09934458 0.2797716 -0.010980288 -0.41447487 0.4545535 -0.11097149 0.13525937 -0.57295114 -0.32892326 0.37605798 0.071668066 -0.49046656 0.13616087 0.11078572 -0.033843007 -0.14369528 -0.6117083 0.028816795 0.11946277 0.34434265 0.7266085 0.4901006 0.12377351 -0.26183087 0.1532376 0.28285253 -0.3085836 -0.15809716 0.4592371 -0.012471758 -0.08964191 -0.40601286 -0.021809008 0.09860869 -0.074328095 0.82770514 -0.031114275 -0.06797519 -0.06745699 -0.20553318 -0.06372458 -0.13333638 0.6492848 0.068372235 -0.44960842 -0.2263351 -0.080285154 -0.13821808 0.26858157 -0.05088914 -0.35029605 -0.12367818 -0.18087357 0.47355294 -0.48735756 0.44770378 0.47670823 -0.08962926 0.11284574 0.18656196 -0.0005399883 -0.089722395 0.3403096
4725 -0.05867427 0.24148007 -0.018853921 0.4108506 -0.16055545 -0.52102035 -0.14524631 0.07695263 -0.015468686 0.06291702 0.11332534 -0.19747563 0.24090542 0.19993067 -0.09885223 0.49994865 -0.0126612475 -0.10674137 -0.2475517 0.509295 -0.33959118 0.08105122 0.16492464 0.032574862 0.077110566 -0.021546533 -0.1855962 0.79128516 0.13170107 0.57225424 -0.19707868 -0.13445511 -0.45815164 -0.013055712 0.13846496 0.016495407 0.19250707 -0.4641417 -0.3327102 -0.14683636 -0.08602142 0.34612572 0.10352673 0.5362147 0.44364417 -0.18481508 -0.16234495 0.10930289 -0.35932127 -0.1313008 0.10967606 -0.18050602 0.005514553 -0.44593617 -0.1808711 -0.27330694 -0.013404352 0.17396154 0.21322484 0.75006366 -0.14365245 0.19331677 -0.18256585 0.31777737
4919 -0.18925428 0.17719875 -0.6176756 -0.095426336 0.16325963 -0.20615558 -0.06480127 0.24647677 0.25072372 0.25582495 0.016643548 0.049948066 0.1200137 0.45451358 0.3080088 0.51410913 0.27592358 -0.059613045 0.009288785 0.034341276 0.008207829 0.18323964 0.98606217 -0.59447324 -0.50809973 -0.08556099 0.14718652 -0.02056249 0.52486295 0.07648211 -0.09658535 0.30146506 -0.5095164 0.12516084 0.2739189 0.08878587 0.25324738 0.17271979 -0.7207124 -0.05962138 -0.080115266 0.4277721 -0.512543 -0.044978607 -0.10853164 -0.51607275 -0.45667586 0.102687806 -0.2764191 -0.070666775 -0.17567486 -0.28301105 -0.02517877 -0.3389793 -0.17960106 0.2260853 0.14446388 0.11710114 -0.108803004 -0.16341045 -0.20791778 -0.40674114 0.032610368 -0.13349354
2353 0.6087153 -0.23375154 -0.0026581918 0.022591196 -0.28445172 -0.34415814 -0.0890489 -0.06895339 -0.71504474 0.038875427 0.050178654 -0.23696142 -0.100385375 0.16549022 0.050127503 0.36221248 -0.17290114 -0.2410753 0.4216478 0.09707632 0.043182254 -0.100345 0.30562684 -0.5368886 0.53850174 0.2339224 0.06477162 0.5463184 0.10540328 1.1703862 0.33796838 -0.13554204 -0.22059335 -0.004545331 0.09601355 0.09615482 0.6149825 0.20507796 -0.16693398 0.13892888 -0.32102728 0.2496387 0.24843076 -0.16864017 -0.029090965 0.045291338 -0.17042628 -0.009259306 0.1696328 -0.044443913 -0.37836617 -0.15618832 -0.02111887 0.34758362 0.3013001 -0.14022347 0.23022108 -0.03916825 -0.15287028 -0.34159604 -0.11311321 0.104884885 0.14465818 -0.0983903
4735 0.0809514 -0.14974096 -0.4192918 -0.09264282 -0.2967797 -0.08466762 -0.49032664 0.1756048 -0.035472866 0.055580452 0.1878776 -0.26346055 -0.1964198 0.03721847 0.09954471 0.38505325 0.023360135 -0.19682011 0.08039564 0.7125496 -0.040803142 0.12967236 0.23173249 -0.54640883 0.038306627 0.15056267 -0.45769352 -0.31462145 -0.14948674 0.35696504 0.22943518 -0.093210176 -0.17200431 0.14889549 -0.22930616 0.06705264 0.38412833 -0.094499566 -0.38640648 -0.35965252 -0.14834984 0.3881971 0.11731936 0.27318528 0.17171912 -0.113751 -0.15401337 -0.052122336 -0.19360106 -0.07628413 -0.02563359 -0.07037702 -0.14761561 -0.06630335 0.40187842 0.18888606 0.14056808 0.008975231 0.0471805 0.4513748 -0.36094713 -0.22011808 -0.07037209 -0.14900744
3404 0.58849555 0.0050208657 -0.20904347 0.44516376 -0.034423888 -0.20168062 -0.39954507 -0.3449149 0.11141928 -0.16013546 0.05670163 0.14434999 0.38338447 0.52224576 0.10930617 -0.21136484 0.17579511 0.14430322 -0.20139545 0.78413683 0.09718312 0.18010344 0.22101381 0.01778398 -0.48318607 0.096834846 0.0032292148 -0.106839575 -0.06557416 0.8881232 0.303406 0.33636224 -0.19027549 -0.21550559 -0.1796161 0.04694811 0.11235989 0.036689844 -0.27228093 0.027208593 -0.012614666 0.03355818 0.06294394 0.2747387 0.32374668 0.0158841 -0.32822758 -0.28659478 -0.35737905 -0.29936457 -0.027856808 -0.42519405 0.44632775 -0.5499318 0.17888132 -0.16273223 -0.07831003 0.109024085 0.029413527 -0.31191948 -0.19502899 -0.05977839 0.13490249 -0.33642697
3967 -0.045805875 -0.6152432 -0.013042105 0.00050083344 -0.024351312 -0.15851778 0.07092535 0.15296921 0.09177481 -0.25787428 0.5007397 -0.21107309 -0.14108975 0.07893175 0.47490543 0.22889876 0.31373203 0.29193938 0.073381945 -0.23069347 -0.09790314 0.19948508 0.21413977 0.19060917 -0.46747127 -0.32715875 0.4784859 0.1539502 -0.1449196 0.21645358 0.15165362 0.14299132 -0.34016624 -0.11793097 0.07588312 -0.00454966 0.35768172 0.3318704 -0.47412157 0.035350874 -0.06305797 0.22029263 -0.1759257 0.61042035 0.5005235 -0.52155024 0.17328575 0.28742477 -0.05338058 -0.13683099 0.01775912 -0.6160353 0.6320221 0.12528022 0.32319492 -0.32527444 0.17401695 0.10593705 0.17498961 0.2637252 -0.4195823 0.10126816 -0.14531386 0.63716793
1603 -0.07578123 0.24389552 -0.069845915 0.3599586 0.00893839 -0.29199216 0.2033713 0.39508373 0.18218578 -0.49537095 0.17844488 0.049148727 0.19501238 -0.08244618 -0.041715164 0.33392137 0.044771627 0.3867828 -0.5337536 0.48817644 0.18663998 0.43161082 -0.11439861 0.24131343 0.09700051 -0.104852684 0.10400144 -0.58771944 -0.25126758 0.4215448 0.37207136 -0.013278226 -0.49064085 0.12010365 -0.15811077 -0.021072553 0.14621462 0.046994396 -0.21179345 -0.34673867 -0.34561196 0.34243965 -0.042735673 0.13915943 0.24112248 0.5400513 -0.28828418 0.10967957 0.09339935 -0.1657853 -0.1330437 0.13579917 0.32290816 -0.11572934 0.11284326 -0.11347928 0.19953042 0.25566548 -0.20200735 0.09528336 -0.2347667 -0.35296965 0.011971906 0.39005786
2123 0.33864194 -0.24004917 0.06466237 0.22434387 -0.008348107 -0.2776643 0.14134781 -0.025897184 0.009917185 -0.079965584 0.11789739 -0.12311221 0.08040053 0.4609462 0.38617575 0.042287838 0.17362565 0.19555666 -0.1896138 0.029722715 0.18321721 0.362134 0.09315299 -0.41977528 -0.02449792 0.11438885 -0.012503724 0.26895133 0.64456314 0.20838603 0.25563702 0.4753166 -0.12800637 0.11024205 -0.6341362 -0.28544268 0.27039942 -0.035195205 0.19254602 0.17282689 -0.04745846 -0.07226688 -0.48267293 -0.057733987 0.27074066 -0.1347699 0.6123013 0.058188252 -0.13339773 0.3448274 -0.25376752 0.13166362 -0.20215315 0.26326388 0.35057694 0.18041901 -0.25665936 -0.39052445 -0.36556095 0.14731373 0.3630167 0.05593896 -0.5744071 0.49039894
4856 -0.063457936 -0.30836123 -0.03437937 0.17497422 -0.04072305 -0.50505936 -0.035188194 -0.022842418 -0.07305056 -0.29917848 0.23143333 0.23601796 0.15932111 -0.073105834 0.18628198 0.3941574 0.02519088 -0.116907634 0.39177108 0.38341936 -0.05104864 0.027179968 0.028300835 -0.55771124 -0.14863697 0.20735946 -0.17935735 0.45138973 0.085914396 0.34659162 -0.0011850514 -0.29136187 0.0828082 0.25646034 0.2657064 -0.2450256 0.33001006 0.28097188 -0.14264758 0.17474127 -0.3986227 -0.18447345 0.013008268 -0.16402175 0.010565947 0.11534283 -0.0366506 0.21286516 0.030861551 0.6715697 -0.25719464 0.4031959 -0.12255916 -0.11698482 0.038866688 0.21525839 0.03934897 0.2498823 -0.689732 0.49242413 -0.4576111 0.10635305 0.062632844 0.32948625
4986 -0.038563713 -0.24408308 -0.28701708 -0.05676089 0.03060515 -0.38034126 0.20777082 0.5375104 -0.0061964816 -0.2714796 -0.15415238 0.03791688 0.42747986 0.08903133 0.07138989 0.1995353 -0.30983102 0.0968749 -0.34792107 0.35613143 0.03421663 0.30542263 -0.08794836 -0.1215818 -0.1166517 -0.11482206 0.2990341 0.10941732 -0.7415136 0.44623202 0.52008003 0.015492444 -0.36562112 0.071547255 0.036674794 0.3367601 0.23842487 0.11969617 0.043316722 -0.011306572 -0.26786673 -0.08558944 -0.076650426 0.071393155 0.11447795 0.14872915 -0.16317399 0.34722254 -0.27447724 0.1492713 -0.18265416 -0.051762477 0.5188775 -0.06980385 0.1932324 -0.17157875 0.2861623 0.24537368 0.025622934 0.26200286 -0.590693 -0.5572041 -0.08216876 0.0769841
4315 -0.0015958813 -0.21700712 -0.22224139 0.6068382 0.16526905 -0.16012721 -0.181162 -0.3307359 -0.18212552 -0.27042705 0.44310394 0.08368216 0.5832397 -0.14962724 0.14856902 -0.022108596 0.18774816 0.27049276 0.29181474 -0.102451295 -0.33130595 0.5138142 -0.10293511 -0.4209375 -0.08739936 0.13981304 0.14253159 0.26121953 0.49217245 0.21920736 -0.0051539694 0.12013379 0.2860958 -0.014982943 -0.062083825 -0.49868843 0.025222758 0.19601215 0.49827936 -0.50871575 -0.053174626 0.031777497 -0.07854976 0.17239124 0.22940297 -0.52268595 0.20162533 0.06165803 0.29385415 0.4053588 -0.20032766 0.06290212 0.21518454 0.26440412 0.2257984 0.11569595 -0.1083621 -0.05809214 -0.7879385 0.49402386 -0.25844112 0.2804792 -0.20389022 0.22759871
4131 0.111803606 -0.058417905 -0.10003219 0.10377823 -0.37181526 -0.44410384 -0.6420605 0.4921018 0.22784425 -0.03283953 0.17576766 -0.17128283 -0.2339119 -0.105892055 0.42901546 0.3935259 -0.30955952 0.14812148 -0.027614865 0.14607696 -0.013924082 -0.17729509 0.16713133 -0.38323286 -0.20448694 0.04346531 -0.10307135 0.20723778 -0.055939578 -0.09028713 0.5218437 0.074485 -0.30700862 0.08640903 0.33562747 0.0056865383 0.27969962 0.27806503 -0.29958877 -0.2371195 0.0380883 0.10148107 -0.051186725 0.46227184 0.2291779 -0.3517984 0.059231702 -0.14736511 -0.100765035 0.20120704 -0.45056215 -0.7128529 0.21297674 0.11705925 0.395728 -0.13089049 0.033383712 0.28707817 -0.17535067 0.25429928 -0.646609 -0.23740579 -0.2511818 0.020554459
3827 -0.17436229 -0.47886685 0.3781105 -0.21641232 0.45051736 0.15085839 -0.38243568 0.20115833 -0.35275066 -0.29082346 0.09428296 0.2767034 0.1601407 -0.42191002 0.38078007 0.30676267 -0.32862923 -0.071251616 0.1271431 0.70684105 -0.32993194 -0.1049069 0.55246395 -0.015163774 0.50106937 -0.013390398 0.22753789 -0.19084556 -0.10405051 0.10178567 0.2066867 0.823612 -0.5367258 -0.47892064 0.29591277 -0.16426888 0.60270447 -0.48411897 -0.5844511 -0.01741417 0.033952326 0.029040013 -0.21067844 0.4194931 0.16188388 -0.06756715 -0.15799165 0.028640823 0.08634985 -0.20609193 0.27286506 0.030525424 0.30113444 0.5030898 0.1599599 0.14638138 0.44121075 0.32606333 -0.45701158 0.34702954 0.09819347 0.001526097 0.63587224 -0.20728347
4840 -0.111230984 -0.023140317 0.47750255 -0.40262792 -0.19270055 -0.17980185 -0.26061913 -0.21215756 -0.11269188 0.14752847 0.27557874 -0.15192123 0.4350716 0.55103153 0.24688603 0.33809945 0.2288594 0.6071521 -0.23508911 0.89297384 -1.0528803 0.5785137 0.081640474 0.062091954 0.260944 0.17372236 0.36622122 0.6161577 -0.12361252 0.40046832 0.054480784 -0.02092022 -0.1066062 -0.23957251 0.2800183 0.4162849 0.018808529 0.07379386 -0.16550587 0.08960363 -0.09979088 0.48494986 -0.014583052 0.48719385 0.76602846 -0.12915942 -0.08987054 -0.2809824 0.017922698 -0.3834131 -0.06233563 -0.22791755 0.364488 -0.12290083 -0.3679772 0.44173533 -0.09494643 0.21166411 0.03964089 -0.2527475 -0.097013496 -0.0041024447 0.051497806 0.23335189
4913 0.08572312 -0.06549374 -0.57244474 0.16075253 -0.29318932 0.06169834 -0.25607637 -0.06384814 -0.14126436 -0.1965292 0.33324322 0.052841432 0.02549932 0.04761197 -0.08786176 0.6424358 0.07662724 -0.28923395 0.08590277 0.85290706 0.034605216 0.2797718 0.27707094 -0.1025323 -0.038857494 -0.20124711 -0.0044655153 0.009017609 -0.38659352 -0.08389882 0.008799853 0.38227925 -0.2736509 0.018606935 -0.1059892 0.17883793 -0.030938586 -0.04533996 -0.0036847203 -0.15789184 0.12774044 0.21535017 0.13326281 0.49497363 0.4451349 -0.24893098 -0.017629271 -0.08610744 -0.2930816 -0.21757945 -0.62764215 -0.21833856 -0.0100706285 0.18614697 0.046285648 0.102598265 0.2800783 -0.17707153 0.39837638 -0.008657193 -0.183185 -0.056977376 -0.24228527 0.11101957
4975 -0.20180465 -0.077512756 0.16012098 0.28453967 0.029667122 -0.48281455 0.18073423 0.36965105 -0.25385517 -0.34238154 -0.39130616 0.41350955 -0.22914416 -0.15448281 -0.20451848 0.24827722 -0.28243405 0.2832742 -0.12266435 0.2692821 -0.6054736 0.5231702 0.2189302 0.40302357 -0.32233912 0.14410031 0.12587573 0.27345365 -0.1974594 0.48842978 0.06542403 0.11607801 -0.6127558 0.3441815 0.030449986 0.1955465 0.6708613 -0.106466606 -0.16091971 -0.36241743 0.37470114 0.3041559 0.024005856 -0.109631464 0.43160173 0.013903988 0.22037902 -0.100669526 0.100122035 -0.461604 -0.51075524 -0.020567533 0.3147957 -0.29485315 -0.054865815 -0.16967298 0.19242968 0.20039059 -0.36046624 -0.31804377 0.2494202 -0.26245737 -0.24024749 0.11858034
3298 0.28480765 -0.5002635 -0.18419892 0.55111104 0.58122724 -0.5202579 0.10973793 0.32610476 0.06294273 -0.0031363694 0.25195003 0.36667237 -0.34136745 -0.08279653 0.15210243 0.13333477 0.23989163 0.17557706 0.4452236 0.2915921 -0.20354202 0.4564948 0.19222766 0.08433072 -0.116471425 -0.14220771 -0.11870528 -0.34474877 -0.13342866 0.2963246 -0.15637797 -0.30425218 -0.14040431 -0.18116486 -0.11406471 0.0050118007 0.30139622 0.23011181 -0.064649895 -0.20150325 -0.24418068 0.586583 0.34311068 0.49033472 0.28859004 0.13610733 0.34492376 -0.2828328 -0.16307347 -0.2721011 0.24716628 0.25484076 0.22501987 0.21122319 0.4409809 -0.49625343 0.20773622 0.7262958 0.22284229 -0.025210755 -0.091444746 0.16994324 0.12160609 -0.1291908
677 0.41271988 -0.03945251 0.22303131 0.15765604 -0.11164835 -0.16847159 0.46508187 -0.4879005 -0.32711992 -0.16841352 0.82886386 -0.23057845 -0.42569965 -0.36591873 0.47580066 0.6023525 -0.15102413 0.5320524 0.21189335 0.035872772 0.1669339 0.61691535 0.0051437467 -0.36636758 -0.21404426 0.07100493 -0.077438444 -0.47869748 0.3304505 -0.09980486 0.12617645 -0.19187912 -0.39389214 0.391878 0.36356223 -0.12724105 0.089064814 -0.3626912 -0.14259063 0.09971162 -0.3747043 0.4127006 0.0675412 -0.0068599144 0.8332236 0.33972204 -0.03213366 0.2714987 -0.2187853 -0.4805063 -0.1941317 0.24686599 0.16751572 -0.17518014 0.26772663 -0.53283083 0.29484043 -0.14554611 -0.024524564 -0.07927052 0.33988848 -0.19371484 -0.09206517 0.20120834
3049 0.17251669 0.24721421 -0.4343881 0.081365176 -0.030686192 -0.28819436 -0.32973784 0.20103386 0.28348532 0.02622968 -0.35560372 -0.08123311 0.19922462 -0.12984614 0.23542306 0.20991874 0.04220589 0.5298145 -0.10922379 0.595592 0.031221254 0.08530356 -0.0756174 -0.5139667 -0.12077185 0.09784871 0.008550862 -0.28232113 0.011139585 0.47779804 0.2173231 0.13173908 -0.33604437 -0.1657085 0.2012329 0.49039406 0.40254915 -0.05359438 -0.102463074 0.009878684 -0.43728036 0.46104705 -0.41323847 0.4146068 0.20426892 0.47465947 0.1962127 0.09152355 0.06313567 -0.09539045 0.09054867 0.27944645 0.09698304 -0.13765198 0.37309858 -0.31697538 0.48107892 0.14558743 0.16688809 -0.035542835 -0.13258368 -0.42927724 -0.09137499 -0.07618781
4596 0.007658413 -0.34258753 -0.76100504 0.04475441 0.29220706 -0.38762423 -0.089405775 0.30443418 6.976203e-05 -0.08186126 0.5322149 0.122585475 0.06835547 -0.062226426 0.49738386 0.5550384 0.12995403 0.06899138 0.114814885 0.6380487 0.16981892 0.07988657 0.20420013 0.03398524 0.40857542 0.031418543 -0.0062923064 -0.25318027 -0.10694613 0.39156982 0.19104563 -0.15275905 -0.25716162 0.05326243 -0.2814373 0.0052039754 0.16044 -0.19711481 0.0396829 -0.3058828 -0.17613986 0.14168228 0.03380872 0.52624905 0.33096987 0.54602647 -0.113619186 0.07130116 -0.084803805 -0.24558713 0.07704841 0.002401986 0.23016931 0.13061891 0.3339213 -0.23061341 0.2450947 0.16170187 0.32546628 0.096665844 -0.16838709 0.09360097 -0.19512582 -0.09399748
3585 0.27687106 0.29027647 -0.04778743 0.47251073 0.08378647 -0.5119107 -0.108477145 -0.46284708 -0.06762071 -0.33764917 -0.1344043 0.18240313 -0.23684882 0.30669105 0.09336985 0.24673857 -0.15732002 -0.009262481 0.07509931 0.29338285 0.21858862 0.2541957 -0.0025448354 -0.50772274 -0.24914959 0.32929817 0.09943915 0.2991495 -0.0443151 0.25334215 0.12117576 -0.47258988 -0.29096973 -0.31166995 -0.10610674 -0.14108923 0.13871066 0.06887738 -0.2434602 -0.28535512 0.14751135 0.43357533 -0.48906386 0.7550277 0.13795443 0.034056384 0.25138494 -0.28299507 -0.63611376 -0.35904232 -0.018790692 0.15368949 0.56422627 -0.31069526 0.11299541 -0.011227897 0.22425036 -0.08124685 0.061875533 0.3207293 -0.42032236 0.16487321 -0.109838754 0.20694627
4832 -0.10775955 0.3202455 -0.15851171 -0.16537108 -0.011565479 -0.1684974 0.30632198 0.20044687 -0.053644124 -0.47794393 0.18655811 0.061210047 0.25546768 -0.21378039 -0.17266542 0.15609019 -0.07406468 0.53136253 -0.3464828 0.3242336 -0.22151338 -0.07780769 0.5567639 -0.25780863 0.3692962 -0.14415756 -0.029946411 0.1431618 -0.42563573 0.38507316 0.51468253 0.29502857 -0.484995 0.021982824 -0.18703413 0.3180429 0.05588881 -0.1085066 0.095718704 -0.38960817 -0.20391351 0.1340404 -0.4840131 0.47439253 0.33603695 -0.21274875 -0.17553231 0.17372881 0.23186465 -0.26536536 -0.0004889105 -0.0074781096 0.18803032 0.21655612 0.26883915 -0.32106566 0.11898943 0.10629832 -0.2908766 -0.110518344 -0.63446724 -0.24071437 -0.019566093 0.16170776
3299 -0.17199945 -0.13643669 -0.6230817 0.31179616 -0.0009733932 -0.7721743 -0.20743355 0.47094733 0.39662486 -0.27690408 0.2510406 0.19999893 0.215501 0.0846336 0.019670807 0.4585802 0.036352366 0.095646925 -0.38391167 0.51096463 0.06053057 0.12566459 0.12888378 0.00859872 0.4412124 -0.008272832 0.03599879 -0.24562307 -0.24748275 0.22844684 0.471367 -0.27071062 -0.34690103 -0.11697461 -0.02930878 0.36790165 0.20349002 0.12011834 0.21603173 -0.09699545 -0.3430989 0.29238617 -0.11304979 0.54186153 0.2660472 0.3566467 0.07067452 0.13401704 -0.104329854 -0.23538388 0.04570213 0.13728519 0.08104732 0.051750872 0.15675433 -0.53985417 0.20495841 0.10414119 -0.033104163 -0.17509376 -0.17595339 -0.04289086 -0.063716985 0.23966882
4997 0.026323743 -0.13247706 -0.187183 0.1860716 -0.1410724 -0.22609362 0.10454797 -0.040041946 0.4811584 0.24816738 0.25015402 -0.19360588 -0.28432727 -0.06650333 0.31987765 -0.017754909 -0.23034151 -0.39408317 -0.14847429 -0.063977495 0.012719462 0.5911294 0.42549518 -0.45462897 -0.24175267 -0.10036291 0.29915148 -0.06028603 0.12265353 0.15257356 -0.10421226 -0.173005 0.0989887 0.1536558 -0.45430824 -0.010209057 0.53089887 -0.1610856 0.44694373 0.33963606 -0.22378123 -0.1281867 -0.5460699 0.18009399 0.008944902 -0.10793374 -0.3825091 0.13835445 -0.019466337 0.15112418 -2.0097465e-05 -0.20351903 0.4037989 0.10675299 0.14409773 -0.30995786 0.028713563 -0.2945397 -0.4670285 -0.31003526 -0.07389958 -0.55498254 -0.2412993 0.13434479
2486 -0.51038295 0.038752005 0.36341316 0.4585208 0.24980909 0.101169035 -0.22105937 0.23281525 -0.092881076 -0.10819147 0.24406433 0.034171704 -0.021870447 -0.51274234 0.33688948 0.34439936 0.0094809085 -0.04850981 0.30491117 0.0279274 -0.18823695 0.13499984 0.3112585 -0.23373699 0.32859382 -0.2586094 0.041808292 0.1491957 0.20347221 0.6668751 0.0039838385 0.32902974 0.013511623 0.33150798 -0.42797375 0.4324122 0.13623728 0.09481125 -0.25922465 0.028748987 0.13221805 0.85245407 -0.3546201 0.04984333 0.7285572 0.34089097 0.40120548 0.38353327 -0.48516017 0.116416715 -0.0639044 -0.5631076 -0.07553159 -0.22366393 -0.039823808 -0.014363378 -0.109402634 -0.005459845 -0.5155432 -0.6013413 -0.21103878 -0.14352746 0.14038274 0.25502336
3296 -0.26815182 -0.07098043 -0.41227683 -0.047668006 0.107044466 -0.41384307 -0.41882217 0.47220275 0.2481277 -0.0037138541 -0.044229545 0.21422109 0.25380033 -0.30968812 0.48348534 0.5595272 0.016509593 0.46293333 -0.33372414 0.27625412 -0.17775168 0.22692983 0.15179983 -0.037445307 0.111120686 -0.03217156 0.23644063 -0.09054347 0.18334125 0.4286295 0.07727746 -0.42280152 -0.37225068 0.22240657 0.271958 0.20959961 0.25176677 0.3358366 -0.09294633 -0.009764329 -0.18849221 0.38801432 -0.44122508 0.9692511 0.3466812 0.3287362 0.21335225 0.08428462 -0.068446174 0.03184666 0.0069203135 0.090978496 0.10137718 0.592174 0.05494767 -0.09259097 0.23579702 0.20159307 0.12356553 -0.06421071 -0.10562879 0.09842294 -0.06979094 0.08182316
2227 0.36469993 -0.19198498 -0.39991912 0.038637158 0.30105242 -0.42244023 0.2150989 -0.095451765 -0.8142865 -0.13695563 -0.39781922 -0.039487842 -0.29082447 0.22661166 0.114297986 -0.47498462 0.037753988 -0.17989579 0.022231046 0.17903341 0.2788637 0.13184619 0.04876806 -0.34286562 0.34328434 0.124510676 -0.03726537 0.38945967 0.16630204 -0.5300043 -0.16580763 0.6745886 -0.4200041 0.2921909 -0.4906939 -0.41869408 0.4962321 -0.010982243 0.51110506 0.12858331 0.30524632 0.21546136 -0.13908026 -0.0770738 0.64265114 0.1275582 0.16430236 -0.042741287 -0.26644424 0.32747984 -0.029106403 0.04697049 0.11336031 0.20839736 0.22348195 -0.1475398 -0.2871958 0.068605416 -0.6783738 -0.727275 -0.13318355 -0.30461866 -0.40177214 0.12874861
4971 0.35806245 -0.17711845 -0.05392242 -0.13991849 -0.22712706 -0.33478665 -0.7291666 0.31239748 -0.28013396 -0.07675844 -0.03538405 -0.37233868 -0.45620674 0.021232843 -0.28592515 0.26154017 -0.3048656 -0.1570922 -0.02723552 0.15385239 0.22512376 0.5344572 0.4071771 -0.480304 -0.4851323 -0.7177996 0.54645 0.24510664 0.042064145 -0.33595243 -0.27910286 -0.21201399 -0.20490378 5.8316073e-05 -0.5490347 -0.24896447 -0.21079902 0.1797821 0.24022906 0.1398384 -0.4754373 -0.29163328 -0.50847924 -0.05010019 -0.14585923 -0.0910041 -0.10148609 0.09558662 0.28583053 0.50339776 0.18542656 0.07439699 0.112288736 0.002192932 0.064317495 -0.50618374 0.10732625 0.45783594 -0.23173442 -0.20572504 0.059872363 0.11333591 -0.3917945 0.080943845
4939 -0.12751293 -0.20132034 -0.13786171 0.69005704 0.042951822 -0.28844965 0.009598257 0.46161115 0.15739852 0.48966232 0.3005813 -0.8091578 -0.008490572 0.31854153 0.5774196 0.187643 0.21993947 -0.25938305 0.021314349 -0.26188633 0.056605443 0.7499474 0.139646 -0.6479418 -0.09916965 -0.16602638 0.6886051 -0.3837705 0.13965316 0.33786228 -0.15158473 -0.40276074 -0.18018305 0.09009807 -0.37449408 -0.036977526 0.09964504 0.1775608 0.53226703 -0.34765872 -0.030795414 -0.2246565 -0.11313759 0.19437487 0.07365587 -0.11786106 -0.18646747 0.29305252 -0.29471833 0.16985102 -0.101128615 -0.32894436 -0.38942018 -0.41799712 0.27824327 -0.044536207 0.05923866 -0.056974895 -0.44586247 -0.11781361 -0.30820477 -0.379091 -0.024622142 0.16544928
1025 -0.05613252 -0.019682068 -0.5403318 0.0863494 -0.25793582 -0.27438045 -0.029173156 -0.21464431 0.12214916 0.2750695 0.39352435 -0.26419565 0.01772754 -0.22092117 0.16364382 0.41360074 -0.3601677 -0.20143732 -0.23849313 0.44869497 0.24798681 0.53509486 0.3356613 -0.13829276 0.46550223 0.25144 -0.21001911 -0.31702822 -0.3723853 0.21921417 0.20337984 -0.16940871 -0.334016 -0.109924294 -0.5423167 -0.1722779 0.43052626 0.20076483 -0.3330149 -0.36245465 -0.117420375 -0.024760028 0.31621033 0.39842275 0.46076155 0.099994235 -0.03724981 0.24321248 -0.3868564 0.24268101 -0.17629229 -0.034994666 0.35197842 -0.008734528 0.18639453 0.13380432 0.2703557 0.18079242 0.3018866 -0.04780499 -0.04051874 -0.33595183 -0.6936765 -0.22849195
4188 0.32097253 -0.23473081 -0.29493165 -0.05214338 0.1371615 -0.6538542 0.7384263 0.41111264 -0.22888465 -0.30739498 0.1481082 -0.39554775 0.2237437 -0.07048297 0.085124634 0.09988223 -0.35019013 0.0073130974 0.03904556 0.50256705 -0.15759897 -0.11220096 -0.055907458 -0.14160143 0.53703576 0.06060271 -0.68350834 -0.16106495 -0.0024798582 0.49102834 -0.0375501 0.3196723 -0.4065668 -0.47030863 0.31693685 -0.44867307 -0.17958969 0.11973667 0.086236745 -0.0044078548 -0.75710887 0.317752 -0.32308 0.28677818 0.01850109 -0.07760978 0.4239801 0.46685728 0.11633254 -0.10725565 0.2630413 0.078552626 0.46270144 -0.51346135 -0.054171868 -0.28954002 -0.0037210067 -0.06752345 0.07426746 -0.2862464 -0.18967594 -0.050979838 0.11975481 0.23772874
2858 -0.10871404 -0.4147969 0.33859995 -0.109396845 0.07484641 -0.4896308 -0.49462998 -0.36357397 -0.5199041 -0.36998233 -0.1460946 -0.11359614 0.2514674 0.51360375 0.3057925 -0.091613516 -0.031810954 0.09334385 0.041844897 -0.09751105 0.3670551 0.9330359 -0.34589484 -0.2454866 0.17003934 -0.5123252 -0.33710715 0.49593592 0.37599376 0.281495 -0.42703855 0.2767498 0.199014 0.10703742 -0.06118202 -0.14622857 0.27609217 0.039641175 0.21988073 -0.09557449 -0.013361525 -0.19517006 -0.1670965 0.06345926 -0.055573255 -0.38471383 -0.090295754 0.03678191 -0.16306038 0.20975628 -0.53009844 -0.15609087 0.18064167 0.35165253 0.69937557 -0.06861805 0.2843508 -0.12740974 -0.2520666 -0.4096288 -0.124677084 -0.14671026 -0.36809608 0.25942668
4679 -0.1857989 -0.38151595 -0.68936026 0.3635685 -0.19271255 -0.26376244 -0.3869623 -0.5441426 -0.526596 -0.10025352 0.3290773 -0.7714566 -0.1350486 -0.100870095 -0.03707127 0.34694603 -0.31292498 0.18107474 -0.05011642 0.2187648 0.30015346 -0.021823728 0.20185734 -0.24603613 -0.15528177 0.046298753 -0.012209829 -0.08673967 0.14077562 0.39374456 0.18954134 -0.11417535 -0.3642724 0.20749545 0.19122618 0.019108923 0.38614836 0.24220161 0.023908066 0.24999961 0.09370938 0.14291918 0.18014202 0.3769155 0.63159454 -0.036311843 -0.22361182 -0.047410835 -0.26113892 -0.42065188 -0.17834422 -0.02542648 0.022647992 0.004878654 0.016849611 0.12681822 -0.09665929 -0.019849153 0.21024683 -0.1427223 -0.17960584 -0.22297342 -0.25777435 -0.09729333
3384 -0.35454068 -0.27215505 -0.47100934 -0.22932631 -0.08689491 -0.07323488 0.012049598 -0.48192486 -0.06545998 -0.15759 0.14615537 -0.5836422 0.02418578 -0.13404831 0.2929931 0.635228 -0.4581859 0.06490013 0.11702067 0.2796495 0.46968943 0.56858 0.43695578 -0.26058486 0.348147 0.06822575 -0.332147 -0.019153327 -0.18249312 0.121173225 0.39428937 0.00805734 -0.40443617 0.16008483 -0.032748435 -0.16841839 0.2134587 0.12568167 0.14061274 -0.1287076 0.1635184 0.123887636 0.28262323 0.08177288 0.39458278 0.19307786 0.07887567 0.23999263 -0.3304713 -0.18015637 -0.3373712 -0.33788902 -0.026969293 -0.012342009 0.4666685 -0.22686657 0.23865569 0.12293496 0.07980998 -0.010948036 -0.45463717 -0.28604957 -0.4085462 -0.08745811
4964 0.18199047 -0.018943872 -0.4223363 0.15394628 0.014081024 -0.034880344 0.15459102 0.29178825 -0.059295736 -0.20991075 0.23755479 -0.12713227 -0.048810128 -0.19981441 -0.015650287 0.5424437 -0.3555958 -0.08196388 -0.13876319 0.29263276 0.13352565 0.5836549 0.069378145 -0.1912831 0.015201219 -0.14598256 0.036571745 -0.096179865 -0.10290024 0.39175254 0.013817683 0.17804456 -0.3572467 0.13982224 0.11089167 0.25750786 0.25142148 -0.04079699 -0.23773395 -0.26982912 -0.18771158 -0.008635814 0.33912712 0.5097312 0.40324092 0.07657996 -0.4310743 -0.05645486 -0.29942936 -0.17740718 -0.22029196 -0.20941876 0.14635642 0.22108181 0.47632945 -0.1547515 0.24538366 0.42177474 0.4419957 0.26409268 -0.171127 -0.27264532 -0.0348318 0.09176166
2487 -0.6528333 0.34703046 0.21325877 0.15684414 0.682169 -0.14793848 -0.45447463 -0.16604976 -0.15886137 -0.54234695 0.45518324 0.67322296 -0.37475538 -0.39590126 -0.098007806 -0.0056380597 -0.2333266 -0.20590638 -0.04519199 0.31928062 0.30294082 0.6007621 -0.07479546 -0.5435677 -0.0651706 -0.13591678 -0.60049313 0.2081164 -0.010464036 0.18270527 0.031255066 -0.21719697 -0.048741765 0.31555247 -0.62566537 -0.13285412 0.13843039 -0.042172167 -0.6075447 -0.24391237 -0.023621067 0.8924136 -0.08703207 -0.06414024 0.13597727 0.012823372 0.20638737 0.14213932 -0.8217915 0.038182314 -0.2322246 -0.6275219 0.2850313 -0.2215461 0.5805088 -0.32599065 -0.17020912 -0.06693649 -0.5266636 -0.6595004 -0.12637231 0.05269499 -0.09098588 0.016717158
4973 0.13568228 0.19441418 -0.19189216 0.29037848 -0.18139489 -0.18948306 -0.0060026958 0.2482392 -0.2545053 -0.038905088 0.18296802 -0.44719392 -0.23705405 -0.041527193 -0.0690754 0.47301522 -0.105180375 -0.11887205 -0.29488665 0.38788453 0.054700706 0.2572558 0.073595904 -0.036014345 0.20557722 -0.03901069 -0.12556896 0.112531185 -0.21066064 0.26857042 0.11387317 -0.15696424 -0.16625251 0.020729525 -0.37440187 0.52273524 0.28315604 0.048804145 -0.25526118 -0.23191245 -0.16384776 0.3234395 -0.21140137 0.53298527 -0.012414655 -0.10442096 -0.5614199 0.034407683 0.071636446 -0.24397863 -0.37555313 -0.2473981 0.038937807 0.23365463 0.0012008853 0.0711522 -0.1868875 0.07950852 -0.23503157 0.1922371 -0.6808517 -0.14892234 -0.1805339 0.08193128
4991 -0.031032257 0.1855916 0.20019451 -0.12211435 -0.02991202 -0.09204582 -0.24781328 -0.04304835 -0.02110626 -0.33689314 0.009813413 -0.23159544 -0.009890483 -0.37691402 0.366175 0.2886486 -0.44987303 0.32564998 -0.03817886 0.3409887 -0.12134233 0.762968 0.1957335 -0.20813334 -0.52427125 0.02789263 -0.4044184 -0.21844661 0.56388056 0.11712994 0.55195355 -0.35161042 -0.42514783 -0.16658327 -0.28494227 0.19514447 0.3180745 -0.48179826 -0.5755492 0.9460804 -0.368716 0.09731512 0.26081565 0.5459785 -0.23233627 0.05376909 -0.052946582 -0.16660285 0.07647419 0.32053855 -0.18880147 -0.026140546 0.28309622 -0.23243092 0.36839008 -0.17789125 0.048269723 -0.18831083 0.20781091 -0.11709907 -0.68568933 -0.28963712 0.24023196 0.093812615
3038 -0.043546528 -0.30507526 -0.5362864 -0.023607893 0.17542882 -0.6613908 -0.42174605 0.25902906 0.10089763 -0.12098526 0.20327666 0.21033368 0.09739187 -0.18398444 0.14143544 0.38330564 -0.15810286 0.099741235 -0.3984542 0.3951144 -0.1010993 0.1748702 0.14950076 -0.10592021 0.1809398 -0.070536844 -0.088191696 -0.22123064 0.08221978 0.51254326 0.19283085 -0.45547673 -0.28648624 -0.012519213 -0.2531305 0.08875326 0.073790565 0.1849376 -0.19483864 -0.24383181 -0.18864849 0.15150537 -0.0240387 0.67374706 0.5040128 0.35591224 -0.15560828 -0.06252336 -0.058394067 -0.3153285 0.021230394 0.079882726 0.074640766 0.16250843 0.25008556 -0.5208441 0.19350648 0.278565 0.057498723 -0.2943684 -0.28338692 0.057483573 0.07143135 -0.102072515
4909 -0.3373083 -0.7171886 0.41424298 -0.29721394 -0.075973965 -0.29582703 -0.2935354 0.33756942 0.2845344 0.42339784 -0.093937285 0.086480886 0.6162214 -0.22829302 0.18371497 0.4987291 -0.34500992 0.5820604 0.6191786 0.51991415 -0.5593557 0.454858 -0.06274573 0.25468883 0.0431148 -0.042777028 -0.23591037 -0.051841475 -0.15792768 -0.31297728 -0.44181293 -0.08102851 -0.5583549 -0.5072305 0.18809685 0.317361 0.28884858 0.05621796 -0.24094865 0.412396 -0.5365469 0.623752 -0.2713027 0.053974543 -0.11227733 -0.49373108 0.463288 -0.04603769 -0.43321893 -0.28386453 0.1677312 0.19059964 0.759818 0.027598692 -0.30187383 -0.054434635 0.48209423 -0.054567695 -0.7516783 -0.26900968 -0.55344 0.2784078 -0.4844076 0.05429727
